{"learner":{"attributes":{"niter":"159"},"feature_names":[],"feature_types":[],"gradient_booster":{"model":{"gbtree_model_param":{"num_parallel_tree":"1","num_trees":"160","size_leaf_vector":"0"},"tree_info":[0,0,0,0,0,0,0,0,0,0,0,0,0,0,0,0,0,0,0,0,0,0,0,0,0,0,0,0,0,0,0,0,0,0,0,0,0,0,0,0,0,0,0,0,0,0,0,0,0,0,0,0,0,0,0,0,0,0,0,0,0,0,0,0,0,0,0,0,0,0,0,0,0,0,0,0,0,0,0,0,0,0,0,0,0,0,0,0,0,0,0,0,0,0,0,0,0,0,0,0,0,0,0,0,0,0,0,0,0,0,0,0,0,0,0,0,0,0,0,0,0,0,0,0,0,0,0,0,0,0,0,0,0,0,0,0,0,0,0,0,0,0,0,0,0,0,0,0,0,0,0,0,0,0,0,0,0,0,0,0],"trees":[{"base_weights":[8.3870965E-1,1.4545455E0,-4.6153846E-1,5E-1,-1.1111112E0],"categories":[],"categories_nodes":[],"categories_segments":[],"categories_sizes":[],"default_left":[1,0,1,0,0],"id":0,"left_children":[1,-1,3,-1,-1],"loss_changes":[6.8770585E0,0E0,2.58547E0,0E0,0E0],"parents":[2147483647,0,0,2,2],"right_children":[2,-1,4,-1,-1],"split_conditions":[1.8463737E-1,1.20000005E-1,2.5102043E-1,4.125E-2,-9.1666676E-2],"split_indices":[0,0,49,0,0],"split_type":[0,0,0,0,0],"sum_hessian":[6.75E0,4.5E0,2.25E0,1E0,1.25E0],"tree_param":{"num_deleted":"0","num_feature":"53","num_nodes":"5","size_leaf_vector":"0"}},{"base_weights":[5.7570493E-1,1.281079E0,-8.4795475E-1,1.5041361E0,3.443327E-1,-1.0997367E0,-2.1865012E-1],"categories":[],"categories_nodes":[],"categories_segments":[],"categories_sizes":[],"default_left":[1,1,1,0,0,0,0],"id":1,"left_children":[1,3,5,-1,-1,-1,-1],"loss_changes":[9.85302E0,7.850542E-1,3.1316662E-1,0E0,0E0,0E0,0E0],"parents":[2147483647,0,0,1,1,2,2],"right_children":[2,4,6,-1,-1,-1,-1],"split_conditions":[1.8822327E-1,1.6854437E-1,1.22894675E-1,1.2409123E-1,2.8407449E-2,-9.072828E-2,-1.8038636E-2],"split_indices":[49,30,3,0,0,0,0],"split_type":[0,0,0,0,0,0,0],"sum_hessian":[7.729948E0,5.2358947E0,2.4940534E0,3.7396984E0,1.496196E0,1.2474225E0,1.246631E0],"tree_param":{"num_deleted":"0","num_feature":"53","num_nodes":"7","size_leaf_vector":"0"}},{"base_weights":[6.140258E-1,1.4632509E0,-8.2802653E-1,-1.980113E-1,-1.0886747E0],"categories":[],"categories_nodes":[],"categories_segments":[],"categories_sizes":[],"default_left":[1,0,1,0,0],"id":2,"left_children":[1,-1,3,-1,-1],"loss_changes":[1.0626699E1,0E0,3.5721898E-1,0E0,0E0],"parents":[2147483647,0,0,2,2],"right_children":[2,-1,4,-1,-1],"split_conditions":[1.23950295E-1,1.207182E-1,1.5944105E-1,-1.6335933E-2,-8.981566E-2],"split_indices":[12,0,28,0,0],"split_type":[0,0,0,0,0],"sum_hessian":[6.688129E0,4.20003E0,2.4880993E0,1.2430936E0,1.2450057E0],"tree_param":{"num_deleted":"0","num_feature":"53","num_nodes":"5","size_leaf_vector":"0"}},{"base_weights":[5.9301066E-1,1.2257186E0,-8.209764E-1],"categories":[],"categories_nodes":[],"categories_segments":[],"categories_sizes":[],"default_left":[1,0,0],"id":3,"left_children":[1,-1,-1],"loss_changes":[7.160203E0,0E0,0E0],"parents":[2147483647,0,0],"right_children":[2,-1,-1],"split_conditions":[3.5718495E-1,1.0112179E-1,-6.773055E-2],"split_indices":[0,0,0],"split_type":[0,0,0],"sum_hessian":[5.878646E0,4.153329E0,1.7253168E0],"tree_param":{"num_deleted":"0","num_feature":"53","num_nodes":"3","size_leaf_vector":"0"}},{"base_weights":[6.050822E-1,1.092631E0,-5.5981094E-1,6.771893E-2,1.3473185E0],"categories":[],"categories_nodes":[],"categories_segments":[],"categories_sizes":[],"default_left":[1,1,0,0,0],"id":4,"left_children":[1,3,-1,-1,-1],"loss_changes":[5.0502477E0,1.4353104E0,0E0,0E0,0E0],"parents":[2147483647,0,0,1,1],"right_children":[2,4,-1,-1,-1],"split_conditions":[4.9051145E-1,-4.3028533E-1,-4.6184406E-2,5.586812E-3,1.1115378E-1],"split_indices":[40,19,0,0,0],"split_type":[0,0,0,0,0],"sum_hessian":[6.815198E0,4.8481216E0,1.9670763E0,1.2169142E0,3.6312077E0],"tree_param":{"num_deleted":"0","num_feature":"53","num_nodes":"5","size_leaf_vector":"0"}},{"base_weights":[5.525927E-1,1.1367303E0,-7.7633137E-1],"categories":[],"categories_nodes":[],"categories_segments":[],"categories_sizes":[],"default_left":[1,0,0],"id":5,"left_children":[1,-1,-1],"loss_changes":[6.2821493E0,0E0,0E0],"parents":[2147483647,0,0],"right_children":[2,-1,-1],"split_conditions":[3.6484635E-1,9.378026E-2,-6.404734E-2],"split_indices":[1,0,0],"split_type":[0,0,0],"sum_hessian":[5.955878E0,4.2377634E0,1.7181141E0],"tree_param":{"num_deleted":"0","num_feature":"53","num_nodes":"3","size_leaf_vector":"0"}},{"base_weights":[3.4346396E-1,9.5469046E-1,-4.519196E-1,-9.045707E-1,2.523323E-1],"categories":[],"categories_nodes":[],"categories_segments":[],"categories_sizes":[],"default_left":[1,0,1,0,0],"id":6,"left_children":[1,-1,3,-1,-1],"loss_changes":[3.772424E0,0E0,1.3965664E0,0E0,0E0],"parents":[2147483647,0,0,2,2],"right_children":[2,-1,4,-1,-1],"split_conditions":[1.3055995E-2,7.8761965E-2,4.999567E-1,-7.462709E-2,2.0817416E-2],"split_indices":[44,0,27,0,0],"split_type":[0,0,0,0,0],"sum_hessian":[5.87219E0,3.2072403E0,2.6649497E0,1.4491078E0,1.2158419E0],"tree_param":{"num_deleted":"0","num_feature":"53","num_nodes":"5","size_leaf_vector":"0"}},{"base_weights":[2.1911405E-1,1.2092654E0,-8.449958E-1,-1.1441102E0,-9.863691E-2],"categories":[],"categories_nodes":[],"categories_segments":[],"categories_sizes":[],"default_left":[1,0,1,0,0],"id":7,"left_children":[1,-1,3,-1,-1],"loss_changes":[8.329752E0,0E0,7.6490617E-1,0E0,0E0],"parents":[2147483647,0,0,2,2],"right_children":[2,-1,4,-1,-1],"split_conditions":[2.4141611E-1,9.976439E-2,3.5349724E-1,-9.4389096E-2,-8.137546E-3],"split_indices":[1,0,30,0,0],"split_type":[0,0,0,0,0],"sum_hessian":[5.9359546E0,3.0041711E0,2.9317834E0,1.7125366E0,1.219247E0],"tree_param":{"num_deleted":"0","num_feature":"53","num_nodes":"5","size_leaf_vector":"0"}},{"base_weights":[4.5364717E-1,-5.723385E-1,8.60981E-1,1.2343079E0,-2.5543407E-1],"categories":[],"categories_nodes":[],"categories_segments":[],"categories_sizes":[],"default_left":[1,0,1,0,0],"id":8,"left_children":[1,-1,3,-1,-1],"loss_changes":[3.3887272E0,0E0,2.5490582E0,0E0,0E0],"parents":[2147483647,0,0,2,2],"right_children":[2,-1,4,-1,-1],"split_conditions":[-3.6882526E-1,-4.721793E-2,1.6340585E-1,1.0183041E-1,-2.1073312E-2],"split_indices":[36,0,49,0,0],"split_type":[0,0,0,0,0],"sum_hessian":[5.9294696E0,1.56997E0,4.3594995E0,3.1878796E0,1.17162E0],"tree_param":{"num_deleted":"0","num_feature":"53","num_nodes":"5","size_leaf_vector":"0"}},{"base_weights":[6.578995E-1,1.2185919E0,-2.651188E-1,6.8764913E-1,-1.1133648E0],"categories":[],"categories_nodes":[],"categories_segments":[],"categories_sizes":[],"default_left":[1,0,1,0,0],"id":9,"left_children":[1,-1,3,-1,-1],"loss_changes":[4.456441E0,0E0,3.8686101E0,0E0,0E0],"parents":[2147483647,0,0,2,2],"right_children":[2,-1,4,-1,-1],"split_conditions":[-8.048698E-3,1.00533836E-1,-4.0958768E-1,5.6731056E-2,-9.18526E-2],"split_indices":[15,0,10,0,0],"split_type":[0,0,0,0,0],"sum_hessian":[6.986735E0,4.1472445E0,2.8394907E0,1.4265206E0,1.4129702E0],"tree_param":{"num_deleted":"0","num_feature":"53","num_nodes":"5","size_leaf_vector":"0"}},{"base_weights":[2.4252757E-1,9.9874985E-1,-6.424557E-1,2.2512597E-1,1.1339031E0,2.5206164E-1,-1.179594E0],"categories":[],"categories_nodes":[],"categories_segments":[],"categories_sizes":[],"default_left":[1,1,1,0,0,0,0],"id":10,"left_children":[1,3,5,-1,-1,-1,-1],"loss_changes":[6.632341E0,2.9034376E-1,2.5714958E0,0E0,0E0,0E0,0E0],"parents":[2147483647,0,0,1,1,2,2],"right_children":[2,4,6,-1,-1,-1,-1],"split_conditions":[9.3461536E-2,-4.5967436E-1,1.6791135E-1,1.8572893E-2,9.354702E-2,2.0795086E-2,-9.731651E-2],"split_indices":[49,0,0,0,0,0,0],"split_type":[0,0,0,0,0,0,0],"sum_hessian":[7.9514246E0,4.2183084E0,3.7331164E0,1.0237906E0,3.1945179E0,1.5997397E0,2.1333766E0],"tree_param":{"num_deleted":"0","num_feature":"53","num_nodes":"7","size_leaf_vector":"0"}},{"base_weights":[2.6226798E-1,6.225772E-1,-8.1731766E-1,1.1725243E0,-1.7715721E-1,-7.344537E-1,4.6062997E-1],"categories":[],"categories_nodes":[],"categories_segments":[],"categories_sizes":[],"default_left":[1,1,0,0,1,0,0],"id":11,"left_children":[1,3,-1,-1,5,-1,-1],"loss_changes":[3.6065917E0,3.0834413E0,0E0,0E0,1.5940537E0,0E0,0E0],"parents":[2147483647,0,0,1,1,4,4],"right_children":[2,4,-1,-1,6,-1,-1],"split_conditions":[4.8271644E-1,1.0344605E-1,-6.742871E-2,9.6733265E-2,3.2858056E-1,-6.059243E-2,3.8001973E-2],"split_indices":[4,2,0,0,18,0,0],"split_type":[0,0,0,0,0,0,0],"sum_hessian":[6.9636774E0,5.5385256E0,1.4251518E0,3.0055678E0,2.532958E0,1.2708915E0,1.2620664E0],"tree_param":{"num_deleted":"0","num_feature":"53","num_nodes":"7","size_leaf_vector":"0"}},{"base_weights":[6.214481E-1,1.0312874E0,-5.67542E-1],"categories":[],"categories_nodes":[],"categories_segments":[],"categories_sizes":[],"default_left":[1,0,0],"id":12,"left_children":[1,-1,-1],"loss_changes":[3.7972162E0,0E0,0E0],"parents":[2147483647,0,0],"right_children":[2,-1,-1],"split_conditions":[3.1670937E-1,8.508122E-2,-4.6822216E-2],"split_indices":[11,0,0],"split_type":[0,0,0],"sum_hessian":[5.591321E0,4.2566943E0,1.3346267E0],"tree_param":{"num_deleted":"0","num_feature":"53","num_nodes":"3","size_leaf_vector":"0"}},{"base_weights":[7.872721E-2,7.4904406E-1,-9.138963E-1,1.0816144E0,-1.8028496E-1,-1.2717991E0,-5.3905748E-2],"categories":[],"categories_nodes":[],"categories_segments":[],"categories_sizes":[],"default_left":[1,1,1,0,0,0,0],"id":13,"left_children":[1,3,5,-1,-1,-1,-1],"loss_changes":[5.6615543E0,1.7448046E0,9.981208E-1,0E0,0E0,0E0,0E0],"parents":[2147483647,0,0,1,1,2,2],"right_children":[2,4,6,-1,-1,-1,-1],"split_conditions":[6.4348415E-2,4.0213114E-1,6.0198482E-2,8.923319E-2,-1.487351E-2,-1.0492343E-1,-4.4472245E-3],"split_indices":[21,47,42,0,0,0,0],"split_type":[0,0,0,0,0,0,0],"sum_hessian":[6.4800315E0,4.014462E0,2.4655693E0,2.8357816E0,1.1786807E0,1.4028797E0,1.0626895E0],"tree_param":{"num_deleted":"0","num_feature":"53","num_nodes":"7","size_leaf_vector":"0"}},{"base_weights":[3.830182E-1,1.0677428E0,-4.209677E-1,-1.0825893E0,7.738561E-1],"categories":[],"categories_nodes":[],"categories_segments":[],"categories_sizes":[],"default_left":[1,0,1,0,0],"id":14,"left_children":[1,-1,3,-1,-1],"loss_changes":[4.568904E0,0E0,4.1255136E0,0E0,0E0],"parents":[2147483647,0,0,2,2],"right_children":[2,-1,4,-1,-1],"split_conditions":[-8.048698E-3,8.808879E-2,2.1681333E-1,-8.931362E-2,6.384313E-2],"split_indices":[15,0,41,0,0],"split_type":[0,0,0,0,0],"sum_hessian":[6.482927E0,3.323967E0,3.1589596E0,2.0935898E0,1.06537E0],"tree_param":{"num_deleted":"0","num_feature":"53","num_nodes":"5","size_leaf_vector":"0"}},{"base_weights":[9.7285755E-2,8.1106263E-1,-7.482121E-1,1.9455902E-1,9.516859E-1,-1.0291047E0,-6.1763898E-2],"categories":[],"categories_nodes":[],"categories_segments":[],"categories_sizes":[],"default_left":[1,1,1,0,0,0,0],"id":15,"left_children":[1,3,5,-1,-1,-1,-1],"loss_changes":[4.8993845E0,1.908071E-1,6.645415E-1,0E0,0E0,0E0,0E0],"parents":[2147483647,0,0,1,1,2,2],"right_children":[2,4,6,-1,-1,-1,-1],"split_conditions":[1.14788726E-1,-4.0955183E-1,2.4574636E-1,1.605112E-2,7.851409E-2,-8.490114E-2,-5.095522E-3],"split_indices":[49,22,37,0,0,0,0],"split_type":[0,0,0,0,0,0,0],"sum_hessian":[6.1127753E0,3.3366625E0,2.7761128E0,1.0624304E0,2.2742321E0,1.615771E0,1.1603419E0],"tree_param":{"num_deleted":"0","num_feature":"53","num_nodes":"7","size_leaf_vector":"0"}},{"base_weights":[3.0709413E-1,7.333296E-1,-4.1554287E-1,1.8971719E-1,9.6468085E-1,-8.591779E-1,2.1628128E-1],"categories":[],"categories_nodes":[],"categories_segments":[],"categories_sizes":[],"default_left":[1,1,1,0,0,0,0],"id":16,"left_children":[1,3,5,-1,-1,-1,-1],"loss_changes":[2.4920733E0,4.2423964E-1,1.1032343E0,0E0,0E0,0E0,0E0],"parents":[2147483647,0,0,1,1,2,2],"right_children":[2,4,6,-1,-1,-1,-1],"split_conditions":[5.327612E-1,6.337005E-2,2.5394553E-1,1.565167E-2,7.958617E-2,-7.088218E-2,1.7843205E-2],"split_indices":[23,20,37,0,0,0,0],"split_type":[0,0,0,0,0,0,0],"sum_hessian":[6.1014524E0,3.8284862E0,2.2729661E0,1.686264E0,2.1422222E0,1.1239489E0,1.1490172E0],"tree_param":{"num_deleted":"0","num_feature":"53","num_nodes":"7","size_leaf_vector":"0"}},{"base_weights":[1.2604399E-1,-3.3939987E-1,8.326248E-1,4.6051982E-1,-1.0393537E0],"categories":[],"categories_nodes":[],"categories_segments":[],"categories_sizes":[],"default_left":[1,1,0,0,0],"id":17,"left_children":[1,3,-1,-1,-1],"loss_changes":[2.1847713E0,2.8287835E0,0E0,0E0,0E0],"parents":[2147483647,0,0,1,1],"right_children":[2,4,-1,-1,-1],"split_conditions":[2.1681333E-1,-2.5508338E-1,6.869155E-2,3.7992887E-2,-8.574668E-2],"split_indices":[41,40,0,0,0],"split_type":[0,0,0,0,0],"sum_hessian":[4.7839174E0,3.1973774E0,1.5865402E0,1.6517731E0,1.5456043E0],"tree_param":{"num_deleted":"0","num_feature":"53","num_nodes":"5","size_leaf_vector":"0"}},{"base_weights":[2.1332993E-1,6.569007E-1,-5.354783E-1,-4.1097607E-2,9.1932625E-1],"categories":[],"categories_nodes":[],"categories_segments":[],"categories_sizes":[],"default_left":[1,1,0,0,0],"id":18,"left_children":[1,3,-1,-1,-1],"loss_changes":[2.4815466E0,8.576404E-1,0E0,0E0,0E0],"parents":[2147483647,0,0,1,1],"right_children":[2,4,-1,-1,-1],"split_conditions":[3.1134903E-1,-2.1391392E-1,-4.4176962E-2,-3.3905527E-3,7.584442E-2],"split_indices":[15,41,0,0,0],"split_type":[0,0,0,0,0],"sum_hessian":[5.412145E0,3.4758797E0,1.9362652E0,1.1801951E0,2.2956846E0],"tree_param":{"num_deleted":"0","num_feature":"53","num_nodes":"5","size_leaf_vector":"0"}},{"base_weights":[2.7286825E-1,6.77402E-1,-3.4907773E-1,-3.004488E-1,1.0197812E0,5.040291E-1,-9.1330975E-1],"categories":[],"categories_nodes":[],"categories_segments":[],"categories_sizes":[],"default_left":[1,1,1,0,0,0,0],"id":19,"left_children":[1,3,5,-1,-1,-1,-1],"loss_changes":[2.094808E0,1.9185529E0,2.179138E0,0E0,0E0,0E0,0E0],"parents":[2147483647,0,0,1,1,2,2],"right_children":[2,4,6,-1,-1,-1,-1],"split_conditions":[2.0816919E-1,-3.767783E-1,-9.4352715E-2,-2.4787027E-2,8.4131956E-2,4.15824E-2,-7.534806E-2],"split_indices":[0,17,4,0,0,0,0],"split_type":[0,0,0,0,0,0,0],"sum_hessian":[6.386152E0,3.8153555E0,2.5707963E0,1.0212075E0,2.7941482E0,1.0658908E0,1.5049053E0],"tree_param":{"num_deleted":"0","num_feature":"53","num_nodes":"7","size_leaf_vector":"0"}},{"base_weights":[4.094895E-1,6.8834203E-1,-5.101096E-1,-1.9275135E-1,9.280094E-1],"categories":[],"categories_nodes":[],"categories_segments":[],"categories_sizes":[],"default_left":[1,1,0,0,0],"id":20,"left_children":[1,3,-1,-1,-1],"loss_changes":[2.2494311E0,1.4682591E0,0E0,0E0,0E0],"parents":[2147483647,0,0,1,1],"right_children":[2,4,-1,-1,-1],"split_conditions":[4.7714567E-1,-4.2223674E-1,-4.2084046E-2,-1.5901987E-2,7.656078E-2],"split_indices":[24,16,0,0,0],"split_type":[0,0,0,0,0],"sum_hessian":[6.402732E0,5.1059246E0,1.2968073E0,1.1337293E0,3.9721951E0],"tree_param":{"num_deleted":"0","num_feature":"53","num_nodes":"5","size_leaf_vector":"0"}},{"base_weights":[1.4542404E-1,7.518911E-1,-3.087967E-1,3.268027E-1,-1.0088097E0,-1.86071E-1,6.7304146E-1],"categories":[],"categories_nodes":[],"categories_segments":[],"categories_sizes":[],"default_left":[1,0,1,1,0,0,0],"id":21,"left_children":[1,-1,3,5,-1,-1,-1],"loss_changes":[2.0347784E0,0E0,2.3097696E0,6.735568E-1,0E0,0E0,0E0],"parents":[2147483647,0,0,2,2,3,3],"right_children":[2,-1,4,6,-1,-1,-1],"split_conditions":[-1.5201558E-1,6.2031016E-2,-8.048698E-3,6.337005E-2,-8.32268E-2,-1.5350858E-2,5.552592E-2],"split_indices":[50,0,15,20,0,0,0],"split_type":[0,0,0,0,0,0,0],"sum_hessian":[5.543716E0,2.0933592E0,3.450357E0,2.08781E0,1.3625469E0,1.0278615E0,1.0599484E0],"tree_param":{"num_deleted":"0","num_feature":"53","num_nodes":"7","size_leaf_vector":"0"}},{"base_weights":[2.6324782E-1,6.108676E-1,-6.368516E-1,9.000944E-1,-2.4948852E-1],"categories":[],"categories_nodes":[],"categories_segments":[],"categories_sizes":[],"default_left":[1,1,0,0,0],"id":22,"left_children":[1,3,-1,-1,-1],"loss_changes":[2.5488458E0,1.5906882E0,0E0,0E0,0E0],"parents":[2147483647,0,0,1,1],"right_children":[2,4,-1,-1,-1],"split_conditions":[2.3433451E-1,5.551091E-1,-5.254026E-2,7.425779E-2,-2.0582803E-2],"split_indices":[50,38,0,0,0],"split_type":[0,0,0,0,0],"sum_hessian":[5.9027357E0,4.490017E0,1.4127185E0,3.3257937E0,1.1642234E0],"tree_param":{"num_deleted":"0","num_feature":"53","num_nodes":"5","size_leaf_vector":"0"}},{"base_weights":[-5.323031E-2,7.181403E-1,-5.42615E-1,2.1960369E-1,-8.9012545E-1],"categories":[],"categories_nodes":[],"categories_segments":[],"categories_sizes":[],"default_left":[1,0,1,0,0],"id":23,"left_children":[1,-1,3,-1,-1],"loss_changes":[2.5703132E0,0E0,1.2825127E0,0E0,0E0],"parents":[2147483647,0,0,2,2],"right_children":[2,-1,4,-1,-1],"split_conditions":[-2.3549205E-1,5.9246577E-2,-2.0512533E-1,1.8117305E-2,-7.343535E-2],"split_indices":[38,0,39,0,0],"split_type":[0,0,0,0,0],"sum_hessian":[4.776574E0,1.672669E0,3.103905E0,1.0872438E0,2.0166612E0],"tree_param":{"num_deleted":"0","num_feature":"53","num_nodes":"5","size_leaf_vector":"0"}},{"base_weights":[5.524235E-1,9.9254805E-1,-1.8389013E-1,2.518234E-1,-5.67771E-1],"categories":[],"categories_nodes":[],"categories_segments":[],"categories_sizes":[],"default_left":[1,0,1,0,0],"id":24,"left_children":[1,-1,3,-1,-1],"loss_changes":[2.3063574E0,0E0,6.941925E-1,0E0,0E0],"parents":[2147483647,0,0,2,2],"right_children":[2,-1,4,-1,-1],"split_conditions":[1.504722E-1,8.188522E-2,2.778437E-1,2.0775432E-2,-4.684111E-2],"split_indices":[49,0,44,0,0],"split_type":[0,0,0,0,0],"sum_hessian":[5.553644E0,3.2581306E0,2.2955136E0,1.2362959E0,1.0592176E0],"tree_param":{"num_deleted":"0","num_feature":"53","num_nodes":"5","size_leaf_vector":"0"}},{"base_weights":[2.5995907E-1,6.6378266E-1,-7.4649155E-1,-2.1168435E-1,9.5597005E-1],"categories":[],"categories_nodes":[],"categories_segments":[],"categories_sizes":[],"default_left":[1,1,0,0,0],"id":25,"left_children":[1,3,-1,-1,-1],"loss_changes":[2.890666E0,1.4135864E0,0E0,0E0,0E0],"parents":[2147483647,0,0,1,1],"right_children":[2,4,-1,-1,-1],"split_conditions":[3.0507308E-1,-6.0041994E-1,-6.1585557E-2,-1.746396E-2,7.886753E-2],"split_indices":[6,15,0,0,0],"split_type":[0,0,0,0,0],"sum_hessian":[4.8931837E0,3.7350297E0,1.1581542E0,1.0035775E0,2.7314522E0],"tree_param":{"num_deleted":"0","num_feature":"53","num_nodes":"5","size_leaf_vector":"0"}},{"base_weights":[2.533652E-1,-5.9109205E-1,5.517804E-1,9.401608E-1,-3.064012E-1],"categories":[],"categories_nodes":[],"categories_segments":[],"categories_sizes":[],"default_left":[1,0,1,0,0],"id":26,"left_children":[1,-1,3,-1,-1],"loss_changes":[1.8104272E0,0E0,1.9109964E0,0E0,0E0],"parents":[2147483647,0,0,2,2],"right_children":[2,-1,4,-1,-1],"split_conditions":[-1.7085597E-1,-4.8765097E-2,1.8822327E-1,7.756327E-2,-2.5278099E-2],"split_indices":[26,0,49,0,0],"split_type":[0,0,0,0,0],"sum_hessian":[4.8900027E0,1.0207387E0,3.869264E0,2.597987E0,1.271277E0],"tree_param":{"num_deleted":"0","num_feature":"53","num_nodes":"5","size_leaf_vector":"0"}},{"base_weights":[2.560494E-1,7.36976E-1,-5.658122E-1,1.1983022E-1,8.931878E-1],"categories":[],"categories_nodes":[],"categories_segments":[],"categories_sizes":[],"default_left":[1,1,0,0,0],"id":27,"left_children":[1,3,-1,-1,-1],"loss_changes":[2.7683868E0,2.9664397E-1,0E0,0E0,0E0],"parents":[2147483647,0,0,1,1],"right_children":[2,4,-1,-1,-1],"split_conditions":[1.504722E-1,-5.4161888E-2,-4.6679504E-2,9.885994E-3,7.3688E-2],"split_indices":[49,35,0,0,0],"split_type":[0,0,0,0,0],"sum_hessian":[4.949061E0,3.187263E0,1.761798E0,1.0007402E0,2.1865227E0],"tree_param":{"num_deleted":"0","num_feature":"53","num_nodes":"5","size_leaf_vector":"0"}},{"base_weights":[2.6558635E-1,7.6899654E-1,-3.5473788E-1,3.7015402E-1,-9.3850577E-1],"categories":[],"categories_nodes":[],"categories_segments":[],"categories_sizes":[],"default_left":[1,0,1,0,0],"id":28,"left_children":[1,-1,3,-1,-1],"loss_changes":[2.050257E0,0E0,1.7160017E0,0E0,0E0],"parents":[2147483647,0,0,2,2],"right_children":[2,-1,4,-1,-1],"split_conditions":[-7.3318064E-2,6.3442215E-2,1.3249691E-1,3.0537708E-2,-7.742673E-2],"split_indices":[18,0,30,0,0],"split_type":[0,0,0,0,0],"sum_hessian":[4.6919394E0,2.4577441E0,2.2341955E0,1.1598625E0,1.0743331E0],"tree_param":{"num_deleted":"0","num_feature":"53","num_nodes":"5","size_leaf_vector":"0"}},{"base_weights":[3.0342844E-1,8.0309206E-1,-5.0319207E-1],"categories":[],"categories_nodes":[],"categories_segments":[],"categories_sizes":[],"default_left":[1,0,0],"id":29,"left_children":[1,-1,-1],"loss_changes":[2.15506E0,0E0,0E0],"parents":[2147483647,0,0],"right_children":[2,-1,-1],"split_conditions":[1.3104992E-1,6.62551E-2,-4.1513346E-2],"split_indices":[12,0,0],"split_type":[0,0,0],"sum_hessian":[3.3443704E0,2.0678244E0,1.276546E0],"tree_param":{"num_deleted":"0","num_feature":"53","num_nodes":"3","size_leaf_vector":"0"}},{"base_weights":[4.4836995E-1,8.9903134E-1,6.0434304E-2,4.9125186E-1,-5.082158E-1,1.1615019E-1,6.2077636E-1],"categories":[],"categories_nodes":[],"categories_segments":[],"categories_sizes":[],"default_left":[1,0,1,1,0,0,0],"id":30,"left_children":[1,-1,3,5,-1,-1,-1],"loss_changes":[1.0254687E0,0E0,1.3254488E0,7.398653E-2,0E0,0E0,0E0],"parents":[2147483647,0,0,2,2,3,3],"right_children":[2,-1,4,6,-1,-1,-1],"split_conditions":[-2.2749057E-1,7.417009E-2,1.3104992E-1,-4.402969E-1,-4.1927803E-2,9.582391E-3,5.121405E-2],"split_indices":[38,0,12,6,0,0,0],"split_type":[0,0,0,0,0,0,0],"sum_hessian":[5.1763763E0,1.7851307E0,3.3912458E0,2.0068989E0,1.3843468E0,1.001964E0,1.0049349E0],"tree_param":{"num_deleted":"0","num_feature":"53","num_nodes":"7","size_leaf_vector":"0"}},{"base_weights":[-8.7227054E-2,6.621756E-1,-5.400448E-1,1.1411486E-1,-8.676944E-1],"categories":[],"categories_nodes":[],"categories_segments":[],"categories_sizes":[],"default_left":[1,0,1,0,0],"id":31,"left_children":[1,-1,3,-1,-1],"loss_changes":[1.9783472E0,0E0,8.551878E-1,0E0,0E0],"parents":[2147483647,0,0,2,2],"right_children":[2,-1,4,-1,-1],"split_conditions":[-2.1786961E-1,5.462949E-2,3.8102787E-2,9.414476E-3,-7.158479E-2],"split_indices":[39,0,21,0,0],"split_type":[0,0,0,0,0],"sum_hessian":[3.7761219E0,1.248138E0,2.527984E0,1.0611304E0,1.4668534E0],"tree_param":{"num_deleted":"0","num_feature":"53","num_nodes":"5","size_leaf_vector":"0"}},{"base_weights":[2.7985233E-1,8.108969E-1,-4.443686E-1],"categories":[],"categories_nodes":[],"categories_segments":[],"categories_sizes":[],"default_left":[1,0,0],"id":32,"left_children":[1,-1,-1],"loss_changes":[2.1676211E0,0E0,0E0],"parents":[2147483647,0,0],"right_children":[2,-1,-1],"split_conditions":[-1.9107204E-2,6.6898994E-2,-3.666041E-2],"split_indices":[15,0,0],"split_type":[0,0,0],"sum_hessian":[3.6992056E0,2.0651937E0,1.634012E0],"tree_param":{"num_deleted":"0","num_feature":"53","num_nodes":"3","size_leaf_vector":"0"}},{"base_weights":[1.4167148E-1,-4.24588E-1,5.7176054E-1,6.5948196E-2,7.5897264E-1],"categories":[],"categories_nodes":[],"categories_segments":[],"categories_sizes":[],"default_left":[1,0,1,0,0],"id":33,"left_children":[1,-1,3,-1,-1],"loss_changes":[1.5003543E0,0E0,2.682035E-1,0E0,0E0],"parents":[2147483647,0,0,2,2],"right_children":[2,-1,4,-1,-1],"split_conditions":[-9.469825E-2,-3.502851E-2,-7.5001167E-3,5.4407264E-3,6.2615246E-2],"split_indices":[26,0,9,0,0],"split_type":[0,0,0,0,0],"sum_hessian":[4.1637564E0,1.8028704E0,2.360886E0,1.0030622E0,1.3578237E0],"tree_param":{"num_deleted":"0","num_feature":"53","num_nodes":"5","size_leaf_vector":"0"}},{"base_weights":[6.9660164E-2,4.630199E-1,-5.908608E-1,8.271308E-1,-2.6870686E-1],"categories":[],"categories_nodes":[],"categories_segments":[],"categories_sizes":[],"default_left":[1,1,0,0,0],"id":34,"left_children":[1,3,-1,-1,-1],"loss_changes":[1.6052898E0,1.2275058E0,0E0,0E0,0E0],"parents":[2147483647,0,0,1,1],"right_children":[2,4,-1,-1,-1],"split_conditions":[1.8822327E-1,1.4205313E-1,-4.8746016E-2,6.8238296E-2,-2.2168316E-2],"split_indices":[49,2,0,0,0],"split_type":[0,0,0,0,0],"sum_hessian":[4.125461E0,2.773041E0,1.35242E0,1.7645903E0,1.0084507E0],"tree_param":{"num_deleted":"0","num_feature":"53","num_nodes":"5","size_leaf_vector":"0"}},{"base_weights":[7.386939E-2,7.105284E-1,-6.2134117E-1,-8.415444E-1,-8.421137E-2],"categories":[],"categories_nodes":[],"categories_segments":[],"categories_sizes":[],"default_left":[1,0,1,0,0],"id":35,"left_children":[1,-1,3,-1,-1],"loss_changes":[2.936547E0,0E0,3.1094992E-1,0E0,0E0],"parents":[2147483647,0,0,2,2],"right_children":[2,-1,4,-1,-1],"split_conditions":[-7.3318064E-2,5.8618594E-2,5.0917987E-2,-6.9427416E-2,-6.947438E-3],"split_indices":[18,0,42,0,0],"split_type":[0,0,0,0,0],"sum_hessian":[4.6371408E0,2.4089983E0,2.2281425E0,1.1783286E0,1.0498139E0],"tree_param":{"num_deleted":"0","num_feature":"53","num_nodes":"5","size_leaf_vector":"0"}},{"base_weights":[3.2992122E-1,6.0548013E-1,-3.37807E-1,8.5946E-1,1.9286336E-2],"categories":[],"categories_nodes":[],"categories_segments":[],"categories_sizes":[],"default_left":[1,1,0,0,0],"id":36,"left_children":[1,3,-1,-1,-1],"loss_changes":[1.093503E0,5.459173E-1,0E0,0E0,0E0],"parents":[2147483647,0,0,1,1],"right_children":[2,4,-1,-1,-1],"split_conditions":[3.9965588E-1,1.0385515E-1,-2.786908E-2,7.0905454E-2,1.5911228E-3],"split_indices":[6,2,0,0,0],"split_type":[0,0,0,0,0],"sum_hessian":[3.8313854E0,2.7781277E0,1.0532576E0,1.6130654E0,1.1650624E0],"tree_param":{"num_deleted":"0","num_feature":"53","num_nodes":"5","size_leaf_vector":"0"}},{"base_weights":[5.1818024E-2,7.694203E-1,-4.4030288E-1,8.782353E-2,-8.093328E-1],"categories":[],"categories_nodes":[],"categories_segments":[],"categories_sizes":[],"default_left":[1,0,1,0,0],"id":37,"left_children":[1,-1,3,-1,-1],"loss_changes":[2.2545285E0,0E0,8.222003E-1,0E0,0E0],"parents":[2147483647,0,0,2,2],"right_children":[2,-1,4,-1,-1],"split_conditions":[-1.1891014E-2,6.347718E-2,4.0491074E-2,7.245442E-3,-6.676996E-2],"split_indices":[38,0,15,0,0],"split_type":[0,0,0,0,0],"sum_hessian":[4.4247947E0,1.5708011E0,2.8539937E0,1.4873834E0,1.3666103E0],"tree_param":{"num_deleted":"0","num_feature":"53","num_nodes":"5","size_leaf_vector":"0"}},{"base_weights":[2.4933867E-1,7.976257E-1,-4.101567E-1],"categories":[],"categories_nodes":[],"categories_segments":[],"categories_sizes":[],"default_left":[1,0,0],"id":38,"left_children":[1,-1,-1],"loss_changes":[2.002052E0,0E0,0E0],"parents":[2147483647,0,0],"right_children":[2,-1,-1],"split_conditions":[9.3461536E-2,6.5804124E-2,-3.383793E-2],"split_indices":[49,0,0],"split_type":[0,0,0],"sum_hessian":[3.6320088E0,1.8688487E0,1.76316E0],"tree_param":{"num_deleted":"0","num_feature":"53","num_nodes":"3","size_leaf_vector":"0"}},{"base_weights":[1.5347443E-2,4.108031E-1,-4.2875913E-1],"categories":[],"categories_nodes":[],"categories_segments":[],"categories_sizes":[],"default_left":[1,0,0],"id":39,"left_children":[1,-1,-1],"loss_changes":[8.8390625E-1,0E0,0E0],"parents":[2147483647,0,0],"right_children":[2,-1,-1],"split_conditions":[1.2887862E-1,3.3891257E-2,-3.537263E-2],"split_indices":[28,0,0],"split_type":[0,0,0],"sum_hessian":[3.030023E0,1.642471E0,1.387552E0],"tree_param":{"num_deleted":"0","num_feature":"53","num_nodes":"3","size_leaf_vector":"0"}},{"base_weights":[3.6942166E-1,7.760302E-1,-1.2697163E-1],"categories":[],"categories_nodes":[],"categories_segments":[],"categories_sizes":[],"default_left":[1,0,0],"id":40,"left_children":[1,-1,-1],"loss_changes":[1.0540061E0,0E0,0E0],"parents":[2147483647,0,0],"right_children":[2,-1,-1],"split_conditions":[9.3461536E-2,6.40225E-2,-1.047516E-2],"split_indices":[49,0,0],"split_type":[0,0,0],"sum_hessian":[3.7338638E0,1.7428846E0,1.9909792E0],"tree_param":{"num_deleted":"0","num_feature":"53","num_nodes":"3","size_leaf_vector":"0"}},{"base_weights":[-1.1656475E-1,6.0887986E-1,-5.4873365E-1,-9.4031817E-1,1.3504691E-1],"categories":[],"categories_nodes":[],"categories_segments":[],"categories_sizes":[],"default_left":[1,0,1,0,0],"id":41,"left_children":[1,-1,3,-1,-1],"loss_changes":[1.758433E0,0E0,1.0301341E0,0E0,0E0],"parents":[2147483647,0,0,2,2],"right_children":[2,-1,4,-1,-1],"split_conditions":[-8.048698E-3,5.023259E-2,3.6008963E-1,-7.757625E-2,1.1141371E-2],"split_indices":[15,0,17,0,0],"split_type":[0,0,0,0,0],"sum_hessian":[3.5430746E0,1.1700759E0,2.3729987E0,1.270334E0,1.1026647E0],"tree_param":{"num_deleted":"0","num_feature":"53","num_nodes":"5","size_leaf_vector":"0"}},{"base_weights":[1.4491802E-1,7.3317105E-1,-4.5541206E-1],"categories":[],"categories_nodes":[],"categories_segments":[],"categories_sizes":[],"default_left":[1,0,0],"id":42,"left_children":[1,-1,-1],"loss_changes":[1.9568456E0,0E0,0E0],"parents":[2147483647,0,0],"right_children":[2,-1,-1],"split_conditions":[1.504722E-1,6.0486615E-2,-3.7571497E-2],"split_indices":[49,0,0],"split_type":[0,0,0],"sum_hessian":[3.5956936E0,1.7043505E0,1.8913431E0],"tree_param":{"num_deleted":"0","num_feature":"53","num_nodes":"3","size_leaf_vector":"0"}},{"base_weights":[1.8770975E-1,5.945512E-1,-5.298532E-1,-4.6868235E-2,8.337672E-1],"categories":[],"categories_nodes":[],"categories_segments":[],"categories_sizes":[],"default_left":[1,1,0,0,0],"id":43,"left_children":[1,3,-1,-1,-1],"loss_changes":[1.9850564E0,6.71538E-1,0E0,0E0,0E0],"parents":[2147483647,0,0,1,1],"right_children":[2,4,-1,-1,-1],"split_conditions":[4.878132E-1,-3.49308E-1,-4.371289E-2,-3.8666294E-3,6.8785794E-2],"split_indices":[4,16,0,0,0],"split_type":[0,0,0,0,0],"sum_hessian":[4.720572E0,3.1219368E0,1.5986352E0,1.0664629E0,2.0554738E0],"tree_param":{"num_deleted":"0","num_feature":"53","num_nodes":"5","size_leaf_vector":"0"}},{"base_weights":[-1.9508487E-1,4.7033548E-1,-4.7840708E-1,1.0347021E-1,-8.846198E-1],"categories":[],"categories_nodes":[],"categories_segments":[],"categories_sizes":[],"default_left":[1,0,1,0,0],"id":44,"left_children":[1,-1,3,-1,-1],"loss_changes":[1.2130681E0,0E0,1.0775449E0,0E0,0E0],"parents":[2147483647,0,0,2,2],"right_children":[2,-1,4,-1,-1],"split_conditions":[-4.0958768E-1,3.880268E-2,-8.048698E-3,8.536293E-3,-7.2981134E-2],"split_indices":[10,0,15,0,0],"split_type":[0,0,0,0,0],"sum_hessian":[4.2408895E0,1.0693363E0,3.1715531E0,1.6102457E0,1.5613075E0],"tree_param":{"num_deleted":"0","num_feature":"53","num_nodes":"5","size_leaf_vector":"0"}},{"base_weights":[7.2833323E-3,-4.0241155E-1,5.210588E-1],"categories":[],"categories_nodes":[],"categories_segments":[],"categories_sizes":[],"default_left":[1,0,0],"id":45,"left_children":[1,-1,-1],"loss_changes":[1.078854E0,0E0,0E0],"parents":[2147483647,0,0],"right_children":[2,-1,-1],"split_conditions":[-8.751417E-3,-3.3198953E-2,4.2987354E-2],"split_indices":[3,0,0],"split_type":[0,0,0],"sum_hessian":[3.1292646E0,1.8615685E0,1.2676961E0],"tree_param":{"num_deleted":"0","num_feature":"53","num_nodes":"3","size_leaf_vector":"0"}},{"base_weights":[1.3054486E-1,4.8510772E-1,-3.5584655E-1,6.627557E-1,8.6894825E-2],"categories":[],"categories_nodes":[],"categories_segments":[],"categories_sizes":[],"default_left":[1,1,0,0,0],"id":46,"left_children":[1,3,-1,-1,-1],"loss_changes":[9.8504245E-1,1.6509199E-1,0E0,0E0,0E0],"parents":[2147483647,0,0,1,1],"right_children":[2,4,-1,-1,-1],"split_conditions":[6.4348415E-2,2.7957523E-1,-2.9357342E-2,5.467735E-2,7.1688234E-3],"split_indices":[21,32,0,0,0],"split_type":[0,0,0,0,0],"sum_hessian":[3.7108645E0,2.1478176E0,1.563047E0,1.0258482E0,1.1219693E0],"tree_param":{"num_deleted":"0","num_feature":"53","num_nodes":"5","size_leaf_vector":"0"}},{"base_weights":[3.346983E-1,-5.3211576E-1,7.2231346E-1],"categories":[],"categories_nodes":[],"categories_segments":[],"categories_sizes":[],"default_left":[1,0,0],"id":47,"left_children":[1,-1,-1],"loss_changes":[1.9592221E0,0E0,0E0],"parents":[2147483647,0,0],"right_children":[2,-1,-1],"split_conditions":[-4.0225476E-1,-4.389955E-2,5.9590865E-2],"split_indices":[16,0,0],"split_type":[0,0,0],"sum_hessian":[3.687242E0,1.0241553E0,2.6630867E0],"tree_param":{"num_deleted":"0","num_feature":"53","num_nodes":"3","size_leaf_vector":"0"}},{"base_weights":[-9.175909E-2,-5.350013E-1,6.687717E-1,-5.9638675E-2,-7.861535E-1],"categories":[],"categories_nodes":[],"categories_segments":[],"categories_sizes":[],"default_left":[1,1,0,0,0],"id":48,"left_children":[1,3,-1,-1,-1],"loss_changes":[1.922111E0,3.6946929E-1,0E0,0E0,0E0],"parents":[2147483647,0,0,1,1],"right_children":[2,4,-1,-1,-1],"split_conditions":[3.1655752E-3,7.717957E-2,5.5173665E-2,-4.920191E-3,-6.485767E-2],"split_indices":[26,21,0,0,0],"split_type":[0,0,0,0,0],"sum_hessian":[3.6405234E0,2.4873955E0,1.1531278E0,1.2876624E0,1.1997333E0],"tree_param":{"num_deleted":"0","num_feature":"53","num_nodes":"5","size_leaf_vector":"0"}},{"base_weights":[-1.1807494E-1,6.9388855E-1,-6.457397E-1,-1.0755622E0,6.6396475E-2],"categories":[],"categories_nodes":[],"categories_segments":[],"categories_sizes":[],"default_left":[1,0,1,0,0],"id":49,"left_children":[1,-1,3,-1,-1],"loss_changes":[2.5357926E0,0E0,1.1339892E0,0E0,0E0],"parents":[2147483647,0,0,2,2],"right_children":[2,-1,4,-1,-1],"split_conditions":[-1.1002046E-1,5.7245806E-2,-2.7047517E-2,-8.873389E-2,5.477709E-3],"split_indices":[18,0,26,0,0],"split_type":[0,0,0,0,0],"sum_hessian":[3.8727927E0,1.4013681E0,2.4714243E0,1.2229553E0,1.248469E0],"tree_param":{"num_deleted":"0","num_feature":"53","num_nodes":"5","size_leaf_vector":"0"}},{"base_weights":[2.056543E-1,5.611278E-1,-4.0411168E-1,7.0344204E-1,1.3195662E-1],"categories":[],"categories_nodes":[],"categories_segments":[],"categories_sizes":[],"default_left":[1,1,0,0,0],"id":50,"left_children":[1,3,-1,-1,-1],"loss_changes":[1.1719137E0,1.0099107E-1,0E0,0E0,0E0],"parents":[2147483647,0,0,1,1],"right_children":[2,4,-1,-1,-1],"split_conditions":[4.878132E-1,6.474793E-2,-3.3339214E-2,5.803397E-2,1.0886421E-2],"split_indices":[4,21,0,0,0],"split_type":[0,0,0,0,0],"sum_hessian":[3.3604658E0,2.1732802E0,1.1871855E0,1.1521525E0,1.0211277E0],"tree_param":{"num_deleted":"0","num_feature":"53","num_nodes":"5","size_leaf_vector":"0"}},{"base_weights":[-2.1257224E-2,4.547736E-1,-7.2155213E-1,6.6466975E-1,-9.430512E-3],"categories":[],"categories_nodes":[],"categories_segments":[],"categories_sizes":[],"default_left":[1,1,0,0,0],"id":51,"left_children":[1,3,-1,-1,-1],"loss_changes":[1.8416125E0,3.2937872E-1,0E0,0E0,0E0],"parents":[2147483647,0,0,1,1],"right_children":[2,4,-1,-1,-1],"split_conditions":[4.6690822E-1,3.9646268E-1,-5.9528053E-2,5.4835256E-2,-7.780173E-4],"split_indices":[10,24,0,0,0],"split_type":[0,0,0,0,0],"sum_hessian":[3.540019E0,2.3161771E0,1.223842E0,1.2976012E0,1.0185758E0],"tree_param":{"num_deleted":"0","num_feature":"53","num_nodes":"5","size_leaf_vector":"0"}},{"base_weights":[4.5541E-1,7.61779E-1,-2.4709378E-1],"categories":[],"categories_nodes":[],"categories_segments":[],"categories_sizes":[],"default_left":[1,0,0],"id":52,"left_children":[1,-1,-1],"loss_changes":[1.1078835E0,0E0,0E0],"parents":[2147483647,0,0],"right_children":[2,-1,-1],"split_conditions":[3.460664E-1,6.284677E-2,-2.0385237E-2],"split_indices":[1,0,0],"split_type":[0,0,0],"sum_hessian":[3.2729743E0,2.2203014E0,1.0526729E0],"tree_param":{"num_deleted":"0","num_feature":"53","num_nodes":"3","size_leaf_vector":"0"}},{"base_weights":[-9.35393E-2,3.8025096E-1,-4.2750221E-1],"categories":[],"categories_nodes":[],"categories_segments":[],"categories_sizes":[],"default_left":[1,0,0],"id":53,"left_children":[1,-1,-1],"loss_changes":[7.413803E-1,0E0,0E0],"parents":[2147483647,0,0],"right_children":[2,-1,-1],"split_conditions":[2.3131553E-2,3.1370707E-2,-3.5268933E-2],"split_indices":[15,0,0],"split_type":[0,0,0],"sum_hessian":[2.6581435E0,1.0416961E0,1.6164474E0],"tree_param":{"num_deleted":"0","num_feature":"53","num_nodes":"3","size_leaf_vector":"0"}},{"base_weights":[2.580965E-1,5.690346E-1,-2.446378E-1,1.5388124E-1,6.8774354E-1],"categories":[],"categories_nodes":[],"categories_segments":[],"categories_sizes":[],"default_left":[1,1,0,0,0],"id":54,"left_children":[1,3,-1,-1,-1],"loss_changes":[8.803313E-1,5.335045E-2,0E0,0E0,0E0],"parents":[2147483647,0,0,1,1],"right_children":[2,4,-1,-1,-1],"split_conditions":[2.4141611E-1,-3.0626547E-1,-2.0182619E-2,1.2695203E-2,5.6738846E-2],"split_indices":[1,27,0,0,0],"split_type":[0,0,0,0,0],"sum_hessian":[3.7410913E0,2.2299817E0,1.5111097E0,1.0064561E0,1.2235254E0],"tree_param":{"num_deleted":"0","num_feature":"53","num_nodes":"5","size_leaf_vector":"0"}},{"base_weights":[-1.2182591E-1,3.9445707E-1,-4.1384554E-1,1.2625776E-1,-7.355144E-1],"categories":[],"categories_nodes":[],"categories_segments":[],"categories_sizes":[],"default_left":[1,0,1,0,0],"id":55,"left_children":[1,-1,3,-1,-1],"loss_changes":[8.202018E-1,0E0,6.6119343E-1,0E0,0E0],"parents":[2147483647,0,0,2,2],"right_children":[2,-1,4,-1,-1],"split_conditions":[-2.2749057E-1,3.254271E-2,4.468396E-2,1.0416266E-2,-6.0679942E-2],"split_indices":[38,0,46,0,0],"split_type":[0,0,0,0,0],"sum_hessian":[3.3575006E0,1.0862498E0,2.2712507E0,1.0745319E0,1.1967188E0],"tree_param":{"num_deleted":"0","num_feature":"53","num_nodes":"5","size_leaf_vector":"0"}},{"base_weights":[1.2485223E-1,-2.8908575E-1,3.6614177E-1,6.472563E-1,-1.00093745E-1],"categories":[],"categories_nodes":[],"categories_segments":[],"categories_sizes":[],"default_left":[1,0,1,0,0],"id":56,"left_children":[1,-1,3,-1,-1],"loss_changes":[5.5493647E-1,0E0,4.949112E-1,0E0,0E0],"parents":[2147483647,0,0,2,2],"right_children":[2,-1,4,-1,-1],"split_conditions":[-2.828579E-1,-2.3849575E-2,4.2899144E-1,5.3398646E-2,-8.257735E-3],"split_indices":[20,0,6,0,0],"split_type":[0,0,0,0,0],"sum_hessian":[3.4963467E0,1.2145944E0,2.2817523E0,1.1812578E0,1.1004945E0],"tree_param":{"num_deleted":"0","num_feature":"53","num_nodes":"5","size_leaf_vector":"0"}},{"base_weights":[1.4300396E-1,5.5753475E-1,-3.6901492E-1],"categories":[],"categories_nodes":[],"categories_segments":[],"categories_sizes":[],"default_left":[1,0,0],"id":57,"left_children":[1,-1,-1],"loss_changes":[1.1873251E0,0E0,0E0],"parents":[2147483647,0,0],"right_children":[2,-1,-1],"split_conditions":[1.059304E-1,4.5996618E-2,-3.0443732E-2],"split_indices":[21,0,0],"split_type":[0,0,0],"sum_hessian":[3.6247234E0,1.9539276E0,1.6707958E0],"tree_param":{"num_deleted":"0","num_feature":"53","num_nodes":"3","size_leaf_vector":"0"}},{"base_weights":[-2.3934087E-1,3.5425234E-1,-5.004563E-1,4.350296E-2,-8.114666E-1],"categories":[],"categories_nodes":[],"categories_segments":[],"categories_sizes":[],"default_left":[1,0,1,0,0],"id":58,"left_children":[1,-1,3,-1,-1],"loss_changes":[9.110484E-1,0E0,6.6163796E-1,0E0,0E0],"parents":[2147483647,0,0,2,2],"right_children":[2,-1,4,-1,-1],"split_conditions":[-1.1892735E-1,2.9225819E-2,7.3178664E-2,3.5889943E-3,-6.694599E-2],"split_indices":[2,0,30,0,0],"split_type":[0,0,0,0,0],"sum_hessian":[3.7340508E0,1.0317918E0,2.7022588E0,1.2958797E0,1.4063792E0],"tree_param":{"num_deleted":"0","num_feature":"53","num_nodes":"5","size_leaf_vector":"0"}},{"base_weights":[-7.128576E-2,4.0824646E-1,-4.7651228E-1],"categories":[],"categories_nodes":[],"categories_segments":[],"categories_sizes":[],"default_left":[1,0,0],"id":59,"left_children":[1,-1,-1],"loss_changes":[9.758834E-1,0E0,0E0],"parents":[2147483647,0,0],"right_children":[2,-1,-1],"split_conditions":[1.7317498E-1,3.3680335E-2,-3.9312266E-2],"split_indices":[30,0,0],"split_type":[0,0,0],"sum_hessian":[3.0209568E0,1.380209E0,1.6407479E0],"tree_param":{"num_deleted":"0","num_feature":"53","num_nodes":"3","size_leaf_vector":"0"}},{"base_weights":[1.06941216E-1,6.240237E-1,-3.4409925E-1],"categories":[],"categories_nodes":[],"categories_segments":[],"categories_sizes":[],"default_left":[1,0,0],"id":60,"left_children":[1,-1,-1],"loss_changes":[1.177586E0,0E0,0E0],"parents":[2147483647,0,0],"right_children":[2,-1,-1],"split_conditions":[-1.9107204E-2,5.1481955E-2,-2.838819E-2],"split_indices":[15,0,0],"split_type":[0,0,0],"sum_hessian":[3.1284568E0,1.2788432E0,1.8496138E0],"tree_param":{"num_deleted":"0","num_feature":"53","num_nodes":"3","size_leaf_vector":"0"}},{"base_weights":[-6.901454E-2,3.6890128E-1,-3.2643172E-1,-7.078614E-1,2.2494408E-1],"categories":[],"categories_nodes":[],"categories_segments":[],"categories_sizes":[],"default_left":[1,0,1,0,0],"id":61,"left_children":[1,-1,3,-1,-1],"loss_changes":[5.8707607E-1,0E0,8.1911945E-1,0E0,0E0],"parents":[2147483647,0,0,2,2],"right_children":[2,-1,4,-1,-1],"split_conditions":[1.7317498E-1,3.0434357E-2,5.0798273E-1,-5.839857E-2,1.8557888E-2],"split_indices":[30,0,15,0,0],"split_type":[0,0,0,0,0],"sum_hessian":[3.139689E0,1.0020031E0,2.137686E0,1.0958154E0,1.0418705E0],"tree_param":{"num_deleted":"0","num_feature":"53","num_nodes":"5","size_leaf_vector":"0"}},{"base_weights":[9.084752E-3,4.252386E-1,-4.292535E-1],"categories":[],"categories_nodes":[],"categories_segments":[],"categories_sizes":[],"default_left":[1,0,0],"id":62,"left_children":[1,-1,-1],"loss_changes":[9.477101E-1,0E0,0E0],"parents":[2147483647,0,0],"right_children":[2,-1,-1],"split_conditions":[6.4348415E-2,3.5082188E-2,-3.5413414E-2],"split_indices":[21,0,0],"split_type":[0,0,0],"sum_hessian":[3.1946669E0,1.6541338E0,1.540533E0],"tree_param":{"num_deleted":"0","num_feature":"53","num_nodes":"3","size_leaf_vector":"0"}},{"base_weights":[1.9486229E-1,4.9290594E-1,-2.78146E-1],"categories":[],"categories_nodes":[],"categories_segments":[],"categories_sizes":[],"default_left":[1,0,0],"id":63,"left_children":[1,-1,-1],"loss_changes":[6.441068E-1,0E0,0E0],"parents":[2147483647,0,0],"right_children":[2,-1,-1],"split_conditions":[4.5034575E-1,4.0664744E-2,-2.2947045E-2],"split_indices":[4,0,0],"split_type":[0,0,0],"sum_hessian":[2.5963776E0,1.5669638E0,1.0294137E0],"tree_param":{"num_deleted":"0","num_feature":"53","num_nodes":"3","size_leaf_vector":"0"}},{"base_weights":[1.1257114E-1,5.925517E-1,-3.5680893E-1],"categories":[],"categories_nodes":[],"categories_segments":[],"categories_sizes":[],"default_left":[1,0,0],"id":64,"left_children":[1,-1,-1],"loss_changes":[1.010986E0,0E0,0E0],"parents":[2147483647,0,0],"right_children":[2,-1,-1],"split_conditions":[-6.861211E-2,4.8885517E-2,-2.9436737E-2],"split_indices":[31,0,0],"split_type":[0,0,0],"sum_hessian":[2.5489652E0,1.1305102E0,1.4184551E0],"tree_param":{"num_deleted":"0","num_feature":"53","num_nodes":"3","size_leaf_vector":"0"}},{"base_weights":[-2.7396566E-1,4.52874E-1,-7.6258355E-1],"categories":[],"categories_nodes":[],"categories_segments":[],"categories_sizes":[],"default_left":[1,0,0],"id":65,"left_children":[1,-1,-1],"loss_changes":[1.742314E0,0E0,0E0],"parents":[2147483647,0,0],"right_children":[2,-1,-1],"split_conditions":[6.1397903E-2,3.7362106E-2,-6.291314E-2],"split_indices":[21,0,0],"split_type":[0,0,0],"sum_hessian":[2.9334705E0,1.2086724E0,1.7247982E0],"tree_param":{"num_deleted":"0","num_feature":"53","num_nodes":"3","size_leaf_vector":"0"}},{"base_weights":[2.3569612E-1,5.532272E-1,-1.2739421E-1],"categories":[],"categories_nodes":[],"categories_segments":[],"categories_sizes":[],"default_left":[1,0,0],"id":66,"left_children":[1,-1,-1],"loss_changes":[5.003447E-1,0E0,0E0],"parents":[2147483647,0,0],"right_children":[2,-1,-1],"split_conditions":[-1.6447024E-2,4.5641243E-2,-1.0510023E-2],"split_indices":[50,0,0],"split_type":[0,0,0],"sum_hessian":[2.7284904E0,1.176207E0,1.5522834E0],"tree_param":{"num_deleted":"0","num_feature":"53","num_nodes":"3","size_leaf_vector":"0"}},{"base_weights":[-3.0373463E-1,2.5891295E-1,-7.142633E-1],"categories":[],"categories_nodes":[],"categories_segments":[],"categories_sizes":[],"default_left":[1,0,0],"id":67,"left_children":[1,-1,-1],"loss_changes":[1.1017396E0,0E0,0E0],"parents":[2147483647,0,0],"right_children":[2,-1,-1],"split_conditions":[6.1397903E-2,2.136032E-2,-5.8926728E-2],"split_indices":[21,0,0],"split_type":[0,0,0],"sum_hessian":[2.9691567E0,1.408316E0,1.5608406E0],"tree_param":{"num_deleted":"0","num_feature":"53","num_nodes":"3","size_leaf_vector":"0"}},{"base_weights":[-1.3019921E-1,1.9399989E-1,-5.789493E-1,7.044617E-1,-4.479054E-1],"categories":[],"categories_nodes":[],"categories_segments":[],"categories_sizes":[],"default_left":[1,1,0,0,0],"id":68,"left_children":[1,3,-1,-1,-1],"loss_changes":[7.3386985E-1,1.3736973E0,0E0,0E0,0E0],"parents":[2147483647,0,0,1,1],"right_children":[2,4,-1,-1,-1],"split_conditions":[1.775164E-1,3.792952E-1,-4.7763318E-2,5.8118094E-2,-3.6952198E-2],"split_indices":[9,25,0,0,0],"split_type":[0,0,0,0,0],"sum_hessian":[3.2723057E0,2.2293801E0,1.0429254E0,1.1875508E0,1.0418293E0],"tree_param":{"num_deleted":"0","num_feature":"53","num_nodes":"5","size_leaf_vector":"0"}},{"base_weights":[3.4602553E-2,-3.8391894E-1,4.8126638E-1],"categories":[],"categories_nodes":[],"categories_segments":[],"categories_sizes":[],"default_left":[1,0,0],"id":69,"left_children":[1,-1,-1],"loss_changes":[9.7268045E-1,0E0,0E0],"parents":[2147483647,0,0],"right_children":[2,-1,-1],"split_conditions":[2.7614953E-2,-3.1673312E-2,3.970448E-2],"split_indices":[3,0,0],"split_type":[0,0,0],"sum_hessian":[3.2148275E0,1.7322209E0,1.4826066E0],"tree_param":{"num_deleted":"0","num_feature":"53","num_nodes":"3","size_leaf_vector":"0"}},{"base_weights":[3.3931024E-2,-6.11763E-1,4.4614637E-1,7.180991E-1,-6.979804E-2],"categories":[],"categories_nodes":[],"categories_segments":[],"categories_sizes":[],"default_left":[1,0,1,0,0],"id":70,"left_children":[1,-1,3,-1,-1],"loss_changes":[1.494436E0,0E0,5.242835E-1,0E0,0E0],"parents":[2147483647,0,0,2,2],"right_children":[2,-1,4,-1,-1],"split_conditions":[-3.6741138E-2,-5.047045E-2,3.8841414E-1,5.924318E-2,-5.758338E-3],"split_indices":[34,0,0,0,0],"split_type":[0,0,0,0,0],"sum_hessian":[3.5892594E0,1.2099336E0,2.3793259E0,1.3014961E0,1.0778296E0],"tree_param":{"num_deleted":"0","num_feature":"53","num_nodes":"5","size_leaf_vector":"0"}},{"base_weights":[-2.650075E-1,-6.556408E-1,2.807433E-1],"categories":[],"categories_nodes":[],"categories_segments":[],"categories_sizes":[],"default_left":[1,0,0],"id":71,"left_children":[1,-1,-1],"loss_changes":[1.0731132E0,0E0,0E0],"parents":[2147483647,0,0],"right_children":[2,-1,-1],"split_conditions":[3.5287008E-2,-5.4090366E-2,2.3161324E-2],"split_indices":[42,0,0],"split_type":[0,0,0],"sum_hessian":[3.1702387E0,1.730348E0,1.4398907E0],"tree_param":{"num_deleted":"0","num_feature":"53","num_nodes":"3","size_leaf_vector":"0"}},{"base_weights":[1.7620905E-1,5.832962E-1,-4.2345563E-1],"categories":[],"categories_nodes":[],"categories_segments":[],"categories_sizes":[],"default_left":[1,0,0],"id":72,"left_children":[1,-1,-1],"loss_changes":[1.1418387E0,0E0,0E0],"parents":[2147483647,0,0],"right_children":[2,-1,-1],"split_conditions":[7.735698E-1,4.8121937E-2,-3.493509E-2],"split_indices":[23,0,0],"split_type":[0,0,0],"sum_hessian":[2.6656322E0,1.6040239E0,1.0616082E0],"tree_param":{"num_deleted":"0","num_feature":"53","num_nodes":"3","size_leaf_vector":"0"}},{"base_weights":[2.0715562E-1,5.363345E-1,-1.9934994E-1],"categories":[],"categories_nodes":[],"categories_segments":[],"categories_sizes":[],"default_left":[1,0,0],"id":73,"left_children":[1,-1,-1],"loss_changes":[5.735816E-1,0E0,0E0],"parents":[2147483647,0,0],"right_children":[2,-1,-1],"split_conditions":[-1.1966783E-1,4.4247597E-2,-1.644637E-2],"split_indices":[19,0,0],"split_type":[0,0,0],"sum_hessian":[2.4874277E0,1.197965E0,1.2894628E0],"tree_param":{"num_deleted":"0","num_feature":"53","num_nodes":"3","size_leaf_vector":"0"}},{"base_weights":[-6.909739E-2,5.0120753E-1,-5.775201E-1],"categories":[],"categories_nodes":[],"categories_segments":[],"categories_sizes":[],"default_left":[1,0,0],"id":74,"left_children":[1,-1,-1],"loss_changes":[1.5593534E0,0E0,0E0],"parents":[2147483647,0,0],"right_children":[2,-1,-1],"split_conditions":[-8.827571E-2,4.1349623E-2,-4.764541E-2],"split_indices":[2,0,0],"split_type":[0,0,0],"sum_hessian":[3.3796167E0,1.5995593E0,1.7800573E0],"tree_param":{"num_deleted":"0","num_feature":"53","num_nodes":"3","size_leaf_vector":"0"}},{"base_weights":[-7.6139614E-2,1.7625439E-1,-3.0494446E-1],"categories":[],"categories_nodes":[],"categories_segments":[],"categories_sizes":[],"default_left":[1,0,0],"id":75,"left_children":[1,-1,-1],"loss_changes":[2.3639095E-1,0E0,0E0],"parents":[2147483647,0,0],"right_children":[2,-1,-1],"split_conditions":[1.8520528E-1,1.4540988E-2,-2.515792E-2],"split_indices":[49,0,0],"split_type":[0,0,0],"sum_hessian":[2.162708E0,1.1375517E0,1.0251565E0],"tree_param":{"num_deleted":"0","num_feature":"53","num_nodes":"3","size_leaf_vector":"0"}},{"base_weights":[-2.6584221E-2,2.6920974E-1,-4.385178E-1,-2.3922308E-1,6.571603E-1],"categories":[],"categories_nodes":[],"categories_segments":[],"categories_sizes":[],"default_left":[1,1,0,0,0],"id":76,"left_children":[1,3,-1,-1,-1],"loss_changes":[6.313172E-1,7.6303476E-1,0E0,0E0,0E0],"parents":[2147483647,0,0,1,1],"right_children":[2,4,-1,-1,-1],"split_conditions":[3.8226968E-1,-1.0480427E-2,-3.617772E-2,-1.9735904E-2,5.4215726E-2],"split_indices":[1,48,0,0,0],"split_type":[0,0,0,0,0],"sum_hessian":[3.212348E0,2.0714154E0,1.1409324E0,1.0624185E0,1.0089971E0],"tree_param":{"num_deleted":"0","num_feature":"53","num_nodes":"5","size_leaf_vector":"0"}},{"base_weights":[-5.678471E-2,-6.536272E-1,4.7044963E-1],"categories":[],"categories_nodes":[],"categories_segments":[],"categories_sizes":[],"default_left":[1,0,0],"id":77,"left_children":[1,-1,-1],"loss_changes":[1.499314E0,0E0,0E0],"parents":[2147483647,0,0],"right_children":[2,-1,-1],"split_conditions":[3.3652373E-2,-5.3924248E-2,3.8812097E-2],"split_indices":[34,0,0],"split_type":[0,0,0],"sum_hessian":[2.7874382E0,1.1949719E0,1.5924662E0],"tree_param":{"num_deleted":"0","num_feature":"53","num_nodes":"3","size_leaf_vector":"0"}},{"base_weights":[6.618455E-2,4.3133506E-1,-3.1390932E-1],"categories":[],"categories_nodes":[],"categories_segments":[],"categories_sizes":[],"default_left":[1,0,0],"id":78,"left_children":[1,-1,-1],"loss_changes":[5.965096E-1,0E0,0E0],"parents":[2147483647,0,0],"right_children":[2,-1,-1],"split_conditions":[2.3131553E-2,3.5585143E-2,-2.589752E-2],"split_indices":[15,0,0],"split_type":[0,0,0],"sum_hessian":[2.3223183E0,1.1156847E0,1.2066336E0],"tree_param":{"num_deleted":"0","num_feature":"53","num_nodes":"3","size_leaf_vector":"0"}},{"base_weights":[-1.3218226E-1,-5.834592E-1,2.1136075E-1,6.2761307E-1,-2.7973285E-1],"categories":[],"categories_nodes":[],"categories_segments":[],"categories_sizes":[],"default_left":[1,0,1,0,0],"id":79,"left_children":[1,-1,3,-1,-1],"loss_changes":[7.885896E-1,0E0,8.236681E-1,0E0,0E0],"parents":[2147483647,0,0,2,2],"right_children":[2,-1,4,-1,-1],"split_conditions":[-2.4256016E-1,-4.8135385E-2,3.7286216E-1,5.177808E-2,-2.3077961E-2],"split_indices":[19,0,14,0,0],"split_type":[0,0,0,0,0],"sum_hessian":[3.2911448E0,1.1206734E0,2.1704714E0,1.0242898E0,1.1461817E0],"tree_param":{"num_deleted":"0","num_feature":"53","num_nodes":"5","size_leaf_vector":"0"}},{"base_weights":[1.7392482E-1,6.485714E-1,-3.7674785E-1],"categories":[],"categories_nodes":[],"categories_segments":[],"categories_sizes":[],"default_left":[1,0,0],"id":80,"left_children":[1,-1,-1],"loss_changes":[1.1691782E0,0E0,0E0],"parents":[2147483647,0,0],"right_children":[2,-1,-1],"split_conditions":[2.7551764E-1,5.350714E-2,-3.1081699E-2],"split_indices":[10,0,0],"split_type":[0,0,0],"sum_hessian":[2.5383296E0,1.2677904E0,1.270539E0],"tree_param":{"num_deleted":"0","num_feature":"53","num_nodes":"3","size_leaf_vector":"0"}},{"base_weights":[1.9255698E-1,5.2136695E-1,-1.0273032E-1],"categories":[],"categories_nodes":[],"categories_segments":[],"categories_sizes":[],"default_left":[1,0,0],"id":81,"left_children":[1,-1,-1],"loss_changes":[4.5335364E-1,0E0,0E0],"parents":[2147483647,0,0],"right_children":[2,-1,-1],"split_conditions":[-6.861211E-2,4.3012775E-2,-8.4752515E-3],"split_indices":[31,0,0],"split_type":[0,0,0],"sum_hessian":[3.1176167E0,1.112828E0,2.0047886E0],"tree_param":{"num_deleted":"0","num_feature":"53","num_nodes":"3","size_leaf_vector":"0"}},{"base_weights":[-1.0009398E-1,4.4963607E-1,-5.5212754E-1],"categories":[],"categories_nodes":[],"categories_segments":[],"categories_sizes":[],"default_left":[1,0,0],"id":82,"left_children":[1,-1,-1],"loss_changes":[1.1077669E0,0E0,0E0],"parents":[2147483647,0,0],"right_children":[2,-1,-1],"split_conditions":[-7.3318064E-2,3.7094977E-2,-4.5550525E-2],"split_indices":[18,0,0],"split_type":[0,0,0],"sum_hessian":[2.4588444E0,1.1119168E0,1.3469278E0],"tree_param":{"num_deleted":"0","num_feature":"53","num_nodes":"3","size_leaf_vector":"0"}},{"base_weights":[-7.350344E-2,3.4817335E-1,-4.8324803E-1],"categories":[],"categories_nodes":[],"categories_segments":[],"categories_sizes":[],"default_left":[1,0,0],"id":83,"left_children":[1,-1,-1],"loss_changes":[7.636299E-1,0E0,0E0],"parents":[2147483647,0,0],"right_children":[2,-1,-1],"split_conditions":[3.364814E-1,2.8724302E-2,-3.9867964E-2],"split_indices":[38,0,0],"split_type":[0,0,0],"sum_hessian":[2.4458654E0,1.2794371E0,1.1664282E0],"tree_param":{"num_deleted":"0","num_feature":"53","num_nodes":"3","size_leaf_vector":"0"}},{"base_weights":[5.6438897E-2,4.169177E-1,-2.5815687E-1],"categories":[],"categories_nodes":[],"categories_segments":[],"categories_sizes":[],"default_left":[1,0,0],"id":84,"left_children":[1,-1,-1],"loss_changes":[5.38655E-1,0E0,0E0],"parents":[2147483647,0,0],"right_children":[2,-1,-1],"split_conditions":[1.4816974E-3,3.4395713E-2,-2.1297943E-2],"split_indices":[50,0,0],"split_type":[0,0,0],"sum_hessian":[2.8007529E0,1.1536252E0,1.6471277E0],"tree_param":{"num_deleted":"0","num_feature":"53","num_nodes":"3","size_leaf_vector":"0"}},{"base_weights":[6.2226616E-2],"categories":[],"categories_nodes":[],"categories_segments":[],"categories_sizes":[],"default_left":[0],"id":85,"left_children":[-1],"loss_changes":[0E0],"parents":[2147483647],"right_children":[-1],"split_conditions":[5.133696E-3],"split_indices":[0],"split_type":[0],"sum_hessian":[1.6113288E0],"tree_param":{"num_deleted":"0","num_feature":"53","num_nodes":"1","size_leaf_vector":"0"}},{"base_weights":[-1.2459699E-1,3.309445E-1,-4.296024E-1],"categories":[],"categories_nodes":[],"categories_segments":[],"categories_sizes":[],"default_left":[1,0,0],"id":86,"left_children":[1,-1,-1],"loss_changes":[6.72987E-1,0E0,0E0],"parents":[2147483647,0,0],"right_children":[2,-1,-1],"split_conditions":[-7.3318064E-2,2.7302923E-2,-3.54422E-2],"split_indices":[18,0,0],"split_type":[0,0,0],"sum_hessian":[2.8203712E0,1.09696E0,1.7234113E0],"tree_param":{"num_deleted":"0","num_feature":"53","num_nodes":"3","size_leaf_vector":"0"}},{"base_weights":[5.7531327E-2,3.2535735E-1,-3.436759E-1],"categories":[],"categories_nodes":[],"categories_segments":[],"categories_sizes":[],"default_left":[1,0,0],"id":87,"left_children":[1,-1,-1],"loss_changes":[5.2560925E-1,0E0,0E0],"parents":[2147483647,0,0],"right_children":[2,-1,-1],"split_conditions":[4.0551743E-1,2.6841981E-2,-2.8353265E-2],"split_indices":[1,0,0],"split_type":[0,0,0],"sum_hessian":[2.8508835E0,1.822996E0,1.0278875E0],"tree_param":{"num_deleted":"0","num_feature":"53","num_nodes":"3","size_leaf_vector":"0"}},{"base_weights":[-1.4901502E-2,4.028288E-1,-4.0869948E-1],"categories":[],"categories_nodes":[],"categories_segments":[],"categories_sizes":[],"default_left":[1,0,0],"id":88,"left_children":[1,-1,-1],"loss_changes":[7.737537E-1,0E0,0E0],"parents":[2147483647,0,0],"right_children":[2,-1,-1],"split_conditions":[6.1397903E-2,3.3233378E-2,-3.3717707E-2],"split_indices":[21,0,0],"split_type":[0,0,0],"sum_hessian":[2.7028131E0,1.3004247E0,1.4023883E0],"tree_param":{"num_deleted":"0","num_feature":"53","num_nodes":"3","size_leaf_vector":"0"}},{"base_weights":[-3.0451092E-1],"categories":[],"categories_nodes":[],"categories_segments":[],"categories_sizes":[],"default_left":[0],"id":89,"left_children":[-1],"loss_changes":[0E0],"parents":[2147483647],"right_children":[-1],"split_conditions":[-2.5122153E-2],"split_indices":[0],"split_type":[0],"sum_hessian":[1.9909208E0],"tree_param":{"num_deleted":"0","num_feature":"53","num_nodes":"1","size_leaf_vector":"0"}},{"base_weights":[1.6066234E-1,5.004803E-1,-2.0605744E-1],"categories":[],"categories_nodes":[],"categories_segments":[],"categories_sizes":[],"default_left":[1,0,0],"id":90,"left_children":[1,-1,-1],"loss_changes":[5.7592666E-1,0E0,0E0],"parents":[2147483647,0,0],"right_children":[2,-1,-1],"split_conditions":[7.221326E-2,4.1289628E-2,-1.699974E-2],"split_indices":[30,0,0],"split_type":[0,0,0],"sum_hessian":[2.7939875E0,1.2608669E0,1.5331206E0],"tree_param":{"num_deleted":"0","num_feature":"53","num_nodes":"3","size_leaf_vector":"0"}},{"base_weights":[-1.05284184E-1,4.1244194E-1,-4.6694717E-1],"categories":[],"categories_nodes":[],"categories_segments":[],"categories_sizes":[],"default_left":[1,0,0],"id":91,"left_children":[1,-1,-1],"loss_changes":[8.647114E-1,0E0,0E0],"parents":[2147483647,0,0],"right_children":[2,-1,-1],"split_conditions":[1.7464831E-1,3.4026463E-2,-3.852314E-2],"split_indices":[30,0,0],"split_type":[0,0,0],"sum_hessian":[2.5895875E0,1.0072662E0,1.5823212E0],"tree_param":{"num_deleted":"0","num_feature":"53","num_nodes":"3","size_leaf_vector":"0"}},{"base_weights":[-3.2041743E-3,-4.2288026E-1,3.7469018E-1],"categories":[],"categories_nodes":[],"categories_segments":[],"categories_sizes":[],"default_left":[1,0,0],"id":92,"left_children":[1,-1,-1],"loss_changes":[7.039091E-1,0E0,0E0],"parents":[2147483647,0,0],"right_children":[2,-1,-1],"split_conditions":[2.6022885E-2,-3.4887623E-2,3.0911941E-2],"split_indices":[28,0,0],"split_type":[0,0,0],"sum_hessian":[2.439365E0,1.0993841E0,1.3399808E0],"tree_param":{"num_deleted":"0","num_feature":"53","num_nodes":"3","size_leaf_vector":"0"}},{"base_weights":[-1.4609492E-1,2.1692254E-1,-5.104406E-1],"categories":[],"categories_nodes":[],"categories_segments":[],"categories_sizes":[],"default_left":[1,0,0],"id":93,"left_children":[1,-1,-1],"loss_changes":[5.818969E-1,0E0,0E0],"parents":[2147483647,0,0],"right_children":[2,-1,-1],"split_conditions":[3.411343E-1,1.789611E-2,-4.211135E-2],"split_indices":[11,0,0],"split_type":[0,0,0],"sum_hessian":[2.562356E0,1.4861991E0,1.0761567E0],"tree_param":{"num_deleted":"0","num_feature":"53","num_nodes":"3","size_leaf_vector":"0"}},{"base_weights":[-1.16303116E-1,-4.5636153E-1,3.3711225E-1],"categories":[],"categories_nodes":[],"categories_segments":[],"categories_sizes":[],"default_left":[1,0,0],"id":94,"left_children":[1,-1,-1],"loss_changes":[6.914525E-1,0E0,0E0],"parents":[2147483647,0,0],"right_children":[2,-1,-1],"split_conditions":[2.6157397E-1,-3.764983E-2,2.7811762E-2],"split_indices":[34,0,0],"split_type":[0,0,0],"sum_hessian":[2.4867074E0,1.4172683E0,1.0694392E0],"tree_param":{"num_deleted":"0","num_feature":"53","num_nodes":"3","size_leaf_vector":"0"}},{"base_weights":[3.1825548E-1,6.9699156E-1,-1.5200227E-1],"categories":[],"categories_nodes":[],"categories_segments":[],"categories_sizes":[],"default_left":[1,0,0],"id":95,"left_children":[1,-1,-1],"loss_changes":[7.858912E-1,0E0,0E0],"parents":[2147483647,0,0],"right_children":[2,-1,-1],"split_conditions":[2.0816919E-1,5.7501808E-2,-1.2540189E-2],"split_indices":[0,0,0],"split_type":[0,0,0],"sum_hessian":[2.8177047E0,1.2936652E0,1.5240395E0],"tree_param":{"num_deleted":"0","num_feature":"53","num_nodes":"3","size_leaf_vector":"0"}},{"base_weights":[7.0815355E-2,4.8219424E-1,-3.4649995E-1],"categories":[],"categories_nodes":[],"categories_segments":[],"categories_sizes":[],"default_left":[1,0,0],"id":96,"left_children":[1,-1,-1],"loss_changes":[8.603181E-1,0E0,0E0],"parents":[2147483647,0,0],"right_children":[2,-1,-1],"split_conditions":[1.059304E-1,3.9781027E-2,-2.8586246E-2],"split_indices":[21,0,0],"split_type":[0,0,0],"sum_hessian":[3.0380893E0,1.4516358E0,1.5864536E0],"tree_param":{"num_deleted":"0","num_feature":"53","num_nodes":"3","size_leaf_vector":"0"}},{"base_weights":[9.6671015E-2,5.7184386E-1,-3.6655948E-1],"categories":[],"categories_nodes":[],"categories_segments":[],"categories_sizes":[],"default_left":[1,0,0],"id":97,"left_children":[1,-1,-1],"loss_changes":[9.4195056E-1,0E0,0E0],"parents":[2147483647,0,0],"right_children":[2,-1,-1],"split_conditions":[1.581637E-1,4.717712E-2,-3.0241158E-2],"split_indices":[49,0,0],"split_type":[0,0,0],"sum_hessian":[2.327067E0,1.0329833E0,1.2940836E0],"tree_param":{"num_deleted":"0","num_feature":"53","num_nodes":"3","size_leaf_vector":"0"}},{"base_weights":[-8.729222E-2,-3.5365078E-1,1.8971021E-1],"categories":[],"categories_nodes":[],"categories_segments":[],"categories_sizes":[],"default_left":[1,0,0],"id":98,"left_children":[1,-1,-1],"loss_changes":[3.0797052E-1,0E0,0E0],"parents":[2147483647,0,0],"right_children":[2,-1,-1],"split_conditions":[8.586782E-2,-2.917619E-2,1.5651094E-2],"split_indices":[34,0,0],"split_type":[0,0,0],"sum_hessian":[2.2647457E0,1.0134915E0,1.2512542E0],"tree_param":{"num_deleted":"0","num_feature":"53","num_nodes":"3","size_leaf_vector":"0"}},{"base_weights":[-1.3624047E-1,-5.0605994E-1,3.7364984E-1],"categories":[],"categories_nodes":[],"categories_segments":[],"categories_sizes":[],"default_left":[1,0,0],"id":99,"left_children":[1,-1,-1],"loss_changes":[8.658589E-1,0E0,0E0],"parents":[2147483647,0,0],"right_children":[2,-1,-1],"split_conditions":[-1.0480427E-2,-4.1749947E-2,3.0826112E-2],"split_indices":[48,0,0],"split_type":[0,0,0],"sum_hessian":[2.5890076E0,1.5049738E0,1.0840337E0],"tree_param":{"num_deleted":"0","num_feature":"53","num_nodes":"3","size_leaf_vector":"0"}},{"base_weights":[-2.9031608E-1,-5.739146E-1,7.293477E-2],"categories":[],"categories_nodes":[],"categories_segments":[],"categories_sizes":[],"default_left":[1,0,0],"id":100,"left_children":[1,-1,-1],"loss_changes":[3.9229673E-1,0E0,0E0],"parents":[2147483647,0,0],"right_children":[2,-1,-1],"split_conditions":[-1.0484572E-1,-4.7347955E-2,6.0171187E-3],"split_indices":[41,0,0],"split_type":[0,0,0],"sum_hessian":[2.4017403E0,1.0230674E0,1.378673E0],"tree_param":{"num_deleted":"0","num_feature":"53","num_nodes":"3","size_leaf_vector":"0"}},{"base_weights":[-4.0826993E-3,-3.6980394E-1,4.1969603E-1],"categories":[],"categories_nodes":[],"categories_segments":[],"categories_sizes":[],"default_left":[1,0,0],"id":101,"left_children":[1,-1,-1],"loss_changes":[7.7593154E-1,0E0,0E0],"parents":[2147483647,0,0],"right_children":[2,-1,-1],"split_conditions":[-1.0480427E-2,-3.0508826E-2,3.4624923E-2],"split_indices":[48,0,0],"split_type":[0,0,0],"sum_hessian":[3.0050762E0,1.6813961E0,1.32368E0],"tree_param":{"num_deleted":"0","num_feature":"53","num_nodes":"3","size_leaf_vector":"0"}},{"base_weights":[-2.5822583E-1,-5.7369286E-1,2.0904614E-1],"categories":[],"categories_nodes":[],"categories_segments":[],"categories_sizes":[],"default_left":[1,0,0],"id":102,"left_children":[1,-1,-1],"loss_changes":[6.219764E-1,0E0,0E0],"parents":[2147483647,0,0],"right_children":[2,-1,-1],"split_conditions":[3.5287008E-2,-4.7329664E-2,1.7246308E-2],"split_indices":[42,0,0],"split_type":[0,0,0],"sum_hessian":[2.4058187E0,1.3002427E0,1.105576E0],"tree_param":{"num_deleted":"0","num_feature":"53","num_nodes":"3","size_leaf_vector":"0"}},{"base_weights":[-1.454008E-1,-4.4606462E-1,2.187815E-1],"categories":[],"categories_nodes":[],"categories_segments":[],"categories_sizes":[],"default_left":[1,0,0],"id":103,"left_children":[1,-1,-1],"loss_changes":[4.7477558E-1,0E0,0E0],"parents":[2147483647,0,0],"right_children":[2,-1,-1],"split_conditions":[5.520516E-2,-3.6800332E-2,1.8049475E-2],"split_indices":[20,0,0],"split_type":[0,0,0],"sum_hessian":[2.4447227E0,1.2159842E0,1.2287383E0],"tree_param":{"num_deleted":"0","num_feature":"53","num_nodes":"3","size_leaf_vector":"0"}},{"base_weights":[8.536991E-2,-2.4922778E-1,4.6270028E-1],"categories":[],"categories_nodes":[],"categories_segments":[],"categories_sizes":[],"default_left":[1,0,0],"id":104,"left_children":[1,-1,-1],"loss_changes":[6.492967E-1,0E0,0E0],"parents":[2147483647,0,0],"right_children":[2,-1,-1],"split_conditions":[2.7614953E-2,-2.0561293E-2,3.8172774E-2],"split_indices":[3,0,0],"split_type":[0,0,0],"sum_hessian":[3.2294064E0,1.8915615E0,1.3378448E0],"tree_param":{"num_deleted":"0","num_feature":"53","num_nodes":"3","size_leaf_vector":"0"}},{"base_weights":[2.0953976E-1,-2.1971002E-1,5.106394E-1],"categories":[],"categories_nodes":[],"categories_segments":[],"categories_sizes":[],"default_left":[1,0,0],"id":105,"left_children":[1,-1,-1],"loss_changes":[6.176035E-1,0E0,0E0],"parents":[2147483647,0,0],"right_children":[2,-1,-1],"split_conditions":[-9.469825E-2,-1.8126078E-2,4.2127755E-2],"split_indices":[26,0,0],"split_type":[0,0,0],"sum_hessian":[2.910427E0,1.3113152E0,1.5991118E0],"tree_param":{"num_deleted":"0","num_feature":"53","num_nodes":"3","size_leaf_vector":"0"}},{"base_weights":[-1.2893453E-2,2.6726723E-1,-2.7188417E-1],"categories":[],"categories_nodes":[],"categories_segments":[],"categories_sizes":[],"default_left":[1,0,0],"id":106,"left_children":[1,-1,-1],"loss_changes":[3.5974938E-1,0E0,0E0],"parents":[2147483647,0,0],"right_children":[2,-1,-1],"split_conditions":[6.4348415E-2,2.2049546E-2,-2.2430446E-2],"split_indices":[21,0,0],"split_type":[0,0,0],"sum_hessian":[2.9565535E0,1.4048806E0,1.5516728E0],"tree_param":{"num_deleted":"0","num_feature":"53","num_nodes":"3","size_leaf_vector":"0"}},{"base_weights":[-1.341082E-1,2.4839394E-1,-5.001357E-1],"categories":[],"categories_nodes":[],"categories_segments":[],"categories_sizes":[],"default_left":[1,0,0],"id":107,"left_children":[1,-1,-1],"loss_changes":[5.816014E-1,0E0,0E0],"parents":[2147483647,0,0],"right_children":[2,-1,-1],"split_conditions":[2.3595455E-1,2.0492502E-2,-4.12612E-2],"split_indices":[21,0,0],"split_type":[0,0,0],"sum_hessian":[2.2667866E0,1.2656009E0,1.0011857E0],"tree_param":{"num_deleted":"0","num_feature":"53","num_nodes":"3","size_leaf_vector":"0"}},{"base_weights":[-1.2420965E-1,-4.7442704E-1,3.8568085E-1],"categories":[],"categories_nodes":[],"categories_segments":[],"categories_sizes":[],"default_left":[1,0,0],"id":108,"left_children":[1,-1,-1],"loss_changes":[8.2676226E-1,0E0,0E0],"parents":[2147483647,0,0],"right_children":[2,-1,-1],"split_conditions":[2.0944247E-1,-3.9140232E-2,3.1818673E-2],"split_indices":[32,0,0],"split_type":[0,0,0],"sum_hessian":[2.6051726E0,1.585634E0,1.0195388E0],"tree_param":{"num_deleted":"0","num_feature":"53","num_nodes":"3","size_leaf_vector":"0"}},{"base_weights":[-2.4238955E-4,2.7043298E-1,-4.2560843E-1,-2.0677055E-1,6.0435236E-1],"categories":[],"categories_nodes":[],"categories_segments":[],"categories_sizes":[],"default_left":[1,1,0,0,0],"id":109,"left_children":[1,3,-1,-1,-1],"loss_changes":[5.9792703E-1,6.3076895E-1,0E0,0E0,0E0],"parents":[2147483647,0,0,1,1],"right_children":[2,4,-1,-1,-1],"split_conditions":[4.9051145E-1,-3.0474102E-1,-3.5112698E-2,-1.7058572E-2,4.9859073E-2],"split_indices":[40,17,0,0,0],"split_type":[0,0,0,0,0],"sum_hessian":[3.193545E0,2.1742365E0,1.0193086E0,1.0518364E0,1.1224003E0],"tree_param":{"num_deleted":"0","num_feature":"53","num_nodes":"5","size_leaf_vector":"0"}},{"base_weights":[-1.5323048E-2,3.7250805E-1,-3.4420034E-1],"categories":[],"categories_nodes":[],"categories_segments":[],"categories_sizes":[],"default_left":[1,0,0],"id":110,"left_children":[1,-1,-1],"loss_changes":[5.82291E-1,0E0,0E0],"parents":[2147483647,0,0],"right_children":[2,-1,-1],"split_conditions":[4.9488362E-2,3.0731915E-2,-2.839653E-2],"split_indices":[20,0,0],"split_type":[0,0,0],"sum_hessian":[2.559998E0,1.1138345E0,1.4461635E0],"tree_param":{"num_deleted":"0","num_feature":"53","num_nodes":"3","size_leaf_vector":"0"}},{"base_weights":[4.8372515E-2,-3.4120336E-1,5.3924257E-1],"categories":[],"categories_nodes":[],"categories_segments":[],"categories_sizes":[],"default_left":[1,0,0],"id":111,"left_children":[1,-1,-1],"loss_changes":[8.9915013E-1,0E0,0E0],"parents":[2147483647,0,0],"right_children":[2,-1,-1],"split_conditions":[2.5394553E-1,-2.8149279E-2,4.4487514E-2],"split_indices":[37,0,0],"split_type":[0,0,0],"sum_hessian":[2.739761E0,1.6974732E0,1.042288E0],"tree_param":{"num_deleted":"0","num_feature":"53","num_nodes":"3","size_leaf_vector":"0"}},{"base_weights":[-3.0071647E-3,-4.2975578E-1,3.2544687E-1],"categories":[],"categories_nodes":[],"categories_segments":[],"categories_sizes":[],"default_left":[1,0,0],"id":112,"left_children":[1,-1,-1],"loss_changes":[6.878224E-1,0E0,0E0],"parents":[2147483647,0,0],"right_children":[2,-1,-1],"split_conditions":[-3.6741138E-2,-3.5454854E-2,2.6849369E-2],"split_indices":[34,0,0],"split_type":[0,0,0],"sum_hessian":[2.9093263E0,1.1311908E0,1.7781357E0],"tree_param":{"num_deleted":"0","num_feature":"53","num_nodes":"3","size_leaf_vector":"0"}},{"base_weights":[-3.608647E-2,2.3423076E-1,-4.494026E-1,5.982143E-1,-2.576744E-1],"categories":[],"categories_nodes":[],"categories_segments":[],"categories_sizes":[],"default_left":[1,1,0,0,0],"id":113,"left_children":[1,3,-1,-1,-1],"loss_changes":[5.790635E-1,7.308952E-1,0E0,0E0,0E0],"parents":[2147483647,0,0,1,1],"right_children":[2,4,-1,-1,-1],"split_conditions":[7.735698E-1,4.0814468E-1,-3.7075717E-2,4.9352683E-2,-2.1258138E-2],"split_indices":[23,10,0,0,0],"split_type":[0,0,0,0,0],"sum_hessian":[3.2407098E0,2.2212536E0,1.0194564E0,1.1524125E0,1.0688411E0],"tree_param":{"num_deleted":"0","num_feature":"53","num_nodes":"5","size_leaf_vector":"0"}},{"base_weights":[2.6114345E-1],"categories":[],"categories_nodes":[],"categories_segments":[],"categories_sizes":[],"default_left":[0],"id":114,"left_children":[-1],"loss_changes":[0E0],"parents":[2147483647],"right_children":[-1],"split_conditions":[2.1544335E-2],"split_indices":[0],"split_type":[0],"sum_hessian":[1.9851943E0],"tree_param":{"num_deleted":"0","num_feature":"53","num_nodes":"1","size_leaf_vector":"0"}},{"base_weights":[-1.507968E-1,1.3131338E-1,-3.6554042E-1],"categories":[],"categories_nodes":[],"categories_segments":[],"categories_sizes":[],"default_left":[1,0,0],"id":115,"left_children":[1,-1,-1],"loss_changes":[2.3811604E-1,0E0,0E0],"parents":[2147483647,0,0],"right_children":[2,-1,-1],"split_conditions":[2.962557E-1,1.0833355E-2,-3.0157086E-2],"split_indices":[10,0,0],"split_type":[0,0,0],"sum_hessian":[2.1381876E0,1.0920565E0,1.0461313E0],"tree_param":{"num_deleted":"0","num_feature":"53","num_nodes":"3","size_leaf_vector":"0"}},{"base_weights":[-1.1059675E-1,3.1182337E-1,-5.708303E-1],"categories":[],"categories_nodes":[],"categories_segments":[],"categories_sizes":[],"default_left":[1,0,0],"id":116,"left_children":[1,-1,-1],"loss_changes":[8.634317E-1,0E0,0E0],"parents":[2147483647,0,0],"right_children":[2,-1,-1],"split_conditions":[6.0784932E-2,2.5725428E-2,-4.70935E-2],"split_indices":[25,0,0],"split_type":[0,0,0],"sum_hessian":[2.5256767E0,1.48508E0,1.0405967E0],"tree_param":{"num_deleted":"0","num_feature":"53","num_nodes":"3","size_leaf_vector":"0"}},{"base_weights":[4.327126E-2,-3.6269164E-1,3.8724306E-1],"categories":[],"categories_nodes":[],"categories_segments":[],"categories_sizes":[],"default_left":[1,0,0],"id":117,"left_children":[1,-1,-1],"loss_changes":[6.4929044E-1,0E0,0E0],"parents":[2147483647,0,0],"right_children":[2,-1,-1],"split_conditions":[6.2580846E-2,-2.992206E-2,3.1947553E-2],"split_indices":[35,0,0],"split_type":[0,0,0],"sum_hessian":[2.6439517E0,1.1877367E0,1.456215E0],"tree_param":{"num_deleted":"0","num_feature":"53","num_nodes":"3","size_leaf_vector":"0"}},{"base_weights":[-1.8531185E-1,3.8011482E-1,-6.9639516E-1],"categories":[],"categories_nodes":[],"categories_segments":[],"categories_sizes":[],"default_left":[1,0,0],"id":118,"left_children":[1,-1,-1],"loss_changes":[1.2514405E0,0E0,0E0],"parents":[2147483647,0,0],"right_children":[2,-1,-1],"split_conditions":[1.6868761E-1,3.1359475E-2,-5.7452604E-2],"split_indices":[49,0,0],"split_type":[0,0,0],"sum_hessian":[2.414527E0,1.2679797E0,1.1465471E0],"tree_param":{"num_deleted":"0","num_feature":"53","num_nodes":"3","size_leaf_vector":"0"}},{"base_weights":[1.4499554E-1],"categories":[],"categories_nodes":[],"categories_segments":[],"categories_sizes":[],"default_left":[0],"id":119,"left_children":[-1],"loss_changes":[0E0],"parents":[2147483647],"right_children":[-1],"split_conditions":[1.19621325E-2],"split_indices":[0],"split_type":[0],"sum_hessian":[1.9386849E0],"tree_param":{"num_deleted":"0","num_feature":"53","num_nodes":"1","size_leaf_vector":"0"}},{"base_weights":[9.304091E-2,3.2757172E-1,-1.9923393E-1],"categories":[],"categories_nodes":[],"categories_segments":[],"categories_sizes":[],"default_left":[1,0,0],"id":120,"left_children":[1,-1,-1],"loss_changes":[3.0164367E-1,0E0,0E0],"parents":[2147483647,0,0],"right_children":[2,-1,-1],"split_conditions":[5.3415697E-2,2.7024668E-2,-1.64368E-2],"split_indices":[50,0,0],"split_type":[0,0,0],"sum_hessian":[2.4484181E0,1.291395E0,1.1570232E0],"tree_param":{"num_deleted":"0","num_feature":"53","num_nodes":"3","size_leaf_vector":"0"}},{"base_weights":[-1.4178042E-1,-3.5397774E-1,2.1046646E-1],"categories":[],"categories_nodes":[],"categories_segments":[],"categories_sizes":[],"default_left":[1,0,0],"id":121,"left_children":[1,-1,-1],"loss_changes":[3.7143883E-1,0E0,0E0],"parents":[2147483647,0,0],"right_children":[2,-1,-1],"split_conditions":[3.5287008E-2,-2.9203165E-2,1.7363483E-2],"split_indices":[42,0,0],"split_type":[0,0,0],"sum_hessian":[2.9726408E0,1.8520387E0,1.120602E0],"tree_param":{"num_deleted":"0","num_feature":"53","num_nodes":"3","size_leaf_vector":"0"}},{"base_weights":[-4.5564473E-2,-3.8571995E-1,4.229762E-1],"categories":[],"categories_nodes":[],"categories_segments":[],"categories_sizes":[],"default_left":[1,0,0],"id":122,"left_children":[1,-1,-1],"loss_changes":[7.881791E-1,0E0,0E0],"parents":[2147483647,0,0],"right_children":[2,-1,-1],"split_conditions":[2.5394553E-1,-3.18219E-2,3.489554E-2],"split_indices":[37,0,0],"split_type":[0,0,0],"sum_hessian":[2.9217079E0,1.7951856E0,1.1265223E0],"tree_param":{"num_deleted":"0","num_feature":"53","num_nodes":"3","size_leaf_vector":"0"}},{"base_weights":[-1.403296E-1],"categories":[],"categories_nodes":[],"categories_segments":[],"categories_sizes":[],"default_left":[0],"id":123,"left_children":[-1],"loss_changes":[0E0],"parents":[2147483647],"right_children":[-1],"split_conditions":[-1.1577193E-2],"split_indices":[0],"split_type":[0],"sum_hessian":[1.8779747E0],"tree_param":{"num_deleted":"0","num_feature":"53","num_nodes":"1","size_leaf_vector":"0"}},{"base_weights":[-2.5354427E-1,-4.181877E-1,8.660187E-2],"categories":[],"categories_nodes":[],"categories_segments":[],"categories_sizes":[],"default_left":[1,0,0],"id":124,"left_children":[1,-1,-1],"loss_changes":[2.3764981E-1,0E0,0E0],"parents":[2147483647,0,0],"right_children":[2,-1,-1],"split_conditions":[2.9990882E-1,-3.4500487E-2,7.1446546E-3],"split_indices":[18,0,0],"split_type":[0,0,0],"sum_hessian":[2.5968537E0,1.5952553E0,1.0015985E0],"tree_param":{"num_deleted":"0","num_feature":"53","num_nodes":"3","size_leaf_vector":"0"}},{"base_weights":[1.2702134E-1,-2.1989283E-1,4.4945058E-1],"categories":[],"categories_nodes":[],"categories_segments":[],"categories_sizes":[],"default_left":[1,0,0],"id":125,"left_children":[1,-1,-1],"loss_changes":[5.2023983E-1,0E0,0E0],"parents":[2147483647,0,0],"right_children":[2,-1,-1],"split_conditions":[8.158266E-2,-1.814116E-2,3.7079673E-2],"split_indices":[9,0,0],"split_type":[0,0,0],"sum_hessian":[2.7674477E0,1.4862962E0,1.2811517E0],"tree_param":{"num_deleted":"0","num_feature":"53","num_nodes":"3","size_leaf_vector":"0"}},{"base_weights":[-2.7116757E-2,2.7836984E-1,-4.3525147E-1],"categories":[],"categories_nodes":[],"categories_segments":[],"categories_sizes":[],"default_left":[1,0,0],"id":126,"left_children":[1,-1,-1],"loss_changes":[5.902426E-1,0E0,0E0],"parents":[2147483647,0,0],"right_children":[2,-1,-1],"split_conditions":[2.7019638E-1,2.2965513E-2,-3.590825E-2],"split_indices":[39,0,0],"split_type":[0,0,0],"sum_hessian":[2.7622948E0,1.7616532E0,1.0006416E0],"tree_param":{"num_deleted":"0","num_feature":"53","num_nodes":"3","size_leaf_vector":"0"}},{"base_weights":[-8.6070165E-2,-3.90419E-1,3.6310723E-1],"categories":[],"categories_nodes":[],"categories_segments":[],"categories_sizes":[],"default_left":[1,0,0],"id":127,"left_children":[1,-1,-1],"loss_changes":[6.4825237E-1,0E0,0E0],"parents":[2147483647,0,0],"right_children":[2,-1,-1],"split_conditions":[-2.474302E-2,-3.2209568E-2,2.9956348E-2],"split_indices":[26,0,0],"split_type":[0,0,0],"sum_hessian":[2.70493E0,1.6903882E0,1.0145419E0],"tree_param":{"num_deleted":"0","num_feature":"53","num_nodes":"3","size_leaf_vector":"0"}},{"base_weights":[-2.2313495E-1,3.1322572E-1,-5.853869E-1],"categories":[],"categories_nodes":[],"categories_segments":[],"categories_sizes":[],"default_left":[1,0,0],"id":128,"left_children":[1,-1,-1],"loss_changes":[8.612639E-1,0E0,0E0],"parents":[2147483647,0,0],"right_children":[2,-1,-1],"split_conditions":[1.23950295E-1,2.5841122E-2,-4.8294418E-2],"split_indices":[12,0,0],"split_type":[0,0,0],"sum_hessian":[2.4890046E0,1.0579342E0,1.4310704E0],"tree_param":{"num_deleted":"0","num_feature":"53","num_nodes":"3","size_leaf_vector":"0"}},{"base_weights":[1.7867559E-1,-2.249462E-1,4.9428734E-1],"categories":[],"categories_nodes":[],"categories_segments":[],"categories_sizes":[],"default_left":[1,0,0],"id":129,"left_children":[1,-1,-1],"loss_changes":[5.116016E-1,0E0,0E0],"parents":[2147483647,0,0],"right_children":[2,-1,-1],"split_conditions":[3.3652373E-2,-1.8558063E-2,4.0778708E-2],"split_indices":[34,0,0],"split_type":[0,0,0],"sum_hessian":[2.143265E0,1.0665592E0,1.0767058E0],"tree_param":{"num_deleted":"0","num_feature":"53","num_nodes":"3","size_leaf_vector":"0"}},{"base_weights":[-1.1136806E-1,-3.5114586E-1,1.780051E-1],"categories":[],"categories_nodes":[],"categories_segments":[],"categories_sizes":[],"default_left":[1,0,0],"id":130,"left_children":[1,-1,-1],"loss_changes":[3.1254077E-1,0E0,0E0],"parents":[2147483647,0,0],"right_children":[2,-1,-1],"split_conditions":[-1.0480427E-2,-2.8969536E-2,1.4685421E-2],"split_indices":[48,0,0],"split_type":[0,0,0],"sum_hessian":[2.6035755E0,1.3070602E0,1.2965152E0],"tree_param":{"num_deleted":"0","num_feature":"53","num_nodes":"3","size_leaf_vector":"0"}},{"base_weights":[-6.894328E-2,-2.8687435E-1,1.9592527E-1],"categories":[],"categories_nodes":[],"categories_segments":[],"categories_sizes":[],"default_left":[1,0,0],"id":131,"left_children":[1,-1,-1],"loss_changes":[2.4863815E-1,0E0,0E0],"parents":[2147483647,0,0],"right_children":[2,-1,-1],"split_conditions":[-1.7735578E-1,-2.3667134E-2,1.6163835E-2],"split_indices":[16,0,0],"split_type":[0,0,0],"sum_hessian":[2.3337126E0,1.2347176E0,1.098995E0],"tree_param":{"num_deleted":"0","num_feature":"53","num_nodes":"3","size_leaf_vector":"0"}},{"base_weights":[-2.2249487E-1,-4.7073278E-1,1.7581946E-1],"categories":[],"categories_nodes":[],"categories_segments":[],"categories_sizes":[],"default_left":[1,0,0],"id":132,"left_children":[1,-1,-1],"loss_changes":[4.4625804E-1,0E0,0E0],"parents":[2147483647,0,0],"right_children":[2,-1,-1],"split_conditions":[3.180744E-1,-3.8835455E-2,1.4505106E-2],"split_indices":[45,0,0],"split_type":[0,0,0],"sum_hessian":[2.676235E0,1.5367116E0,1.1395235E0],"tree_param":{"num_deleted":"0","num_feature":"53","num_nodes":"3","size_leaf_vector":"0"}},{"base_weights":[-6.5697074E-2,2.9405442E-1,-4.041E-1],"categories":[],"categories_nodes":[],"categories_segments":[],"categories_sizes":[],"default_left":[1,0,0],"id":133,"left_children":[1,-1,-1],"loss_changes":[5.053191E-1,0E0,0E0],"parents":[2147483647,0,0],"right_children":[2,-1,-1],"split_conditions":[2.4619292E-1,2.425949E-2,-3.3338252E-2],"split_indices":[17,0,0],"split_type":[0,0,0],"sum_hessian":[2.1747053E0,1.1176255E0,1.0570798E0],"tree_param":{"num_deleted":"0","num_feature":"53","num_nodes":"3","size_leaf_vector":"0"}},{"base_weights":[1.1656315E-1,4.5846632E-1,-3.706657E-1],"categories":[],"categories_nodes":[],"categories_segments":[],"categories_sizes":[],"default_left":[1,0,0],"id":134,"left_children":[1,-1,-1],"loss_changes":[8.18074E-1,0E0,0E0],"parents":[2147483647,0,0],"right_children":[2,-1,-1],"split_conditions":[2.0816919E-1,3.7823472E-2,-3.057992E-2],"split_indices":[0,0,0],"split_type":[0,0,0],"sum_hessian":[2.8907218E0,1.7333858E0,1.1573361E0],"tree_param":{"num_deleted":"0","num_feature":"53","num_nodes":"3","size_leaf_vector":"0"}},{"base_weights":[-2.4268296E-1,-4.418505E-1,1.6065103E-1],"categories":[],"categories_nodes":[],"categories_segments":[],"categories_sizes":[],"default_left":[1,0,0],"id":135,"left_children":[1,-1,-1],"loss_changes":[3.7999701E-1,0E0,0E0],"parents":[2147483647,0,0],"right_children":[2,-1,-1],"split_conditions":[3.5287008E-2,-3.645267E-2,1.325371E-2],"split_indices":[42,0,0],"split_type":[0,0,0],"sum_hessian":[2.8467472E0,1.8417767E0,1.0049704E0],"tree_param":{"num_deleted":"0","num_feature":"53","num_nodes":"3","size_leaf_vector":"0"}},{"base_weights":[-2.059528E-1,1.5872194E-1,-4.8465347E-1],"categories":[],"categories_nodes":[],"categories_segments":[],"categories_sizes":[],"default_left":[1,0,0],"id":136,"left_children":[1,-1,-1],"loss_changes":[3.9349443E-1,0E0,0E0],"parents":[2147483647,0,0],"right_children":[2,-1,-1],"split_conditions":[3.440696E-2,1.309456E-2,-3.9983913E-2],"split_indices":[49,0,0],"split_type":[0,0,0],"sum_hessian":[2.114763E0,1.1025672E0,1.0121958E0],"tree_param":{"num_deleted":"0","num_feature":"53","num_nodes":"3","size_leaf_vector":"0"}},{"base_weights":[-1.2604377E-1,2.2611183E-1,-4.4356593E-1],"categories":[],"categories_nodes":[],"categories_segments":[],"categories_sizes":[],"default_left":[1,0,0],"id":137,"left_children":[1,-1,-1],"loss_changes":[4.6544892E-1,0E0,0E0],"parents":[2147483647,0,0],"right_children":[2,-1,-1],"split_conditions":[4.1847962E-1,1.8654227E-2,-3.659419E-2],"split_indices":[10,0,0],"split_type":[0,0,0],"sum_hessian":[2.265628E0,1.2107278E0,1.0549002E0],"tree_param":{"num_deleted":"0","num_feature":"53","num_nodes":"3","size_leaf_vector":"0"}},{"base_weights":[4.3377217E-2,4.029176E-1,-2.653585E-1],"categories":[],"categories_nodes":[],"categories_segments":[],"categories_sizes":[],"default_left":[1,0,0],"id":138,"left_children":[1,-1,-1],"loss_changes":[5.023978E-1,0E0,0E0],"parents":[2147483647,0,0],"right_children":[2,-1,-1],"split_conditions":[-2.476908E-1,3.3240702E-2,-2.1892078E-2],"split_indices":[40,0,0],"split_type":[0,0,0],"sum_hessian":[2.5627892E0,1.043046E0,1.5197433E0],"tree_param":{"num_deleted":"0","num_feature":"53","num_nodes":"3","size_leaf_vector":"0"}},{"base_weights":[-9.340175E-3],"categories":[],"categories_nodes":[],"categories_segments":[],"categories_sizes":[],"default_left":[0],"id":139,"left_children":[-1],"loss_changes":[0E0],"parents":[2147483647],"right_children":[-1],"split_conditions":[-7.705645E-4],"split_indices":[0],"split_type":[0],"sum_hessian":[1.9648794E0],"tree_param":{"num_deleted":"0","num_feature":"53","num_nodes":"1","size_leaf_vector":"0"}},{"base_weights":[1.1268946E-1],"categories":[],"categories_nodes":[],"categories_segments":[],"categories_sizes":[],"default_left":[0],"id":140,"left_children":[-1],"loss_changes":[0E0],"parents":[2147483647],"right_children":[-1],"split_conditions":[9.296881E-3],"split_indices":[0],"split_type":[0],"sum_hessian":[1.8605342E0],"tree_param":{"num_deleted":"0","num_feature":"53","num_nodes":"1","size_leaf_vector":"0"}},{"base_weights":[1.2289759E-1,3.4377614E-1,-1.5806544E-1],"categories":[],"categories_nodes":[],"categories_segments":[],"categories_sizes":[],"default_left":[1,0,0],"id":141,"left_children":[1,-1,-1],"loss_changes":[2.4600652E-1,0E0,0E0],"parents":[2147483647,0,0],"right_children":[2,-1,-1],"split_conditions":[3.387728E-2,2.8361533E-2,-1.3040399E-2],"split_indices":[21,0,0],"split_type":[0,0,0],"sum_hessian":[2.088485E0,1.0441023E0,1.0443827E0],"tree_param":{"num_deleted":"0","num_feature":"53","num_nodes":"3","size_leaf_vector":"0"}},{"base_weights":[-5.688497E-3,-4.4246814E-1,3.071451E-1],"categories":[],"categories_nodes":[],"categories_segments":[],"categories_sizes":[],"default_left":[1,0,0],"id":142,"left_children":[1,-1,-1],"loss_changes":[6.574214E-1,0E0,0E0],"parents":[2147483647,0,0],"right_children":[2,-1,-1],"split_conditions":[-1.12757035E-1,-3.6503624E-2,2.5339471E-2],"split_indices":[36,0,0],"split_type":[0,0,0],"sum_hessian":[2.8167596E0,1.0025736E0,1.8141859E0],"tree_param":{"num_deleted":"0","num_feature":"53","num_nodes":"3","size_leaf_vector":"0"}},{"base_weights":[-9.203419E-2,-2.8001451E-1,1.7562944E-1],"categories":[],"categories_nodes":[],"categories_segments":[],"categories_sizes":[],"default_left":[1,0,0],"id":143,"left_children":[1,-1,-1],"loss_changes":[2.5485197E-1,0E0,0E0],"parents":[2147483647,0,0],"right_children":[2,-1,-1],"split_conditions":[3.5287008E-2,-2.3101198E-2,1.4489429E-2],"split_indices":[42,0,0],"split_type":[0,0,0],"sum_hessian":[3.0876708E0,1.786716E0,1.3009549E0],"tree_param":{"num_deleted":"0","num_feature":"53","num_nodes":"3","size_leaf_vector":"0"}},{"base_weights":[2.216837E-1,4.0763533E-1,-7.4094936E-2],"categories":[],"categories_nodes":[],"categories_segments":[],"categories_sizes":[],"default_left":[1,0,0],"id":144,"left_children":[1,-1,-1],"loss_changes":[1.9734992E-1,0E0,0E0],"parents":[2147483647,0,0],"right_children":[2,-1,-1],"split_conditions":[1.757204E-1,3.3629917E-2,-6.1128326E-3],"split_indices":[35,0,0],"split_type":[0,0,0],"sum_hessian":[2.0389931E0,1.0197282E0,1.0192649E0],"tree_param":{"num_deleted":"0","num_feature":"53","num_nodes":"3","size_leaf_vector":"0"}},{"base_weights":[-2.2573696E-2],"categories":[],"categories_nodes":[],"categories_segments":[],"categories_sizes":[],"default_left":[0],"id":145,"left_children":[-1],"loss_changes":[0E0],"parents":[2147483647],"right_children":[-1],"split_conditions":[-1.86233E-3],"split_indices":[0],"split_type":[0],"sum_hessian":[1.7655011E0],"tree_param":{"num_deleted":"0","num_feature":"53","num_nodes":"1","size_leaf_vector":"0"}},{"base_weights":[2.4293335E-1],"categories":[],"categories_nodes":[],"categories_segments":[],"categories_sizes":[],"default_left":[0],"id":146,"left_children":[-1],"loss_changes":[0E0],"parents":[2147483647],"right_children":[-1],"split_conditions":[2.0042002E-2],"split_indices":[0],"split_type":[0],"sum_hessian":[1.8415897E0],"tree_param":{"num_deleted":"0","num_feature":"53","num_nodes":"1","size_leaf_vector":"0"}},{"base_weights":[-1.4829805E-1,-3.2398617E-1,1.9230396E-1,8.86253E-2,-5.835348E-1],"categories":[],"categories_nodes":[],"categories_segments":[],"categories_sizes":[],"default_left":[1,1,0,0,0],"id":147,"left_children":[1,3,-1,-1,-1],"loss_changes":[3.1570315E-1,3.9078277E-1,0E0,0E0,0E0],"parents":[2147483647,0,0,1,1],"right_children":[2,4,-1,-1,-1],"split_conditions":[1.0274474E-1,7.3178664E-2,1.5865076E-2,7.311587E-3,-4.814162E-2],"split_indices":[3,30,0,0,0],"split_type":[0,0,0,0,0],"sum_hessian":[3.2346334E0,2.1661048E0,1.0685288E0,1.0907116E0,1.0753932E0],"tree_param":{"num_deleted":"0","num_feature":"53","num_nodes":"5","size_leaf_vector":"0"}},{"base_weights":[-2.9508024E-1],"categories":[],"categories_nodes":[],"categories_segments":[],"categories_sizes":[],"default_left":[0],"id":148,"left_children":[-1],"loss_changes":[0E0],"parents":[2147483647],"right_children":[-1],"split_conditions":[-2.4344122E-2],"split_indices":[0],"split_type":[0],"sum_hessian":[1.881725E0],"tree_param":{"num_deleted":"0","num_feature":"53","num_nodes":"1","size_leaf_vector":"0"}},{"base_weights":[2.6745528E-1,5.9835434E-1,-1.5929079E-1],"categories":[],"categories_nodes":[],"categories_segments":[],"categories_sizes":[],"default_left":[1,0,0],"id":149,"left_children":[1,-1,-1],"loss_changes":[5.8814853E-1,0E0,0E0],"parents":[2147483647,0,0],"right_children":[2,-1,-1],"split_conditions":[1.8822327E-1,4.9364235E-2,-1.31414905E-2],"split_indices":[49,0,0],"split_type":[0,0,0],"sum_hessian":[2.4900978E0,1.1760534E0,1.3140442E0],"tree_param":{"num_deleted":"0","num_feature":"53","num_nodes":"3","size_leaf_vector":"0"}},{"base_weights":[5.2017268E-2],"categories":[],"categories_nodes":[],"categories_segments":[],"categories_sizes":[],"default_left":[0],"id":150,"left_children":[-1],"loss_changes":[0E0],"parents":[2147483647],"right_children":[-1],"split_conditions":[4.291425E-3],"split_indices":[0],"split_type":[0],"sum_hessian":[1.9885097E0],"tree_param":{"num_deleted":"0","num_feature":"53","num_nodes":"1","size_leaf_vector":"0"}},{"base_weights":[2.5473577E-1],"categories":[],"categories_nodes":[],"categories_segments":[],"categories_sizes":[],"default_left":[0],"id":151,"left_children":[-1],"loss_changes":[0E0],"parents":[2147483647],"right_children":[-1],"split_conditions":[2.1015702E-2],"split_indices":[0],"split_type":[0],"sum_hessian":[1.912558E0],"tree_param":{"num_deleted":"0","num_feature":"53","num_nodes":"1","size_leaf_vector":"0"}},{"base_weights":[-1.0442113E-1],"categories":[],"categories_nodes":[],"categories_segments":[],"categories_sizes":[],"default_left":[0],"id":152,"left_children":[-1],"loss_changes":[0E0],"parents":[2147483647],"right_children":[-1],"split_conditions":[-8.614744E-3],"split_indices":[0],"split_type":[0],"sum_hessian":[1.9950845E0],"tree_param":{"num_deleted":"0","num_feature":"53","num_nodes":"1","size_leaf_vector":"0"}},{"base_weights":[1.0186593E-1,-1.4379404E-1,2.7102852E-1],"categories":[],"categories_nodes":[],"categories_segments":[],"categories_sizes":[],"default_left":[1,0,0],"id":153,"left_children":[1,-1,-1],"loss_changes":[1.781508E-1,0E0,0E0],"parents":[2147483647,0,0],"right_children":[2,-1,-1],"split_conditions":[-1.04535624E-1,-1.1863009E-2,2.2359854E-2],"split_indices":[2,0,0],"split_type":[0,0,0],"sum_hessian":[2.3491414E0,1.0191233E0,1.330018E0],"tree_param":{"num_deleted":"0","num_feature":"53","num_nodes":"3","size_leaf_vector":"0"}},{"base_weights":[-5.0370816E-2,-3.6136982E-1,2.494391E-1],"categories":[],"categories_nodes":[],"categories_segments":[],"categories_sizes":[],"default_left":[1,0,0],"id":154,"left_children":[1,-1,-1],"loss_changes":[4.4191903E-1,0E0,0E0],"parents":[2147483647,0,0],"right_children":[2,-1,-1],"split_conditions":[-9.1992915E-2,-2.9813012E-2,2.0578727E-2],"split_indices":[26,0,0],"split_type":[0,0,0],"sum_hessian":[2.7728126E0,1.2602253E0,1.5125873E0],"tree_param":{"num_deleted":"0","num_feature":"53","num_nodes":"3","size_leaf_vector":"0"}},{"base_weights":[-1.3778548E-1,-4.5821536E-1,2.4603933E-1],"categories":[],"categories_nodes":[],"categories_segments":[],"categories_sizes":[],"default_left":[1,0,0],"id":155,"left_children":[1,-1,-1],"loss_changes":[5.716305E-1,0E0,0E0],"parents":[2147483647,0,0],"right_children":[2,-1,-1],"split_conditions":[5.6699865E-2,-3.7802767E-2,2.0298246E-2],"split_indices":[19,0,0],"split_type":[0,0,0],"sum_hessian":[2.7311604E0,1.3828756E0,1.3482848E0],"tree_param":{"num_deleted":"0","num_feature":"53","num_nodes":"3","size_leaf_vector":"0"}},{"base_weights":[-9.3311876E-2,2.2305746E-1,-3.5578066E-1],"categories":[],"categories_nodes":[],"categories_segments":[],"categories_sizes":[],"default_left":[1,0,0],"id":156,"left_children":[1,-1,-1],"loss_changes":[3.4381184E-1,0E0,0E0],"parents":[2147483647,0,0],"right_children":[2,-1,-1],"split_conditions":[3.1117659E-2,1.8402241E-2,-2.9351905E-2],"split_indices":[20,0,0],"split_type":[0,0,0],"sum_hessian":[2.1847503E0,1.0587417E0,1.1260086E0],"tree_param":{"num_deleted":"0","num_feature":"53","num_nodes":"3","size_leaf_vector":"0"}},{"base_weights":[1.1553498E-2],"categories":[],"categories_nodes":[],"categories_segments":[],"categories_sizes":[],"default_left":[0],"id":157,"left_children":[-1],"loss_changes":[0E0],"parents":[2147483647],"right_children":[-1],"split_conditions":[9.531636E-4],"split_indices":[0],"split_type":[0],"sum_hessian":[1.9104362E0],"tree_param":{"num_deleted":"0","num_feature":"53","num_nodes":"1","size_leaf_vector":"0"}},{"base_weights":[2.4931896E-2,3.5566068E-1,-3.3379433E-1],"categories":[],"categories_nodes":[],"categories_segments":[],"categories_sizes":[],"default_left":[1,0,0],"id":158,"left_children":[1,-1,-1],"loss_changes":[4.9682716E-1,0E0,0E0],"parents":[2147483647,0,0],"right_children":[2,-1,-1],"split_conditions":[1.8822327E-1,2.9342007E-2,-2.7538033E-2],"split_indices":[49,0,0],"split_type":[0,0,0],"sum_hessian":[2.187004E0,1.1423534E0,1.0446506E0],"tree_param":{"num_deleted":"0","num_feature":"53","num_nodes":"3","size_leaf_vector":"0"}},{"base_weights":[-9.212598E-3,2.730457E-1,-2.9661617E-1],"categories":[],"categories_nodes":[],"categories_segments":[],"categories_sizes":[],"default_left":[1,0,0],"id":159,"left_children":[1,-1,-1],"loss_changes":[3.3125526E-1,0E0,0E0],"parents":[2147483647,0,0],"right_children":[2,-1,-1],"split_conditions":[4.6690822E-1,2.252627E-2,-2.4470834E-2],"split_indices":[10,0,0],"split_type":[0,0,0],"sum_hessian":[2.0850492E0,1.077145E0,1.0079042E0],"tree_param":{"num_deleted":"0","num_feature":"53","num_nodes":"3","size_leaf_vector":"0"}}]},"name":"gbtree"},"learner_model_param":{"base_score":"5E-1","boost_from_average":"1","num_class":"0","num_feature":"53","num_target":"1"},"objective":{"name":"binary:logistic","reg_loss_param":{"scale_pos_weight":"1"}}},"version":[1,7,7]}
