{"learner":{"attributes":{"niter":"109"},"feature_names":[],"feature_types":[],"gradient_booster":{"model":{"gbtree_model_param":{"num_parallel_tree":"1","num_trees":"110","size_leaf_vector":"0"},"tree_info":[0,0,0,0,0,0,0,0,0,0,0,0,0,0,0,0,0,0,0,0,0,0,0,0,0,0,0,0,0,0,0,0,0,0,0,0,0,0,0,0,0,0,0,0,0,0,0,0,0,0,0,0,0,0,0,0,0,0,0,0,0,0,0,0,0,0,0,0,0,0,0,0,0,0,0,0,0,0,0,0,0,0,0,0,0,0,0,0,0,0,0,0,0,0,0,0,0,0,0,0,0,0,0,0,0,0,0,0,0,0],"trees":[{"base_weights":[8.5714287E-1,1.6190476E0,-9.0909094E-1],"categories":[],"categories_nodes":[],"categories_segments":[],"categories_sizes":[],"default_left":[1,0,0],"id":0,"left_children":[1,-1,-1],"loss_changes":[1.0891775E1,0E0,0E0],"parents":[2147483647,0,0],"right_children":[2,-1,-1],"split_conditions":[2.0816919E-1,1.3357143E-1,-7.5E-2],"split_indices":[0,0,0],"split_type":[0,0,0],"sum_hessian":[6E0,4.25E0,1.75E0],"tree_param":{"num_deleted":"0","num_feature":"53","num_nodes":"3","size_leaf_vector":"0"}},{"base_weights":[9.019582E-1,1.5192024E0,-7.5046515E-1],"categories":[],"categories_nodes":[],"categories_segments":[],"categories_sizes":[],"default_left":[1,0,0],"id":1,"left_children":[1,-1,-1],"loss_changes":[1.080115E1,0E0,0E0],"parents":[2147483647,0,0],"right_children":[2,-1,-1],"split_conditions":[5.5681413E-1,1.253342E-1,-6.191338E-2],"split_indices":[33,0,0],"split_type":[0,0,0],"sum_hessian":[8.472087E0,6.226769E0,2.245318E0],"tree_param":{"num_deleted":"0","num_feature":"53","num_nodes":"3","size_leaf_vector":"0"}},{"base_weights":[5.479384E-1,1.0932539E0,-9.338745E-1,1.4136105E0,1.4479168E-1],"categories":[],"categories_nodes":[],"categories_segments":[],"categories_sizes":[],"default_left":[1,1,0,0,0],"id":2,"left_children":[1,3,-1,-1,-1],"loss_changes":[7.624629E0,1.7504387E0,0E0,0E0,0E0],"parents":[2147483647,0,0,1,1],"right_children":[2,4,-1,-1,-1],"split_conditions":[4.878132E-1,4.2360228E-1,-7.704465E-2,1.16622865E-1,1.1945314E-2],"split_indices":[4,31,0,0,0],"split_type":[0,0,0,0,0],"sum_hessian":[7.1722946E0,5.434563E0,1.737731E0,3.6958227E0,1.7387407E0],"tree_param":{"num_deleted":"0","num_feature":"53","num_nodes":"5","size_leaf_vector":"0"}},{"base_weights":[5.576966E-1,1.3720666E0,-5.3736913E-1,5.8343375E-1,-1.2537286E0],"categories":[],"categories_nodes":[],"categories_segments":[],"categories_sizes":[],"default_left":[1,0,1,0,0],"id":3,"left_children":[1,-1,3,-1,-1],"loss_changes":[7.532282E0,0E0,3.917581E0,0E0,0E0],"parents":[2147483647,0,0,2,2],"right_children":[2,-1,4,-1,-1],"split_conditions":[-8.048698E-3,1.131955E-1,-8.81955E-3,4.8133288E-2,-1.0343262E-1],"split_indices":[15,0,9,0,0],"split_type":[0,0,0,0,0],"sum_hessian":[6.619491E0,3.651224E0,2.9682674E0,1.229762E0,1.7385055E0],"tree_param":{"num_deleted":"0","num_feature":"53","num_nodes":"5","size_leaf_vector":"0"}},{"base_weights":[6.4438564E-1,1.1524897E0,-6.537382E-1,8.751954E-2,1.3889267E0],"categories":[],"categories_nodes":[],"categories_segments":[],"categories_sizes":[],"default_left":[1,1,0,0,0],"id":4,"left_children":[1,3,-1,-1,-1],"loss_changes":[6.2202473E0,1.4694777E0,0E0,0E0,0E0],"parents":[2147483647,0,0,1,1],"right_children":[2,4,-1,-1,-1],"split_conditions":[2.5102043E-1,-2.4008867E-1,-5.3933404E-2,7.2203623E-3,1.1458646E-1],"split_indices":[49,20,0,0,0],"split_type":[0,0,0,0,0],"sum_hessian":[7.2883105E0,5.3186884E0,1.969622E0,1.2152166E0,4.1034718E0],"tree_param":{"num_deleted":"0","num_feature":"53","num_nodes":"5","size_leaf_vector":"0"}},{"base_weights":[6.228912E-1,1.3062469E0,-8.56845E-1],"categories":[],"categories_nodes":[],"categories_segments":[],"categories_sizes":[],"default_left":[1,0,0],"id":5,"left_children":[1,-1,-1],"loss_changes":[7.912904E0,0E0,0E0],"parents":[2147483647,0,0],"right_children":[2,-1,-1],"split_conditions":[9.3461536E-2,1.0776537E-1,-7.0689715E-2],"split_indices":[49,0,0],"split_type":[0,0,0],"sum_hessian":[5.7184973E0,3.9921358E0,1.7263614E0],"tree_param":{"num_deleted":"0","num_feature":"53","num_nodes":"3","size_leaf_vector":"0"}},{"base_weights":[2.9766768E-1,6.776239E-1,-6.4670736E-1,1.1859845E0,-3.2082936E-1],"categories":[],"categories_nodes":[],"categories_segments":[],"categories_sizes":[],"default_left":[1,1,0,0,0],"id":6,"left_children":[1,3,-1,-1,-1],"loss_changes":[2.5800838E0,2.7888918E0,0E0,0E0,0E0],"parents":[2147483647,0,0,1,1],"right_children":[2,4,-1,-1,-1],"split_conditions":[4.2899144E-1,5.539696E-2,-5.3353358E-2,9.784372E-2,-2.6468424E-2],"split_indices":[6,2,0,0,0],"split_type":[0,0,0,0,0],"sum_hessian":[4.9691567E0,3.7449079E0,1.2242486E0,2.3570158E0,1.387892E0],"tree_param":{"num_deleted":"0","num_feature":"53","num_nodes":"5","size_leaf_vector":"0"}},{"base_weights":[3.3378708E-1,9.3090594E-1,-8.7284553E-1,-9.0005055E-2,1.2272087E0],"categories":[],"categories_nodes":[],"categories_segments":[],"categories_sizes":[],"default_left":[1,1,0,0,0],"id":7,"left_children":[1,3,-1,-1,-1],"loss_changes":[6.0830393E0,1.7370958E0,0E0,0E0,0E0],"parents":[2147483647,0,0,1,1],"right_children":[2,4,-1,-1,-1],"split_conditions":[2.7019638E-1,-2.4004146E-1,-7.200976E-2,-7.425417E-3,1.01244725E-1],"split_indices":[39,41,0,0,0],"split_type":[0,0,0,0,0],"sum_hessian":[6.3150315E0,4.377349E0,1.9376825E0,1.1412865E0,3.2360625E0],"tree_param":{"num_deleted":"0","num_feature":"53","num_nodes":"5","size_leaf_vector":"0"}},{"base_weights":[4.11359E-1,8.7955487E-1,-6.7222434E-1,2.130517E-2,1.1394242E0],"categories":[],"categories_nodes":[],"categories_segments":[],"categories_sizes":[],"default_left":[1,1,0,0,0],"id":8,"left_children":[1,3,-1,-1,-1],"loss_changes":[3.7895515E0,1.0541553E0,0E0,0E0,0E0],"parents":[2147483647,0,0,1,1],"right_children":[2,4,-1,-1,-1],"split_conditions":[5.756681E-1,-3.0796024E-1,-5.5458512E-2,1.7576766E-3,9.40025E-2],"split_indices":[33,36,0,0,0],"split_type":[0,0,0,0,0],"sum_hessian":[5.304176E0,3.835304E0,1.4688718E0,1.1428587E0,2.6924453E0],"tree_param":{"num_deleted":"0","num_feature":"53","num_nodes":"5","size_leaf_vector":"0"}},{"base_weights":[6.9810635E-1,-2.2133592E-1,1.1830363E0],"categories":[],"categories_nodes":[],"categories_segments":[],"categories_sizes":[],"default_left":[1,0,0],"id":9,"left_children":[1,-1,-1],"loss_changes":[3.231378E0,0E0,0E0],"parents":[2147483647,0,0],"right_children":[2,-1,-1],"split_conditions":[-7.646083E-2,-1.8260214E-2,9.76005E-2],"split_indices":[26,0,0],"split_type":[0,0,0],"sum_hessian":[5.660151E0,2.1421466E0,3.5180044E0],"tree_param":{"num_deleted":"0","num_feature":"53","num_nodes":"3","size_leaf_vector":"0"}},{"base_weights":[5.623109E-1,1.1996434E0,-1.5463343E-1,6.6015834E-1,-9.25989E-1],"categories":[],"categories_nodes":[],"categories_segments":[],"categories_sizes":[],"default_left":[1,0,1,0,0],"id":10,"left_children":[1,-1,3,-1,-1],"loss_changes":[4.093887E0,0E0,3.6979427E0,0E0,0E0],"parents":[2147483647,0,0,2,2],"right_children":[2,-1,4,-1,-1],"split_conditions":[1.4826466E-1,9.8970585E-2,1.7317498E-1,5.4463066E-2,-7.6394096E-2],"split_indices":[38,0,30,0,0],"split_type":[0,0,0,0,0],"sum_hessian":[7.5535336E0,3.64236E0,3.9111733E0,1.9721386E0,1.9390347E0],"tree_param":{"num_deleted":"0","num_feature":"53","num_nodes":"5","size_leaf_vector":"0"}},{"base_weights":[3.528483E-1,1.1004357E0,-4.882324E-1,5.2768064E-1,-1.2416869E0],"categories":[],"categories_nodes":[],"categories_segments":[],"categories_sizes":[],"default_left":[1,0,1,0,0],"id":11,"left_children":[1,-1,3,-1,-1],"loss_changes":[4.612266E0,0E0,3.5197933E0,0E0,0E0],"parents":[2147483647,0,0,2,2],"right_children":[2,-1,4,-1,-1],"split_conditions":[-1.1002046E-1,9.078595E-2,-1.3248453E-1,4.3533653E-2,-1.0243918E-1],"split_indices":[18,0,50,0,0],"split_type":[0,0,0,0,0],"sum_hessian":[5.4807863E0,2.7384126E0,2.742374E0,1.295394E0,1.4469801E0],"tree_param":{"num_deleted":"0","num_feature":"53","num_nodes":"5","size_leaf_vector":"0"}},{"base_weights":[6.2076837E-1,1.1412802E0,-5.6404716E-1],"categories":[],"categories_nodes":[],"categories_segments":[],"categories_sizes":[],"default_left":[1,0,0],"id":12,"left_children":[1,-1,-1],"loss_changes":[4.621974E0,0E0,0E0],"parents":[2147483647,0,0],"right_children":[2,-1,-1],"split_conditions":[3.0391532E-1,9.415562E-2,-4.6533894E-2],"split_indices":[4,0,0],"split_type":[0,0,0],"sum_hessian":[5.4507394E0,3.8125565E0,1.6381831E0],"tree_param":{"num_deleted":"0","num_feature":"53","num_nodes":"3","size_leaf_vector":"0"}},{"base_weights":[4.3255138E-1,9.1445166E-1,-6.05576E-1],"categories":[],"categories_nodes":[],"categories_segments":[],"categories_sizes":[],"default_left":[1,0,0],"id":13,"left_children":[1,-1,-1],"loss_changes":[3.2663233E0,0E0,0E0],"parents":[2147483647,0,0],"right_children":[2,-1,-1],"split_conditions":[2.4164326E-1,7.544226E-2,-4.996002E-2],"split_indices":[35,0,0],"split_type":[0,0,0],"sum_hessian":[4.422137E0,3.1015337E0,1.3206031E0],"tree_param":{"num_deleted":"0","num_feature":"53","num_nodes":"3","size_leaf_vector":"0"}},{"base_weights":[3.1657818E-1,9.2621845E-1,-5.479302E-1,1.0462177E0,2.8685722E-1,2.5882265E-1,-1.1002493E0],"categories":[],"categories_nodes":[],"categories_segments":[],"categories_sizes":[],"default_left":[1,1,1,0,0,0,0],"id":14,"left_children":[1,3,5,-1,-1,-1,-1],"loss_changes":[4.513202E0,7.0372105E-2,1.965283E0,0E0,0E0,0E0,0E0],"parents":[2147483647,0,0,1,1,2,2],"right_children":[2,4,6,-1,-1,-1,-1],"split_conditions":[2.0816919E-1,1.9464615E-1,5.9759863E-2,8.6312965E-2,2.366572E-2,2.1352869E-2,-9.077057E-2],"split_indices":[0,20,21,0,0,0,0],"split_type":[0,0,0,0,0,0,0],"sum_hessian":[6.6003833E0,3.8289058E0,2.7714772E0,2.6880484E0,1.1408576E0,1.3422662E0,1.429211E0],"tree_param":{"num_deleted":"0","num_feature":"53","num_nodes":"7","size_leaf_vector":"0"}},{"base_weights":[1.9588448E-1,7.524699E-1,-4.3033972E-1,1.0012523E0,-4.0780574E-2,2.69672E-1,-9.965949E-1],"categories":[],"categories_nodes":[],"categories_segments":[],"categories_sizes":[],"default_left":[1,1,1,0,0,0,0],"id":15,"left_children":[1,3,5,-1,-1,-1,-1],"loss_changes":[3.115569E0,9.495058E-1,2.014919E0,0E0,0E0,0E0,0E0],"parents":[2147483647,0,0,1,1,2,2],"right_children":[2,4,6,-1,-1,-1,-1],"split_conditions":[-1.6447024E-2,1.421536E-1,-5.665291E-2,8.260332E-2,-3.3643974E-3,2.2247942E-2,-8.221909E-2],"split_indices":[50,0,31,0,0,0,0],"split_type":[0,0,0,0,0,0,0],"sum_hessian":[7.009678E0,3.604455E0,3.4052227E0,2.54429E0,1.0601652E0,1.756982E0,1.6482406E0],"tree_param":{"num_deleted":"0","num_feature":"53","num_nodes":"7","size_leaf_vector":"0"}},{"base_weights":[3.553659E-2,5.522736E-1,-7.0409197E-1,-2.4053857E-1,8.3619994E-1,-1.15721E0,1.644117E-1],"categories":[],"categories_nodes":[],"categories_segments":[],"categories_sizes":[],"default_left":[1,1,1,0,0,0,0],"id":16,"left_children":[1,3,5,-1,-1,-1,-1],"loss_changes":[3.247461E0,1.3184528E0,1.5738701E0,0E0,0E0,0E0,0E0],"parents":[2147483647,0,0,1,1,2,2],"right_children":[2,4,6,-1,-1,-1,-1],"split_conditions":[-4.8189458E-2,-6.757331E-1,5.060196E-1,-1.9844433E-2,6.89865E-2,-9.5469825E-2,1.3563965E-2],"split_indices":[4,8,15,0,0,0,0],"split_type":[0,0,0,0,0,0,0],"sum_hessian":[6.479485E0,3.9636292E0,2.5158558E0,1.0854695E0,2.8781598E0,1.434846E0,1.0810097E0],"tree_param":{"num_deleted":"0","num_feature":"53","num_nodes":"7","size_leaf_vector":"0"}},{"base_weights":[1.1000052E-1,-4.210785E-1,9.294657E-1,4.3129557E-1,-8.9536935E-1],"categories":[],"categories_nodes":[],"categories_segments":[],"categories_sizes":[],"default_left":[1,1,0,0,0],"id":17,"left_children":[1,3,-1,-1,-1],"loss_changes":[3.3447309E0,2.329044E0,0E0,0E0,0E0],"parents":[2147483647,0,0,1,1],"right_children":[2,4,-1,-1,-1],"split_conditions":[2.1681333E-1,-1.51463635E-2,7.668092E-2,3.5581887E-2,-7.386798E-2],"split_indices":[41,15,0,0,0],"split_type":[0,0,0,0,0],"sum_hessian":[5.7861843E0,3.8058462E0,1.9803383E0,1.3930218E0,2.4128242E0],"tree_param":{"num_deleted":"0","num_feature":"53","num_nodes":"5","size_leaf_vector":"0"}},{"base_weights":[1.734053E-1,6.552326E-1,-7.3105025E-1,-3.146143E-1,1.0661712E0],"categories":[],"categories_nodes":[],"categories_segments":[],"categories_sizes":[],"default_left":[1,1,0,0,0],"id":18,"left_children":[1,3,-1,-1,-1],"loss_changes":[3.6714804E0,2.4504688E0,0E0,0E0,0E0],"parents":[2147483647,0,0,1,1],"right_children":[2,4,-1,-1,-1],"split_conditions":[1.9813894E-1,-5.5320966E-1,-6.031165E-2,-2.595568E-2,8.7959126E-2],"split_indices":[49,36,0,0,0],"split_type":[0,0,0,0,0],"sum_hessian":[6.3256884E0,4.3068604E0,2.018828E0,1.3515347E0,2.9553258E0],"tree_param":{"num_deleted":"0","num_feature":"53","num_nodes":"5","size_leaf_vector":"0"}},{"base_weights":[3.22508E-1,8.032263E-1,-9.186342E-1,4.5303117E-2,1.0237609E0],"categories":[],"categories_nodes":[],"categories_segments":[],"categories_sizes":[],"default_left":[1,1,0,0,0],"id":19,"left_children":[1,3,-1,-1,-1],"loss_changes":[4.3537006E0,7.7296185E-1,0E0,0E0,0E0],"parents":[2147483647,0,0,1,1],"right_children":[2,4,-1,-1,-1],"split_conditions":[2.4158832E-1,-4.2488986E-1,-7.578732E-2,3.7375074E-3,8.446028E-2],"split_indices":[28,19,0,0,0],"split_type":[0,0,0,0,0],"sum_hessian":[5.060323E0,3.9018822E0,1.1584412E0,1.1511356E0,2.7507465E0],"tree_param":{"num_deleted":"0","num_feature":"53","num_nodes":"5","size_leaf_vector":"0"}},{"base_weights":[2.2314072E-1,8.0854034E-1,-5.260539E-1,1.853819E-1,9.4946694E-1,-8.0271894E-1,2.1399897E-2],"categories":[],"categories_nodes":[],"categories_segments":[],"categories_sizes":[],"default_left":[1,1,1,0,0,0,0],"id":20,"left_children":[1,3,5,-1,-1,-1,-1],"loss_changes":[3.3633523E0,1.8885303E-1,5.5399185E-1,0E0,0E0,0E0,0E0],"parents":[2147483647,0,0,1,1,2,2],"right_children":[2,4,6,-1,-1,-1,-1],"split_conditions":[1.504722E-1,-2.700377E-1,4.1627812E-1,1.5294008E-2,7.833102E-2,-6.6224314E-2,1.7654916E-3],"split_indices":[49,0,36,0,0,0,0],"split_type":[0,0,0,0,0,0,0],"sum_hessian":[5.698957E0,3.1547282E0,2.5442288E0,1.0089109E0,2.1458173E0,1.3803622E0,1.1638666E0],"tree_param":{"num_deleted":"0","num_feature":"53","num_nodes":"7","size_leaf_vector":"0"}},{"base_weights":[2.3073173E-1,7.718538E-1,-4.670594E-1,2.1482241E-1,8.91253E-1,-8.8060594E-1,1.4813042E-1],"categories":[],"categories_nodes":[],"categories_segments":[],"categories_sizes":[],"default_left":[1,1,1,0,0,0,0],"id":21,"left_children":[1,3,5,-1,-1,-1,-1],"loss_changes":[3.0198848E0,9.744334E-2,1.0715591E0,0E0,0E0,0E0,0E0],"parents":[2147483647,0,0,1,1,2,2],"right_children":[2,4,6,-1,-1,-1,-1],"split_conditions":[1.6112E-1,-2.9885618E-4,3.5349724E-1,1.7722849E-2,7.352837E-2,-7.264999E-2,1.222076E-2],"split_indices":[12,28,30,0,0,0,0],"split_type":[0,0,0,0,0,0,0],"sum_hessian":[6.043041E0,3.3438323E0,2.6992092E0,1.0843277E0,2.2595046E0,1.3561393E0,1.3430698E0],"tree_param":{"num_deleted":"0","num_feature":"53","num_nodes":"7","size_leaf_vector":"0"}},{"base_weights":[1.6882609E-1,6.8804324E-1,-4.2444664E-1],"categories":[],"categories_nodes":[],"categories_segments":[],"categories_sizes":[],"default_left":[1,0,0],"id":22,"left_children":[1,-1,-1],"loss_changes":[1.9266015E0,0E0,0E0],"parents":[2147483647,0,0],"right_children":[2,-1,-1],"split_conditions":[-6.861211E-2,5.676357E-2,-3.501685E-2],"split_indices":[31,0,0],"split_type":[0,0,0],"sum_hessian":[4.3063817E0,2.2113354E0,2.0950463E0],"tree_param":{"num_deleted":"0","num_feature":"53","num_nodes":"3","size_leaf_vector":"0"}},{"base_weights":[1.3862742E-1,9.101977E-1,-7.4197876E-1],"categories":[],"categories_nodes":[],"categories_segments":[],"categories_sizes":[],"default_left":[1,0,0],"id":23,"left_children":[1,-1,-1],"loss_changes":[4.2901654E0,0E0,0E0],"parents":[2147483647,0,0],"right_children":[2,-1,-1],"split_conditions":[9.3461536E-2,7.509131E-2,-6.121325E-2],"split_indices":[49,0,0],"split_type":[0,0,0],"sum_hessian":[4.3202157E0,2.2847545E0,2.0354614E0],"tree_param":{"num_deleted":"0","num_feature":"53","num_nodes":"3","size_leaf_vector":"0"}},{"base_weights":[5.1962125E-1,9.3206215E-1,-4.488359E-2,-7.702768E-1,8.642941E-1],"categories":[],"categories_nodes":[],"categories_segments":[],"categories_sizes":[],"default_left":[1,0,1,0,0],"id":24,"left_children":[1,-1,3,-1,-1],"loss_changes":[1.598549E0,0E0,3.1565862E0,0E0,0E0],"parents":[2147483647,0,0,2,2],"right_children":[2,-1,4,-1,-1],"split_conditions":[-1.9107204E-2,7.689513E-2,1.0274474E-1,-6.3547835E-2,7.130427E-2],"split_indices":[15,0,3,0,0],"split_type":[0,0,0,0,0],"sum_hessian":[5.686204E0,2.9094062E0,2.7767975E0,1.6294817E0,1.1473159E0],"tree_param":{"num_deleted":"0","num_feature":"53","num_nodes":"5","size_leaf_vector":"0"}},{"base_weights":[8.688411E-3,4.4235182E-1,-7.283104E-1,9.4194233E-1,-6.425166E-1],"categories":[],"categories_nodes":[],"categories_segments":[],"categories_sizes":[],"default_left":[1,1,0,0,0],"id":25,"left_children":[1,3,-1,-1,-1],"loss_changes":[2.4047334E0,3.1657417E0,0E0,0E0,0E0],"parents":[2147483647,0,0,1,1],"right_children":[2,4,-1,-1,-1],"split_conditions":[2.4141611E-1,2.3595455E-1,-6.008561E-2,7.771025E-2,-5.300762E-2],"split_indices":[1,21,0,0,0],"split_type":[0,0,0,0,0],"sum_hessian":[5.5159655E0,3.7243083E0,1.7916571E0,2.6402137E0,1.0840944E0],"tree_param":{"num_deleted":"0","num_feature":"53","num_nodes":"5","size_leaf_vector":"0"}},{"base_weights":[1.2853263E-1,6.0436714E-1,-5.745421E-1,9.830408E-2,7.7291334E-1],"categories":[],"categories_nodes":[],"categories_segments":[],"categories_sizes":[],"default_left":[1,1,0,0,0],"id":26,"left_children":[1,3,-1,-1,-1],"loss_changes":[2.0100293E0,2.1841645E-1,0E0,0E0,0E0],"parents":[2147483647,0,0,1,1],"right_children":[2,4,-1,-1,-1],"split_conditions":[2.3522612E-1,-3.439234E-1,-4.7399726E-2,8.110086E-3,6.3765354E-2],"split_indices":[1,39,0,0,0],"split_type":[0,0,0,0,0],"sum_hessian":[3.970285E0,2.4515157E0,1.5187691E0,1.0080559E0,1.4434599E0],"tree_param":{"num_deleted":"0","num_feature":"53","num_nodes":"5","size_leaf_vector":"0"}},{"base_weights":[1.6090603E-1,5.67461E-1,-4.9813113E-1,-1.0945823E-1,9.007042E-1,1.107578E-1,-8.5749745E-1],"categories":[],"categories_nodes":[],"categories_segments":[],"categories_sizes":[],"default_left":[1,1,1,0,0,0,0],"id":27,"left_children":[1,3,5,-1,-1,-1,-1],"loss_changes":[2.101326E0,1.1510152E0,7.7816314E-1,0E0,0E0,0E0,0E0],"parents":[2147483647,0,0,1,1,2,2],"right_children":[2,4,6,-1,-1,-1,-1],"split_conditions":[4.8271644E-1,-2.9143876E-1,4.9051145E-1,-9.030304E-3,7.43081E-2,9.137519E-3,-7.0743546E-2],"split_indices":[4,20,40,0,0,0,0],"split_type":[0,0,0,0,0,0,0],"sum_hessian":[5.7876797E0,3.6654477E0,2.122232E0,1.4307307E0,2.234717E0,1.0444221E0,1.0778099E0],"tree_param":{"num_deleted":"0","num_feature":"53","num_nodes":"7","size_leaf_vector":"0"}},{"base_weights":[1.326019E-1,6.975797E-1,-4.7119066E-1,-9.4225764E-1,2.9119593E-1],"categories":[],"categories_nodes":[],"categories_segments":[],"categories_sizes":[],"default_left":[1,0,1,0,0],"id":28,"left_children":[1,-1,3,-1,-1],"loss_changes":[2.321576E0,0E0,1.5029293E0,0E0,0E0],"parents":[2147483647,0,0,2,2],"right_children":[2,-1,4,-1,-1],"split_conditions":[2.4141611E-1,5.7550326E-2,6.59769E-2,-7.773626E-2,2.4023665E-2],"split_indices":[1,0,19,0,0],"split_type":[0,0,0,0,0],"sum_hessian":[4.8420153E0,2.4211648E0,2.4208503E0,1.3504786E0,1.0703716E0],"tree_param":{"num_deleted":"0","num_feature":"53","num_nodes":"5","size_leaf_vector":"0"}},{"base_weights":[2.2143488E-1,8.511296E-1,-5.1290137E-1,-9.487485E-1,1.9361126E-1],"categories":[],"categories_nodes":[],"categories_segments":[],"categories_sizes":[],"default_left":[1,0,1,0,0],"id":29,"left_children":[1,-1,3,-1,-1],"loss_changes":[3.002512E0,0E0,1.1646667E0,0E0,0E0],"parents":[2147483647,0,0,2,2],"right_children":[2,-1,4,-1,-1],"split_conditions":[-8.048698E-3,7.021819E-2,4.7593772E-1,-7.8271754E-2,1.597293E-2],"split_indices":[15,0,17,0,0],"split_type":[0,0,0,0,0],"sum_hessian":[4.5491433E0,2.3634415E0,2.1857018E0,1.1397372E0,1.0459646E0],"tree_param":{"num_deleted":"0","num_feature":"53","num_nodes":"5","size_leaf_vector":"0"}},{"base_weights":[2.3004575E-1,-5.4920083E-1,5.967122E-1,8.766587E-1,-9.604464E-2],"categories":[],"categories_nodes":[],"categories_segments":[],"categories_sizes":[],"default_left":[1,0,1,0,0],"id":30,"left_children":[1,-1,3,-1,-1],"loss_changes":[1.766072E0,0E0,8.410411E-1,0E0,0E0],"parents":[2147483647,0,0,2,2],"right_children":[2,-1,4,-1,-1],"split_conditions":[-4.8390204E-1,-4.530907E-2,2.1906227E-1,7.232434E-2,-7.923683E-3],"split_indices":[36,0,51,0,0],"split_type":[0,0,0,0,0],"sum_hessian":[4.034087E0,1.1315255E0,2.9025617E0,1.8781344E0,1.0244274E0],"tree_param":{"num_deleted":"0","num_feature":"53","num_nodes":"5","size_leaf_vector":"0"}},{"base_weights":[8.781314E-2,8.06536E-1,-5.311218E-1,1.23473465E-1,-8.9814323E-1],"categories":[],"categories_nodes":[],"categories_segments":[],"categories_sizes":[],"default_left":[1,0,1,0,0],"id":31,"left_children":[1,-1,3,-1,-1],"loss_changes":[2.8969955E0,0E0,9.721123E-1,0E0,0E0],"parents":[2147483647,0,0,2,2],"right_children":[2,-1,4,-1,-1],"split_conditions":[2.4141611E-1,6.653922E-2,-9.4352715E-2,1.0186561E-2,-7.409682E-2],"split_indices":[1,0,4,0,0],"split_type":[0,0,0,0,0],"sum_hessian":[4.549438E0,1.9647812E0,2.5846567E0,1.166947E0,1.4177098E0],"tree_param":{"num_deleted":"0","num_feature":"53","num_nodes":"5","size_leaf_vector":"0"}},{"base_weights":[2.0813318E-1,6.177083E-1,-4.0944257E-1,8.2566544E-2,7.872843E-1],"categories":[],"categories_nodes":[],"categories_segments":[],"categories_sizes":[],"default_left":[1,1,0,0,0],"id":32,"left_children":[1,3,-1,-1,-1],"loss_changes":[1.6662928E0,2.7604616E-1,0E0,0E0,0E0],"parents":[2147483647,0,0,1,1],"right_children":[2,4,-1,-1,-1],"split_conditions":[1.504722E-1,-3.2956606E-1,-3.3779014E-2,6.8117403E-3,6.495096E-2],"split_indices":[49,47,0,0,0],"split_type":[0,0,0,0,0],"sum_hessian":[4.5877132E0,2.7582393E0,1.829474E0,1.0215064E0,1.7367328E0],"tree_param":{"num_deleted":"0","num_feature":"53","num_nodes":"5","size_leaf_vector":"0"}},{"base_weights":[-1.1964176E-1,4.326553E-1,-6.0939837E-1,6.4043784E-1,1.3875976E-2,-9.359352E-2,-8.633713E-1],"categories":[],"categories_nodes":[],"categories_segments":[],"categories_sizes":[],"default_left":[1,1,1,0,0,0,0],"id":33,"left_children":[1,3,5,-1,-1,-1,-1],"loss_changes":[1.6760213E0,2.555393E-1,3.361187E-1,0E0,0E0,0E0,0E0],"parents":[2147483647,0,0,1,1,2,2],"right_children":[2,4,6,-1,-1,-1,-1],"split_conditions":[-7.3318064E-2,-1.7595379E-1,5.4233573E-2,5.2836124E-2,1.1447681E-3,-7.721466E-3,-7.122814E-2],"split_indices":[18,4,30,0,0,0,0],"split_type":[0,0,0,0,0,0,0],"sum_hessian":[4.221472E0,2.0388536E0,2.1826181E0,1.0089526E0,1.0299011E0,1.171627E0,1.0109912E0],"tree_param":{"num_deleted":"0","num_feature":"53","num_nodes":"7","size_leaf_vector":"0"}},{"base_weights":[4.296187E-1,7.727727E-1,-2.4442357E-1],"categories":[],"categories_nodes":[],"categories_segments":[],"categories_sizes":[],"default_left":[1,0,0],"id":34,"left_children":[1,-1,-1],"loss_changes":[1.0869992E0,0E0,0E0],"parents":[2147483647,0,0],"right_children":[2,-1,-1],"split_conditions":[5.191002E-1,6.3753754E-2,-2.0164946E-2],"split_indices":[38,0,0],"split_type":[0,0,0],"sum_hessian":[2.8828957E0,1.8132812E0,1.0696144E0],"tree_param":{"num_deleted":"0","num_feature":"53","num_nodes":"3","size_leaf_vector":"0"}},{"base_weights":[-2.244484E-2,5.870021E-1,-6.2494063E-1,6.8393886E-2,7.807222E-1,-9.11695E-1,2.191854E-2],"categories":[],"categories_nodes":[],"categories_segments":[],"categories_sizes":[],"default_left":[1,1,1,0,0,0,0],"id":35,"left_children":[1,3,5,-1,-1,-1,-1],"loss_changes":[2.4526656E0,2.821176E-1,6.396847E-1,0E0,0E0,0E0,0E0],"parents":[2147483647,0,0,1,1,2,2],"right_children":[2,4,6,-1,-1,-1,-1],"split_conditions":[2.0816919E-1,-4.664695E-1,3.742538E-1,5.642496E-3,6.4409584E-2,-7.521484E-2,1.8082797E-3],"split_indices":[0,23,51,0,0,0,0],"split_type":[0,0,0,0,0,0,0],"sum_hessian":[4.6805153E0,2.3396192E0,2.340896E0,1.0042355E0,1.3353838E0,1.3382349E0,1.002661E0],"tree_param":{"num_deleted":"0","num_feature":"53","num_nodes":"7","size_leaf_vector":"0"}},{"base_weights":[1.335838E-1,-3.0790672E-1,5.8169055E-1,-8.290194E-1,3.4277806E-1,5.773911E-2,8.1623024E-1],"categories":[],"categories_nodes":[],"categories_segments":[],"categories_sizes":[],"default_left":[1,1,1,0,0,0,0],"id":36,"left_children":[1,3,5,-1,-1,-1,-1],"loss_changes":[1.3470147E0,1.5142025E0,3.5543728E-1,0E0,0E0,0E0,0E0],"parents":[2147483647,0,0,1,1,2,2],"right_children":[2,4,6,-1,-1,-1,-1],"split_conditions":[-3.3622213E-2,-2.1011513E-2,2.464386E-1,-6.83941E-2,2.827919E-2,4.7634766E-3,6.7338996E-2],"split_indices":[3,26,37,0,0,0,0],"split_type":[0,0,0,0,0,0,0],"sum_hessian":[4.90345E0,2.6275587E0,2.2758913E0,1.3068621E0,1.3206966E0,1.0890907E0,1.1868005E0],"tree_param":{"num_deleted":"0","num_feature":"53","num_nodes":"7","size_leaf_vector":"0"}},{"base_weights":[-1.5478303E-1,4.863547E-1,-6.4073926E-1,7.366084E-2,6.462593E-1,9.944192E-2,-9.949596E-1],"categories":[],"categories_nodes":[],"categories_segments":[],"categories_sizes":[],"default_left":[1,1,1,0,0,0,0],"id":37,"left_children":[1,3,5,-1,-1,-1,-1],"loss_changes":[2.1720195E0,1.5980709E-1,1.102629E0,0E0,0E0,0E0,0E0],"parents":[2147483647,0,0,1,1,2,2],"right_children":[2,4,6,-1,-1,-1,-1],"split_conditions":[8.628707E-2,-3.464785E-1,1.2530847E-1,6.07702E-3,5.3316396E-2,8.203959E-3,-8.208417E-2],"split_indices":[49,31,28,0,0,0,0],"split_type":[0,0,0,0,0,0,0],"sum_hessian":[4.971126E0,2.14299E0,2.828136E0,1.0063586E0,1.1366314E0,1.1481725E0,1.6799635E0],"tree_param":{"num_deleted":"0","num_feature":"53","num_nodes":"7","size_leaf_vector":"0"}},{"base_weights":[3.0460654E-2,7.6244724E-1,-5.386195E-1,6.1969455E-2,-9.5398295E-1],"categories":[],"categories_nodes":[],"categories_segments":[],"categories_sizes":[],"default_left":[1,0,1,0,0],"id":38,"left_children":[1,-1,3,-1,-1],"loss_changes":[2.6866596E0,0E0,9.721439E-1,0E0,0E0],"parents":[2147483647,0,0,2,2],"right_children":[2,-1,4,-1,-1],"split_conditions":[-7.3318064E-2,6.29019E-2,7.221326E-2,5.1124804E-3,-7.87036E-2],"split_indices":[18,0,30,0,0],"split_type":[0,0,0,0,0],"sum_hessian":[4.4637876E0,1.8038167E0,2.6599708E0,1.4353511E0,1.2246196E0],"tree_param":{"num_deleted":"0","num_feature":"53","num_nodes":"5","size_leaf_vector":"0"}},{"base_weights":[2.9456649E-2,-5.652765E-1,5.254361E-1,7.84568E-1,-3.57514E-2],"categories":[],"categories_nodes":[],"categories_segments":[],"categories_sizes":[],"default_left":[1,0,1,0,0],"id":39,"left_children":[1,-1,3,-1,-1],"loss_changes":[1.8915612E0,0E0,5.3205496E-1,0E0,0E0],"parents":[2147483647,0,0,2,2],"right_children":[2,-1,4,-1,-1],"split_conditions":[-1.0834639E-1,-4.6635315E-2,1.7947984E-1,6.472687E-2,-2.9494904E-3],"split_indices":[41,0,20,0,0],"split_type":[0,0,0,0,0],"sum_hessian":[4.4056864E0,1.9398628E0,2.4658237E0,1.4145817E0,1.0512419E0],"tree_param":{"num_deleted":"0","num_feature":"53","num_nodes":"5","size_leaf_vector":"0"}},{"base_weights":[-2.6435813E-1,3.0981594E-1,-7.6207143E-1,-2.0807303E-1,6.497235E-1],"categories":[],"categories_nodes":[],"categories_segments":[],"categories_sizes":[],"default_left":[1,1,0,0,0],"id":40,"left_children":[1,3,-1,-1,-1],"loss_changes":[1.7554736E0,6.949228E-1,0E0,0E0,0E0],"parents":[2147483647,0,0,1,1],"right_children":[2,4,-1,-1,-1],"split_conditions":[2.4141611E-1,-1.6318807E-1,-6.28709E-2,-1.7166026E-2,5.360219E-2],"split_indices":[1,29,0,0,0],"split_type":[0,0,0,0,0],"sum_hessian":[4.3166885E0,2.1796794E0,2.1370094E0,1.0174022E0,1.1622772E0],"tree_param":{"num_deleted":"0","num_feature":"53","num_nodes":"5","size_leaf_vector":"0"}},{"base_weights":[-1.8391067E-1,5.11897E-1,-5.7928306E-1,-9.947274E-1,6.96917E-2],"categories":[],"categories_nodes":[],"categories_segments":[],"categories_sizes":[],"default_left":[1,0,1,0,0],"id":41,"left_children":[1,-1,3,-1,-1],"loss_changes":[1.6199003E0,0E0,1.0228295E0,0E0,0E0],"parents":[2147483647,0,0,2,2],"right_children":[2,-1,4,-1,-1],"split_conditions":[-1.3462907E-1,4.2231508E-2,5.0917987E-2,-8.206501E-2,5.7495655E-3],"split_indices":[42,0,42,0,0],"split_type":[0,0,0,0,0],"sum_hessian":[3.810439E0,1.2738665E0,2.5365725E0,1.2217171E0,1.3148553E0],"tree_param":{"num_deleted":"0","num_feature":"53","num_nodes":"5","size_leaf_vector":"0"}},{"base_weights":[-2.3260057E-1,1.6857167E-1,-8.980469E-1,6.866733E-1,-3.548204E-1],"categories":[],"categories_nodes":[],"categories_segments":[],"categories_sizes":[],"default_left":[1,1,0,0,0],"id":42,"left_children":[1,3,-1,-1,-1],"loss_changes":[1.5750642E0,1.3741828E0,0E0,0E0,0E0],"parents":[2147483647,0,0,1,1],"right_children":[2,4,-1,-1,-1],"split_conditions":[4.6690822E-1,1.7464831E-1,-7.408887E-2,5.665055E-2,-2.9272685E-2],"split_indices":[10,30,0,0,0],"split_type":[0,0,0,0,0],"sum_hessian":[4.332958E0,3.1691046E0,1.1638535E0,1.4358252E0,1.7332792E0],"tree_param":{"num_deleted":"0","num_feature":"53","num_nodes":"5","size_leaf_vector":"0"}},{"base_weights":[1.4690132E-1,7.247544E-1,-2.2568125E-1,4.160347E-1,-6.6717273E-1],"categories":[],"categories_nodes":[],"categories_segments":[],"categories_sizes":[],"default_left":[1,0,1,0,0],"id":43,"left_children":[1,-1,3,-1,-1],"loss_changes":[1.3010173E0,0E0,1.4036322E0,0E0,0E0],"parents":[2147483647,0,0,2,2],"right_children":[2,-1,4,-1,-1],"split_conditions":[-1.7719816E-1,5.979224E-2,7.3178664E-2,3.4322865E-2,-5.5041753E-2],"split_indices":[2,0,30,0,0],"split_type":[0,0,0,0,0],"sum_hessian":[4.28316E0,1.3085146E0,2.9746454E0,1.2359012E0,1.7387443E0],"tree_param":{"num_deleted":"0","num_feature":"53","num_nodes":"5","size_leaf_vector":"0"}},{"base_weights":[3.7276903E-1,6.982146E-1,-3.907592E-1,1.6890188E-1,8.600523E-1],"categories":[],"categories_nodes":[],"categories_segments":[],"categories_sizes":[],"default_left":[1,1,0,0,0],"id":44,"left_children":[1,3,-1,-1,-1],"loss_changes":[1.4740369E0,1.7581785E-1,0E0,0E0,0E0],"parents":[2147483647,0,0,1,1],"right_children":[2,4,-1,-1,-1],"split_conditions":[4.560179E-1,-1.8116985E-1,-3.2237634E-2,1.39344055E-2,7.0954315E-2],"split_indices":[45,7,0,0,0],"split_type":[0,0,0,0,0],"sum_hessian":[3.8340707E0,2.7482157E0,1.0858549E0,1.122049E0,1.6261667E0],"tree_param":{"num_deleted":"0","num_feature":"53","num_nodes":"5","size_leaf_vector":"0"}},{"base_weights":[2.0917697E-2,6.247532E-1,-6.966484E-1],"categories":[],"categories_nodes":[],"categories_segments":[],"categories_sizes":[],"default_left":[1,0,0],"id":45,"left_children":[1,-1,-1],"loss_changes":[2.402879E0,0E0,0E0],"parents":[2147483647,0,0],"right_children":[2,-1,-1],"split_conditions":[1.504722E-1,5.154214E-2,-5.7473496E-2],"split_indices":[49,0,0],"split_type":[0,0,0],"sum_hessian":[3.541155E0,1.9932061E0,1.547949E0],"tree_param":{"num_deleted":"0","num_feature":"53","num_nodes":"3","size_leaf_vector":"0"}},{"base_weights":[-9.113178E-4,-6.6289145E-1,4.223049E-1,7.9684746E-1,-1.604276E-1],"categories":[],"categories_nodes":[],"categories_segments":[],"categories_sizes":[],"default_left":[1,0,1,0,0],"id":46,"left_children":[1,-1,3,-1,-1],"loss_changes":[1.4412504E0,0E0,8.1304246E-1,0E0,0E0],"parents":[2147483647,0,0,2,2],"right_children":[2,-1,4,-1,-1],"split_conditions":[-3.0944255E-1,-5.4688547E-2,9.669039E-2,6.5739915E-2,-1.32352775E-2],"split_indices":[19,0,20,0,0],"split_type":[0,0,0,0,0],"sum_hessian":[3.1451497E0,1.0057195E0,2.13943E0,1.0786873E0,1.0607427E0],"tree_param":{"num_deleted":"0","num_feature":"53","num_nodes":"5","size_leaf_vector":"0"}},{"base_weights":[-4.9872384E-3,6.472221E-1,-4.4130063E-1,-7.822514E-1,7.881045E-2],"categories":[],"categories_nodes":[],"categories_segments":[],"categories_sizes":[],"default_left":[1,0,1,0,0],"id":47,"left_children":[1,-1,3,-1,-1],"loss_changes":[1.6043804E0,0E0,6.5948886E-1,0E0,0E0],"parents":[2147483647,0,0,2,2],"right_children":[2,-1,4,-1,-1],"split_conditions":[-2.970816E-1,5.3395826E-2,1.0251233E-1,-6.4535744E-2,6.501863E-3],"split_indices":[31,0,34,0,0],"split_type":[0,0,0,0,0],"sum_hessian":[3.6342604E0,1.2629665E0,2.371294E0,1.127905E0,1.243389E0],"tree_param":{"num_deleted":"0","num_feature":"53","num_nodes":"5","size_leaf_vector":"0"}},{"base_weights":[-2.569498E-1,-7.466559E-1,4.0222958E-1,-1.1678734E0,-3.4306876E-2],"categories":[],"categories_nodes":[],"categories_segments":[],"categories_sizes":[],"default_left":[1,1,0,0,0],"id":48,"left_children":[1,3,-1,-1,-1],"loss_changes":[1.9412415E0,9.4011474E-1,0E0,0E0,0E0],"parents":[2147483647,0,0,1,1],"right_children":[2,4,-1,-1,-1],"split_conditions":[-2.7047517E-2,1.5651079E-1,3.318394E-2,-9.634956E-2,-2.8303175E-3],"split_indices":[26,35,0,0,0],"split_type":[0,0,0,0,0],"sum_hessian":[4.083312E0,2.2666826E0,1.8166295E0,1.0225644E0,1.2441182E0],"tree_param":{"num_deleted":"0","num_feature":"53","num_nodes":"5","size_leaf_vector":"0"}},{"base_weights":[1.1204126E-3,-5.218749E-1,3.5005945E-1,8.2488966E-1,-3.4634078E-1],"categories":[],"categories_nodes":[],"categories_segments":[],"categories_sizes":[],"default_left":[1,0,1,0,0],"id":49,"left_children":[1,-1,3,-1,-1],"loss_changes":[1.125673E0,0E0,1.508479E0,0E0,0E0],"parents":[2147483647,0,0,2,2],"right_children":[2,-1,4,-1,-1],"split_conditions":[-3.0643442E-1,-4.305468E-2,1.9900432E-1,6.80534E-2,-2.8573114E-2],"split_indices":[17,0,0,0,0],"split_type":[0,0,0,0,0],"sum_hessian":[4.1672297E0,1.4693459E0,2.6978836E0,1.494426E0,1.2034576E0],"tree_param":{"num_deleted":"0","num_feature":"53","num_nodes":"5","size_leaf_vector":"0"}},{"base_weights":[2.4742194E-1,8.0098563E-1,-3.6555475E-1],"categories":[],"categories_nodes":[],"categories_segments":[],"categories_sizes":[],"default_left":[1,0,0],"id":50,"left_children":[1,-1,-1],"loss_changes":[1.7358804E0,0E0,0E0],"parents":[2147483647,0,0],"right_children":[2,-1,-1],"split_conditions":[2.0816919E-1,6.6081315E-2,-3.0158268E-2],"split_indices":[0,0,0],"split_type":[0,0,0],"sum_hessian":[3.2528272E0,1.5480803E0,1.7047467E0],"tree_param":{"num_deleted":"0","num_feature":"53","num_nodes":"3","size_leaf_vector":"0"}},{"base_weights":[-1.9936794E-1,2.1512492E-1,-7.681937E-1,6.382236E-1,-3.2711488E-1],"categories":[],"categories_nodes":[],"categories_segments":[],"categories_sizes":[],"default_left":[1,1,0,0,0],"id":51,"left_children":[1,3,-1,-1,-1],"loss_changes":[1.2699096E0,1.0097969E0,0E0,0E0,0E0],"parents":[2147483647,0,0,1,1],"right_children":[2,4,-1,-1,-1],"split_conditions":[2.3595455E-1,2.3509182E-1,-6.337599E-2,5.2653447E-2,-2.6986979E-2],"split_indices":[21,1,0,0,0],"split_type":[0,0,0,0,0],"sum_hessian":[3.6852114E0,2.4915059E0,1.1937056E0,1.3000724E0,1.1914334E0],"tree_param":{"num_deleted":"0","num_feature":"53","num_nodes":"5","size_leaf_vector":"0"}},{"base_weights":[-2.5560722E-2,5.6811583E-1,-7.3788625E-1],"categories":[],"categories_nodes":[],"categories_segments":[],"categories_sizes":[],"default_left":[1,0,0],"id":52,"left_children":[1,-1,-1],"loss_changes":[2.2016954E0,0E0,0E0],"parents":[2147483647,0,0],"right_children":[2,-1,-1],"split_conditions":[1.7317498E-1,4.6869557E-2,-6.0875617E-2],"split_indices":[30,0,0],"split_type":[0,0,0],"sum_hessian":[3.2150118E0,1.8639671E0,1.3510449E0],"tree_param":{"num_deleted":"0","num_feature":"53","num_nodes":"3","size_leaf_vector":"0"}},{"base_weights":[-7.6820634E-2,6.1811614E-1,-5.2268344E-1],"categories":[],"categories_nodes":[],"categories_segments":[],"categories_sizes":[],"default_left":[1,0,0],"id":53,"left_children":[1,-1,-1],"loss_changes":[1.5588962E0,0E0,0E0],"parents":[2147483647,0,0],"right_children":[2,-1,-1],"split_conditions":[-1.540035E-1,5.0994582E-2,-4.3121386E-2],"split_indices":[51,0,0],"split_type":[0,0,0],"sum_hessian":[2.9884822E0,1.0170057E0,1.9714764E0],"tree_param":{"num_deleted":"0","num_feature":"53","num_nodes":"3","size_leaf_vector":"0"}},{"base_weights":[-3.625144E-1,3.1436098E-1,-6.2617683E-1,-2.0848336E-2,-9.136299E-1],"categories":[],"categories_nodes":[],"categories_segments":[],"categories_sizes":[],"default_left":[1,0,1,0,0],"id":54,"left_children":[1,-1,3,-1,-1],"loss_changes":[1.0655102E0,0E0,6.4862704E-1,0E0,0E0],"parents":[2147483647,0,0,2,2],"right_children":[2,-1,4,-1,-1],"split_conditions":[-1.8029812E-1,2.5934782E-2,7.3178664E-2,-1.7199877E-3,-7.537447E-2],"split_indices":[2,0,30,0,0],"split_type":[0,0,0,0,0],"sum_hessian":[3.8673782E0,1.0302445E0,2.837134E0,1.258812E0,1.5783218E0],"tree_param":{"num_deleted":"0","num_feature":"53","num_nodes":"5","size_leaf_vector":"0"}},{"base_weights":[3.2787043E-1,6.6449165E-1,-2.534353E-1],"categories":[],"categories_nodes":[],"categories_segments":[],"categories_sizes":[],"default_left":[1,0,0],"id":55,"left_children":[1,-1,-1],"loss_changes":[9.2536175E-1,0E0,0E0],"parents":[2147483647,0,0],"right_children":[2,-1,-1],"split_conditions":[1.6291821E-1,5.4820564E-2,-2.0908413E-2],"split_indices":[51,0,0],"split_type":[0,0,0],"sum_hessian":[2.868339E0,1.7258412E0,1.142498E0],"tree_param":{"num_deleted":"0","num_feature":"53","num_nodes":"3","size_leaf_vector":"0"}},{"base_weights":[-1.8178979E-1,3.9441806E-1,-5.980869E-1],"categories":[],"categories_nodes":[],"categories_segments":[],"categories_sizes":[],"default_left":[1,0,0],"id":56,"left_children":[1,-1,-1],"loss_changes":[1.285285E0,0E0,0E0],"parents":[2147483647,0,0],"right_children":[2,-1,-1],"split_conditions":[-1.1002046E-1,3.253949E-2,-4.934217E-2],"split_indices":[18,0,0],"split_type":[0,0,0],"sum_hessian":[3.374756E0,1.4375548E0,1.9372013E0],"tree_param":{"num_deleted":"0","num_feature":"53","num_nodes":"3","size_leaf_vector":"0"}},{"base_weights":[-3.0548668E-2,5.1997316E-1,-5.252201E-1],"categories":[],"categories_nodes":[],"categories_segments":[],"categories_sizes":[],"default_left":[1,0,0],"id":57,"left_children":[1,-1,-1],"loss_changes":[1.520812E0,0E0,0E0],"parents":[2147483647,0,0],"right_children":[2,-1,-1],"split_conditions":[-8.048698E-3,4.2897787E-2,-4.333066E-2],"split_indices":[15,0,0],"split_type":[0,0,0],"sum_hessian":[3.5816605E0,1.6709286E0,1.9107319E0],"tree_param":{"num_deleted":"0","num_feature":"53","num_nodes":"3","size_leaf_vector":"0"}},{"base_weights":[2.3483929E-1,7.378853E-1,-1.8349007E-1,-6.009284E-1,3.5266215E-1],"categories":[],"categories_nodes":[],"categories_segments":[],"categories_sizes":[],"default_left":[1,0,1,0,0],"id":58,"left_children":[1,-1,3,-1,-1],"loss_changes":[1.2108132E0,0E0,1.0156215E0,0E0,0E0],"parents":[2147483647,0,0,2,2],"right_children":[2,-1,4,-1,-1],"split_conditions":[9.3461536E-2,6.087554E-2,1.2581477E-1,-4.9576595E-2,2.9094629E-2],"split_indices":[49,0,48,0,0],"split_type":[0,0,0,0,0],"sum_hessian":[4.11036E0,1.5193899E0,2.5909703E0,1.388833E0,1.2021371E0],"tree_param":{"num_deleted":"0","num_feature":"53","num_nodes":"5","size_leaf_vector":"0"}},{"base_weights":[7.650658E-2,-5.364715E-1,5.802331E-1],"categories":[],"categories_nodes":[],"categories_segments":[],"categories_sizes":[],"default_left":[1,0,0],"id":59,"left_children":[1,-1,-1],"loss_changes":[1.4885304E0,0E0,0E0],"parents":[2147483647,0,0],"right_children":[2,-1,-1],"split_conditions":[-1.0480427E-2,-4.42589E-2,4.786923E-2],"split_indices":[48,0,0],"split_type":[0,0,0],"sum_hessian":[2.8126738E0,1.2394267E0,1.5732472E0],"tree_param":{"num_deleted":"0","num_feature":"53","num_nodes":"3","size_leaf_vector":"0"}},{"base_weights":[-2.762028E-1,-7.3392135E-1,1.24239765E-1,4.1135296E-1,-2.3358503E-1],"categories":[],"categories_nodes":[],"categories_segments":[],"categories_sizes":[],"default_left":[1,0,1,0,0],"id":60,"left_children":[1,-1,3,-1,-1],"loss_changes":[8.8511765E-1,0E0,4.2130426E-1,0E0,0E0],"parents":[2147483647,0,0,2,2],"right_children":[2,-1,4,-1,-1],"split_conditions":[-3.6741138E-2,-6.0548514E-2,2.2199538E-2,3.393662E-2,-1.9270767E-2],"split_indices":[34,0,16,0,0],"split_type":[0,0,0,0,0],"sum_hessian":[3.3315804E0,1.1660138E0,2.1655664E0,1.1185032E0,1.0470632E0],"tree_param":{"num_deleted":"0","num_feature":"53","num_nodes":"5","size_leaf_vector":"0"}},{"base_weights":[-5.199344E-2,5.2093226E-1,-6.444226E-1],"categories":[],"categories_nodes":[],"categories_segments":[],"categories_sizes":[],"default_left":[1,0,0],"id":61,"left_children":[1,-1,-1],"loss_changes":[1.805813E0,0E0,0E0],"parents":[2147483647,0,0],"right_children":[2,-1,-1],"split_conditions":[1.7464831E-1,4.2976912E-2,-5.3164866E-2],"split_indices":[30,0,0],"split_type":[0,0,0],"sum_hessian":[3.3312762E0,1.7548664E0,1.5764098E0],"tree_param":{"num_deleted":"0","num_feature":"53","num_nodes":"3","size_leaf_vector":"0"}},{"base_weights":[9.843311E-2,-6.3295656E-1,5.0067425E-1,7.0093733E-1,2.7757809E-2],"categories":[],"categories_nodes":[],"categories_segments":[],"categories_sizes":[],"default_left":[1,0,1,0,0],"id":62,"left_children":[1,-1,3,-1,-1],"loss_changes":[1.6307648E0,0E0,3.0630583E-1,0E0,0E0],"parents":[2147483647,0,0,2,2],"right_children":[2,-1,4,-1,-1],"split_conditions":[-3.8458604E-1,-5.2218918E-2,-1.4167158E-1,5.782733E-2,2.2900193E-3],"split_indices":[19,0,4,0,0],"split_type":[0,0,0,0,0],"sum_hessian":[3.4659486E0,1.0262878E0,2.4396605E0,1.3751676E0,1.0644931E0],"tree_param":{"num_deleted":"0","num_feature":"53","num_nodes":"5","size_leaf_vector":"0"}},{"base_weights":[1.37722E-3,4.9111563E-1,-6.2720823E-1],"categories":[],"categories_nodes":[],"categories_segments":[],"categories_sizes":[],"default_left":[1,0,0],"id":63,"left_children":[1,-1,-1],"loss_changes":[1.6082231E0,0E0,0E0],"parents":[2147483647,0,0],"right_children":[2,-1,-1],"split_conditions":[1.059304E-1,4.051704E-2,-5.174468E-2],"split_indices":[21,0,0],"split_type":[0,0,0],"sum_hessian":[3.223561E0,1.9348181E0,1.2887428E0],"tree_param":{"num_deleted":"0","num_feature":"53","num_nodes":"3","size_leaf_vector":"0"}},{"base_weights":[2.6206836E-1,5.651154E-1,-2.172498E-1],"categories":[],"categories_nodes":[],"categories_segments":[],"categories_sizes":[],"default_left":[1,0,0],"id":64,"left_children":[1,-1,-1],"loss_changes":[6.766248E-1,0E0,0E0],"parents":[2147483647,0,0],"right_children":[2,-1,-1],"split_conditions":[6.515017E-2,4.6622023E-2,-1.792311E-2],"split_indices":[21,0,0],"split_type":[0,0,0],"sum_hessian":[2.8129492E0,1.6136968E0,1.1992522E0],"tree_param":{"num_deleted":"0","num_feature":"53","num_nodes":"3","size_leaf_vector":"0"}},{"base_weights":[1.5625426E-1,6.02882E-1,-2.3889026E-1],"categories":[],"categories_nodes":[],"categories_segments":[],"categories_sizes":[],"default_left":[1,0,0],"id":65,"left_children":[1,-1,-1],"loss_changes":[8.4439015E-1,0E0,0E0],"parents":[2147483647,0,0],"right_children":[2,-1,-1],"split_conditions":[-3.1015355E-2,4.973777E-2,-1.9708447E-2],"split_indices":[31,0,0],"split_type":[0,0,0],"sum_hessian":[2.9684813E0,1.1466777E0,1.8218035E0],"tree_param":{"num_deleted":"0","num_feature":"53","num_nodes":"3","size_leaf_vector":"0"}},{"base_weights":[2.213688E-1,6.9086474E-1,-2.2995362E-1],"categories":[],"categories_nodes":[],"categories_segments":[],"categories_sizes":[],"default_left":[1,0,0],"id":66,"left_children":[1,-1,-1],"loss_changes":[1.0899174E0,0E0,0E0],"parents":[2147483647,0,0],"right_children":[2,-1,-1],"split_conditions":[9.3461536E-2,5.699634E-2,-1.8971175E-2],"split_indices":[49,0,0],"split_type":[0,0,0],"sum_hessian":[3.3939435E0,1.4033393E0,1.9906043E0],"tree_param":{"num_deleted":"0","num_feature":"53","num_nodes":"3","size_leaf_vector":"0"}},{"base_weights":[-2.6024733E-2,4.9259135E-1,-4.42604E-1,-6.393928E-1,-2.5190491E-2],"categories":[],"categories_nodes":[],"categories_segments":[],"categories_sizes":[],"default_left":[1,0,1,0,0],"id":67,"left_children":[1,-1,3,-1,-1],"loss_changes":[1.1846843E0,0E0,2.3097712E-1,0E0,0E0],"parents":[2147483647,0,0,2,2],"right_children":[2,-1,4,-1,-1],"split_conditions":[-4.601468E-2,4.063879E-2,1.1702077E-1,-5.2749906E-2,-2.0782156E-3],"split_indices":[42,0,42,0,0],"split_type":[0,0,0,0,0],"sum_hessian":[3.474358E0,1.4663604E0,2.0079975E0,1.0032297E0,1.0047678E0],"tree_param":{"num_deleted":"0","num_feature":"53","num_nodes":"5","size_leaf_vector":"0"}},{"base_weights":[-2.3239794E-1,2.6241946E-1,-6.539264E-1],"categories":[],"categories_nodes":[],"categories_segments":[],"categories_sizes":[],"default_left":[1,0,0],"id":68,"left_children":[1,-1,-1],"loss_changes":[1.0310545E0,0E0,0E0],"parents":[2147483647,0,0],"right_children":[2,-1,-1],"split_conditions":[1.4368652E-1,2.1649607E-2,-5.3948928E-2],"split_indices":[7,0,0],"split_type":[0,0,0],"sum_hessian":[3.1204965E0,1.6090944E0,1.5114021E0],"tree_param":{"num_deleted":"0","num_feature":"53","num_nodes":"3","size_leaf_vector":"0"}},{"base_weights":[1.2453231E-1,-3.9375952E-1,5.6738865E-1],"categories":[],"categories_nodes":[],"categories_segments":[],"categories_sizes":[],"default_left":[1,0,0],"id":69,"left_children":[1,-1,-1],"loss_changes":[1.0829898E0,0E0,0E0],"parents":[2147483647,0,0],"right_children":[2,-1,-1],"split_conditions":[-1.2856069E-2,-3.248516E-2,4.6809565E-2],"split_indices":[0,0,0],"split_type":[0,0,0],"sum_hessian":[2.744955E0,1.3158402E0,1.4291147E0],"tree_param":{"num_deleted":"0","num_feature":"53","num_nodes":"3","size_leaf_vector":"0"}},{"base_weights":[4.003706E-3,6.0058576E-1,-5.6830186E-1],"categories":[],"categories_nodes":[],"categories_segments":[],"categories_sizes":[],"default_left":[1,0,0],"id":70,"left_children":[1,-1,-1],"loss_changes":[1.800009E0,0E0,0E0],"parents":[2147483647,0,0],"right_children":[2,-1,-1],"split_conditions":[-1.1002046E-1,4.9548328E-2,-4.6884906E-2],"split_indices":[18,0,0],"split_type":[0,0,0],"sum_hessian":[3.2723455E0,1.5779972E0,1.6943483E0],"tree_param":{"num_deleted":"0","num_feature":"53","num_nodes":"3","size_leaf_vector":"0"}},{"base_weights":[-1.7037937E-1,4.485329E-1,-4.951122E-1,-1.5670266E-2,-7.533945E-1],"categories":[],"categories_nodes":[],"categories_segments":[],"categories_sizes":[],"default_left":[1,0,1,0,0],"id":71,"left_children":[1,-1,3,-1,-1],"loss_changes":[1.1928986E0,0E0,4.3937004E-1,0E0,0E0],"parents":[2147483647,0,0,2,2],"right_children":[2,-1,4,-1,-1],"split_conditions":[-2.2749057E-1,3.7003968E-2,-8.048698E-3,-1.292797E-3,-6.215505E-2],"split_indices":[38,0,15,0,0],"split_type":[0,0,0,0,0],"sum_hessian":[3.8304262E0,1.1869558E0,2.6434705E0,1.2968453E0,1.3466252E0],"tree_param":{"num_deleted":"0","num_feature":"53","num_nodes":"5","size_leaf_vector":"0"}},{"base_weights":[-2.5595096E-1,2.1190688E-1,-5.324672E-1],"categories":[],"categories_nodes":[],"categories_segments":[],"categories_sizes":[],"default_left":[1,0,0],"id":72,"left_children":[1,-1,-1],"loss_changes":[6.537306E-1,0E0,0E0],"parents":[2147483647,0,0],"right_children":[2,-1,-1],"split_conditions":[-1.1891014E-2,1.7482318E-2,-4.3928545E-2],"split_indices":[38,0,0],"split_type":[0,0,0],"sum_hessian":[3.1809998E0,1.2684582E0,1.9125416E0],"tree_param":{"num_deleted":"0","num_feature":"53","num_nodes":"3","size_leaf_vector":"0"}},{"base_weights":[1.4823945E-1,4.7838524E-1,-2.9660156E-1],"categories":[],"categories_nodes":[],"categories_segments":[],"categories_sizes":[],"default_left":[1,0,0],"id":73,"left_children":[1,-1,-1],"loss_changes":[7.9060155E-1,0E0,0E0],"parents":[2147483647,0,0],"right_children":[2,-1,-1],"split_conditions":[3.7286216E-1,3.9466783E-2,-2.446963E-2],"split_indices":[14,0,0],"split_type":[0,0,0],"sum_hessian":[3.41714E0,1.9181485E0,1.4989914E0],"tree_param":{"num_deleted":"0","num_feature":"53","num_nodes":"3","size_leaf_vector":"0"}},{"base_weights":[-1.9657625E-1,2.4539936E-1,-5.077294E-1],"categories":[],"categories_nodes":[],"categories_segments":[],"categories_sizes":[],"default_left":[1,0,0],"id":74,"left_children":[1,-1,-1],"loss_changes":[6.656176E-1,0E0,0E0],"parents":[2147483647,0,0],"right_children":[2,-1,-1],"split_conditions":[-7.3318064E-2,2.0245448E-2,-4.188768E-2],"split_indices":[18,0,0],"split_type":[0,0,0],"sum_hessian":[2.9340663E0,1.2995092E0,1.6345571E0],"tree_param":{"num_deleted":"0","num_feature":"53","num_nodes":"3","size_leaf_vector":"0"}},{"base_weights":[-3.402444E-2,-4.935319E-1,3.2812253E-1,-1.3061796E-1,6.2063843E-1],"categories":[],"categories_nodes":[],"categories_segments":[],"categories_sizes":[],"default_left":[1,0,1,0,0],"id":75,"left_children":[1,-1,3,-1,-1],"loss_changes":[8.947573E-1,0E0,4.9214312E-1,0E0,0E0],"parents":[2147483647,0,0,2,2],"right_children":[2,-1,4,-1,-1],"split_conditions":[-3.0643442E-1,-4.0716384E-2,-1.2472949E-1,-1.0775982E-2,5.1202673E-2],"split_indices":[17,0,9,0,0],"split_type":[0,0,0,0,0],"sum_hessian":[3.4037118E0,1.3402945E0,2.0634172E0,1.0189335E0,1.0444837E0],"tree_param":{"num_deleted":"0","num_feature":"53","num_nodes":"5","size_leaf_vector":"0"}},{"base_weights":[-2.011516E-2,-5.850789E-1,5.8743566E-1],"categories":[],"categories_nodes":[],"categories_segments":[],"categories_sizes":[],"default_left":[1,0,0],"id":76,"left_children":[1,-1,-1],"loss_changes":[1.7701824E0,0E0,0E0],"parents":[2147483647,0,0],"right_children":[2,-1,-1],"split_conditions":[3.8679354E-2,-4.826901E-2,4.8463445E-2],"split_indices":[51,0,0],"split_type":[0,0,0],"sum_hessian":[3.1558933E0,1.6544251E0,1.5014683E0],"tree_param":{"num_deleted":"0","num_feature":"53","num_nodes":"3","size_leaf_vector":"0"}},{"base_weights":[2.5090795E-2,4.8759988E-1,-5.507085E-1],"categories":[],"categories_nodes":[],"categories_segments":[],"categories_sizes":[],"default_left":[1,0,0],"id":77,"left_children":[1,-1,-1],"loss_changes":[1.3510118E0,0E0,0E0],"parents":[2147483647,0,0],"right_children":[2,-1,-1],"split_conditions":[2.3595455E-1,4.0226992E-2,-4.543345E-2],"split_indices":[21,0,0],"split_type":[0,0,0],"sum_hessian":[3.0647244E0,1.7845039E0,1.2802204E0],"tree_param":{"num_deleted":"0","num_feature":"53","num_nodes":"3","size_leaf_vector":"0"}},{"base_weights":[1.5795396E-1,-3.1203306E-1,6.094234E-1],"categories":[],"categories_nodes":[],"categories_segments":[],"categories_sizes":[],"default_left":[1,0,0],"id":78,"left_children":[1,-1,-1],"loss_changes":[1.0939347E0,0E0,0E0],"parents":[2147483647,0,0],"right_children":[2,-1,-1],"split_conditions":[9.689893E-2,-2.5742728E-2,5.027743E-2],"split_indices":[34,0,0],"split_type":[0,0,0],"sum_hessian":[3.2593741E0,1.7482586E0,1.5111154E0],"tree_param":{"num_deleted":"0","num_feature":"53","num_nodes":"3","size_leaf_vector":"0"}},{"base_weights":[-1.416477E-1,4.6907032E-1,-5.9553105E-1],"categories":[],"categories_nodes":[],"categories_segments":[],"categories_sizes":[],"default_left":[1,0,0],"id":79,"left_children":[1,-1,-1],"loss_changes":[1.4004387E0,0E0,0E0],"parents":[2147483647,0,0],"right_children":[2,-1,-1],"split_conditions":[1.4816974E-3,3.86983E-2,-4.913131E-2],"split_indices":[50,0,0],"split_type":[0,0,0],"sum_hessian":[3.0444224E0,1.2836971E0,1.7607254E0],"tree_param":{"num_deleted":"0","num_feature":"53","num_nodes":"3","size_leaf_vector":"0"}},{"base_weights":[-2.4637435E-2,5.9705055E-1,-4.2484957E-1,2.2100097E-2,-6.384087E-1],"categories":[],"categories_nodes":[],"categories_segments":[],"categories_sizes":[],"default_left":[1,0,1,0,0],"id":80,"left_children":[1,-1,3,-1,-1],"loss_changes":[1.3594247E0,0E0,3.2794887E-1,0E0,0E0],"parents":[2147483647,0,0,2,2],"right_children":[2,-1,4,-1,-1],"split_conditions":[-6.861211E-2,4.925667E-2,-1.6231845E-1,1.823258E-3,-5.266872E-2],"split_indices":[31,0,41,0,0],"split_type":[0,0,0,0,0],"sum_hessian":[3.4442787E0,1.156281E0,2.2879975E0,1.0296332E0,1.2583644E0],"tree_param":{"num_deleted":"0","num_feature":"53","num_nodes":"5","size_leaf_vector":"0"}},{"base_weights":[-7.8466654E-2,4.7206184E-1,-5.710303E-1],"categories":[],"categories_nodes":[],"categories_segments":[],"categories_sizes":[],"default_left":[1,0,0],"id":81,"left_children":[1,-1,-1],"loss_changes":[1.2362324E0,0E0,0E0],"parents":[2147483647,0,0],"right_children":[2,-1,-1],"split_conditions":[-1.1891014E-2,3.8945105E-2,-4.7110002E-2],"split_indices":[38,0,0],"split_type":[0,0,0],"sum_hessian":[2.5648103E0,1.2307966E0,1.3340137E0],"tree_param":{"num_deleted":"0","num_feature":"53","num_nodes":"3","size_leaf_vector":"0"}},{"base_weights":[-1.5750536E-1,-6.684898E-1,2.2856367E-1,6.4464813E-1,-3.0579636E-1],"categories":[],"categories_nodes":[],"categories_segments":[],"categories_sizes":[],"default_left":[1,0,1,0,0],"id":82,"left_children":[1,-1,3,-1,-1],"loss_changes":[9.651468E-1,0E0,8.8434756E-1,0E0,0E0],"parents":[2147483647,0,0,2,2],"right_children":[2,-1,4,-1,-1],"split_conditions":[-3.6741138E-2,-5.5150412E-2,2.7001727E-1,5.3183474E-2,-2.52282E-2],"split_indices":[34,0,32,0,0],"split_type":[0,0,0,0,0],"sum_hessian":[3.1178718E0,1.0270212E0,2.0908506E0,1.059482E0,1.0313686E0],"tree_param":{"num_deleted":"0","num_feature":"53","num_nodes":"5","size_leaf_vector":"0"}},{"base_weights":[2.204633E-2,3.6627054E-1,-3.7704206E-1],"categories":[],"categories_nodes":[],"categories_segments":[],"categories_sizes":[],"default_left":[1,0,0],"id":83,"left_children":[1,-1,-1],"loss_changes":[7.00339E-1,0E0,0E0],"parents":[2147483647,0,0],"right_children":[2,-1,-1],"split_conditions":[1.8822327E-1,3.0217322E-2,-3.1105971E-2],"split_indices":[49,0,0],"split_type":[0,0,0],"sum_hessian":[3.09271E0,1.7046429E0,1.3880671E0],"tree_param":{"num_deleted":"0","num_feature":"53","num_nodes":"3","size_leaf_vector":"0"}},{"base_weights":[-1.326121E-1,5.126942E-1,-6.165381E-1],"categories":[],"categories_nodes":[],"categories_segments":[],"categories_sizes":[],"default_left":[1,0,0],"id":84,"left_children":[1,-1,-1],"loss_changes":[1.4066364E0,0E0,0E0],"parents":[2147483647,0,0],"right_children":[2,-1,-1],"split_conditions":[1.2887862E-1,4.229727E-2,-5.0864395E-2],"split_indices":[28,0,0],"split_type":[0,0,0],"sum_hessian":[2.4921837E0,1.0425352E0,1.4496485E0],"tree_param":{"num_deleted":"0","num_feature":"53","num_nodes":"3","size_leaf_vector":"0"}},{"base_weights":[3.56509E-2,5.362475E-1,-5.616935E-1],"categories":[],"categories_nodes":[],"categories_segments":[],"categories_sizes":[],"default_left":[1,0,0],"id":85,"left_children":[1,-1,-1],"loss_changes":[1.4286677E0,0E0,0E0],"parents":[2147483647,0,0],"right_children":[2,-1,-1],"split_conditions":[2.4141611E-1,4.424042E-2,-4.6339713E-2],"split_indices":[1,0,0],"split_type":[0,0,0],"sum_hessian":[2.7704122E0,1.5629139E0,1.2074984E0],"tree_param":{"num_deleted":"0","num_feature":"53","num_nodes":"3","size_leaf_vector":"0"}},{"base_weights":[1.6851126E-1,-3.1841734E-1,7.132319E-1],"categories":[],"categories_nodes":[],"categories_segments":[],"categories_sizes":[],"default_left":[1,0,0],"id":86,"left_children":[1,-1,-1],"loss_changes":[1.2753549E0,0E0,0E0],"parents":[2147483647,0,0],"right_children":[2,-1,-1],"split_conditions":[2.7614953E-2,-2.6269432E-2,5.8841635E-2],"split_indices":[3,0,0],"split_type":[0,0,0],"sum_hessian":[2.952078E0,1.7780862E0,1.1739919E0],"tree_param":{"num_deleted":"0","num_feature":"53","num_nodes":"3","size_leaf_vector":"0"}},{"base_weights":[1.3677727E-1,-4.4350445E-1,5.083357E-1],"categories":[],"categories_nodes":[],"categories_segments":[],"categories_sizes":[],"default_left":[1,0,0],"id":87,"left_children":[1,-1,-1],"loss_changes":[1.035781E0,0E0,0E0],"parents":[2147483647,0,0],"right_children":[2,-1,-1],"split_conditions":[7.704493E-2,-3.658912E-2,4.1937698E-2],"split_indices":[35,0,0],"split_type":[0,0,0],"sum_hessian":[2.7583473E0,1.0011567E0,1.7571906E0],"tree_param":{"num_deleted":"0","num_feature":"53","num_nodes":"3","size_leaf_vector":"0"}},{"base_weights":[-9.926979E-2],"categories":[],"categories_nodes":[],"categories_segments":[],"categories_sizes":[],"default_left":[0],"id":88,"left_children":[-1],"loss_changes":[0E0],"parents":[2147483647],"right_children":[-1],"split_conditions":[-8.189758E-3],"split_indices":[0],"split_type":[0],"sum_hessian":[1.8058841E0],"tree_param":{"num_deleted":"0","num_feature":"53","num_nodes":"1","size_leaf_vector":"0"}},{"base_weights":[2.4987918E-1,6.276429E-1,-1.01812445E-1],"categories":[],"categories_nodes":[],"categories_segments":[],"categories_sizes":[],"default_left":[1,0,0],"id":89,"left_children":[1,-1,-1],"loss_changes":[5.7855403E-1,0E0,0E0],"parents":[2147483647,0,0],"right_children":[2,-1,-1],"split_conditions":[6.1397903E-2,5.1780544E-2,-8.399527E-3],"split_indices":[21,0,0],"split_type":[0,0,0],"sum_hessian":[2.8737488E0,1.0072201E0,1.8665287E0],"tree_param":{"num_deleted":"0","num_feature":"53","num_nodes":"3","size_leaf_vector":"0"}},{"base_weights":[4.597937E-2,3.9737314E-1,-5.437327E-1,-1.0648527E-1,7.021391E-1],"categories":[],"categories_nodes":[],"categories_segments":[],"categories_sizes":[],"default_left":[1,1,0,0,0],"id":90,"left_children":[1,3,-1,-1,-1],"loss_changes":[1.107756E0,5.775415E-1,0E0,0E0,0E0],"parents":[2147483647,0,0,1,1],"right_children":[2,4,-1,-1,-1],"split_conditions":[4.878132E-1,-3.7732005E-2,-4.485795E-2,-8.785035E-3,5.7926476E-2],"split_indices":[4,14,0,0,0],"split_type":[0,0,0,0,0],"sum_hessian":[3.30309E0,2.274145E0,1.0289452E0,1.1023197E0,1.1718252E0],"tree_param":{"num_deleted":"0","num_feature":"53","num_nodes":"5","size_leaf_vector":"0"}},{"base_weights":[5.018314E-3,-5.8117235E-1,3.8822007E-1,5.413815E-2,5.2989E-1],"categories":[],"categories_nodes":[],"categories_segments":[],"categories_sizes":[],"default_left":[1,0,1,0,0],"id":91,"left_children":[1,-1,3,-1,-1],"loss_changes":[1.1385835E0,0E0,1.1600807E-1,0E0,0E0],"parents":[2147483647,0,0,2,2],"right_children":[2,-1,4,-1,-1],"split_conditions":[-3.6882526E-1,-4.794672E-2,-1.919946E-2,4.4663977E-3,4.3715928E-2],"split_indices":[36,0,9,0,0],"split_type":[0,0,0,0,0],"sum_hessian":[3.0643003E0,1.0070995E0,2.0572007E0,1.0241716E0,1.0330291E0],"tree_param":{"num_deleted":"0","num_feature":"53","num_nodes":"5","size_leaf_vector":"0"}},{"base_weights":[-4.571666E-2,2.7691254E-1,-5.7068586E-1,-3.238612E-1,6.5269125E-1],"categories":[],"categories_nodes":[],"categories_segments":[],"categories_sizes":[],"default_left":[1,1,0,0,0],"id":92,"left_children":[1,3,-1,-1,-1],"loss_changes":[9.3393946E-1,1.0039444E0,0E0,0E0,0E0],"parents":[2147483647,0,0,1,1],"right_children":[2,4,-1,-1,-1],"split_conditions":[2.7019638E-1,-3.227117E-2,-4.7081586E-2,-2.6718551E-2,5.384703E-2],"split_indices":[39,34,0,0,0],"split_type":[0,0,0,0,0],"sum_hessian":[3.5811398E0,2.5106757E0,1.070464E0,1.0192754E0,1.4914004E0],"tree_param":{"num_deleted":"0","num_feature":"53","num_nodes":"5","size_leaf_vector":"0"}},{"base_weights":[2.4364436E-2,-3.545045E-1,3.983772E-1],"categories":[],"categories_nodes":[],"categories_segments":[],"categories_sizes":[],"default_left":[1,0,0],"id":93,"left_children":[1,-1,-1],"loss_changes":[6.2596905E-1,0E0,0E0],"parents":[2147483647,0,0],"right_children":[2,-1,-1],"split_conditions":[-2.4411518E-2,-2.9246623E-2,3.286612E-2],"split_indices":[0,0,0],"split_type":[0,0,0],"sum_hessian":[2.4208634E0,1.2285358E0,1.1923276E0],"tree_param":{"num_deleted":"0","num_feature":"53","num_nodes":"3","size_leaf_vector":"0"}},{"base_weights":[1.0367842E-1,4.265074E-1,-3.4721807E-1],"categories":[],"categories_nodes":[],"categories_segments":[],"categories_sizes":[],"default_left":[1,0,0],"id":94,"left_children":[1,-1,-1],"loss_changes":[7.101904E-1,0E0,0E0],"parents":[2147483647,0,0],"right_children":[2,-1,-1],"split_conditions":[9.5818594E-2,3.5186864E-2,-2.8645491E-2],"split_indices":[21,0,0],"split_type":[0,0,0],"sum_hessian":[2.861568E0,1.6991297E0,1.1624382E0],"tree_param":{"num_deleted":"0","num_feature":"53","num_nodes":"3","size_leaf_vector":"0"}},{"base_weights":[-3.8686227E-2,-4.449626E-1,3.5685152E-1],"categories":[],"categories_nodes":[],"categories_segments":[],"categories_sizes":[],"default_left":[1,0,0],"id":95,"left_children":[1,-1,-1],"loss_changes":[7.71856E-1,0E0,0E0],"parents":[2147483647,0,0],"right_children":[2,-1,-1],"split_conditions":[2.6157397E-1,-3.6709417E-2,2.9440252E-2],"split_indices":[34,0,0],"split_type":[0,0,0],"sum_hessian":[2.8150556E0,1.3270357E0,1.48802E0],"tree_param":{"num_deleted":"0","num_feature":"53","num_nodes":"3","size_leaf_vector":"0"}},{"base_weights":[2.013932E-1,6.320304E-1,-2.713148E-1],"categories":[],"categories_nodes":[],"categories_segments":[],"categories_sizes":[],"default_left":[1,0,0],"id":96,"left_children":[1,-1,-1],"loss_changes":[9.194132E-1,0E0,0E0],"parents":[2147483647,0,0],"right_children":[2,-1,-1],"split_conditions":[1.3994828E-1,5.2142512E-2,-2.2383472E-2],"split_indices":[49,0,0],"split_type":[0,0,0],"sum_hessian":[2.6741655E0,1.2229843E0,1.4511812E0],"tree_param":{"num_deleted":"0","num_feature":"53","num_nodes":"3","size_leaf_vector":"0"}},{"base_weights":[6.3391626E-2,-3.754303E-1,5.7223415E-1],"categories":[],"categories_nodes":[],"categories_segments":[],"categories_sizes":[],"default_left":[1,0,0],"id":97,"left_children":[1,-1,-1],"loss_changes":[1.0090059E0,0E0,0E0],"parents":[2147483647,0,0],"right_children":[2,-1,-1],"split_conditions":[-2.474302E-2,-3.0973E-2,4.720932E-2],"split_indices":[26,0,0],"split_type":[0,0,0],"sum_hessian":[2.5566642E0,1.513565E0,1.0430993E0],"tree_param":{"num_deleted":"0","num_feature":"53","num_nodes":"3","size_leaf_vector":"0"}},{"base_weights":[2.2337368E-1,-1.2979957E-1,4.880144E-1],"categories":[],"categories_nodes":[],"categories_segments":[],"categories_sizes":[],"default_left":[1,0,0],"id":98,"left_children":[1,-1,-1],"loss_changes":[4.1856366E-1,0E0,0E0],"parents":[2147483647,0,0],"right_children":[2,-1,-1],"split_conditions":[-1.12757035E-1,-1.0708465E-2,4.026119E-2],"split_indices":[36,0,0],"split_type":[0,0,0],"sum_hessian":[2.8006027E0,1.4178938E0,1.3827089E0],"tree_param":{"num_deleted":"0","num_feature":"53","num_nodes":"3","size_leaf_vector":"0"}},{"base_weights":[-1.5364446E-1,4.1601592E-1,-6.492716E-1],"categories":[],"categories_nodes":[],"categories_segments":[],"categories_sizes":[],"default_left":[1,0,0],"id":99,"left_children":[1,-1,-1],"loss_changes":[1.3504196E0,0E0,0E0],"parents":[2147483647,0,0],"right_children":[2,-1,-1],"split_conditions":[1.504722E-1,3.4321316E-2,-5.356491E-2],"split_indices":[49,0,0],"split_type":[0,0,0],"sum_hessian":[2.826293E0,1.3896706E0,1.4366224E0],"tree_param":{"num_deleted":"0","num_feature":"53","num_nodes":"3","size_leaf_vector":"0"}},{"base_weights":[1.556488E-1,5.2499765E-1,-1.9327167E-1],"categories":[],"categories_nodes":[],"categories_segments":[],"categories_sizes":[],"default_left":[1,0,0],"id":100,"left_children":[1,-1,-1],"loss_changes":[6.2191355E-1,0E0,0E0],"parents":[2147483647,0,0],"right_children":[2,-1,-1],"split_conditions":[4.468396E-2,4.3312307E-2,-1.5944913E-2],"split_indices":[46,0,0],"split_type":[0,0,0],"sum_hessian":[3.038432E0,1.2308667E0,1.8075651E0],"tree_param":{"num_deleted":"0","num_feature":"53","num_nodes":"3","size_leaf_vector":"0"}},{"base_weights":[8.141049E-2,-1.7554669E-1,3.1112534E-1],"categories":[],"categories_nodes":[],"categories_segments":[],"categories_sizes":[],"default_left":[1,0,0],"id":101,"left_children":[1,-1,-1],"loss_changes":[2.3998234E-1,0E0,0E0],"parents":[2147483647,0,0],"right_children":[2,-1,-1],"split_conditions":[-3.3899788E-2,-1.44826025E-2,2.566784E-2],"split_indices":[3,0,0],"split_type":[0,0,0],"sum_hessian":[2.1403544E0,1.1215752E0,1.018779E0],"tree_param":{"num_deleted":"0","num_feature":"53","num_nodes":"3","size_leaf_vector":"0"}},{"base_weights":[3.5758972E-2,3.7595305E-1,-3.0167553E-1],"categories":[],"categories_nodes":[],"categories_segments":[],"categories_sizes":[],"default_left":[1,0,0],"id":102,"left_children":[1,-1,-1],"loss_changes":[5.3950006E-1,0E0,0E0],"parents":[2147483647,0,0],"right_children":[2,-1,-1],"split_conditions":[9.3461536E-2,3.1016128E-2,-2.4888232E-2],"split_indices":[49,0,0],"split_type":[0,0,0],"sum_hessian":[2.711755E0,1.2935127E0,1.4182425E0],"tree_param":{"num_deleted":"0","num_feature":"53","num_nodes":"3","size_leaf_vector":"0"}},{"base_weights":[2.3492132E-1,5.759645E-1,-1.5130913E-1],"categories":[],"categories_nodes":[],"categories_segments":[],"categories_sizes":[],"default_left":[1,0,0],"id":103,"left_children":[1,-1,-1],"loss_changes":[6.068772E-1,0E0,0E0],"parents":[2147483647,0,0],"right_children":[2,-1,-1],"split_conditions":[1.9900432E-1,4.7517072E-2,-1.2483004E-2],"split_indices":[0,0,0],"split_type":[0,0,0],"sum_hessian":[2.9456692E0,1.3034613E0,1.6422077E0],"tree_param":{"num_deleted":"0","num_feature":"53","num_nodes":"3","size_leaf_vector":"0"}},{"base_weights":[2.2322188E-1,5.704108E-1,-2.2103812E-1],"categories":[],"categories_nodes":[],"categories_segments":[],"categories_sizes":[],"default_left":[1,0,0],"id":104,"left_children":[1,-1,-1],"loss_changes":[6.0376847E-1,0E0,0E0],"parents":[2147483647,0,0],"right_children":[2,-1,-1],"split_conditions":[1.8822327E-1,4.705889E-2,-1.8235646E-2],"split_indices":[49,0,0],"split_type":[0,0,0],"sum_hessian":[2.0969872E0,1.017699E0,1.0792882E0],"tree_param":{"num_deleted":"0","num_feature":"53","num_nodes":"3","size_leaf_vector":"0"}},{"base_weights":[6.0315438E-2,5.8839715E-1,-4.7659004E-1],"categories":[],"categories_nodes":[],"categories_segments":[],"categories_sizes":[],"default_left":[1,0,0],"id":105,"left_children":[1,-1,-1],"loss_changes":[1.207046E0,0E0,0E0],"parents":[2147483647,0,0],"right_children":[2,-1,-1],"split_conditions":[1.8822327E-1,4.8542768E-2,-3.931868E-2],"split_indices":[49,0,0],"split_type":[0,0,0],"sum_hessian":[2.2681618E0,1.0951276E0,1.1730343E0],"tree_param":{"num_deleted":"0","num_feature":"53","num_nodes":"3","size_leaf_vector":"0"}},{"base_weights":[-7.5088784E-2,3.8309714E-1,-4.821401E-1],"categories":[],"categories_nodes":[],"categories_segments":[],"categories_sizes":[],"default_left":[1,0,0],"id":106,"left_children":[1,-1,-1],"loss_changes":[7.642144E-1,0E0,0E0],"parents":[2147483647,0,0],"right_children":[2,-1,-1],"split_conditions":[1.3104992E-1,3.1605516E-2,-3.977656E-2],"split_indices":[12,0,0],"split_type":[0,0,0],"sum_hessian":[2.1071947E0,1.0190159E0,1.0881788E0],"tree_param":{"num_deleted":"0","num_feature":"53","num_nodes":"3","size_leaf_vector":"0"}},{"base_weights":[7.782075E-2,6.2519187E-1,-4.5024726E-1],"categories":[],"categories_nodes":[],"categories_segments":[],"categories_sizes":[],"default_left":[1,0,0],"id":107,"left_children":[1,-1,-1],"loss_changes":[1.265319E0,0E0,0E0],"parents":[2147483647,0,0],"right_children":[2,-1,-1],"split_conditions":[-1.6447024E-2,5.157833E-2,-3.71454E-2],"split_indices":[50,0,0],"split_type":[0,0,0],"sum_hessian":[2.4036703E0,1.0899525E0,1.3137177E0],"tree_param":{"num_deleted":"0","num_feature":"53","num_nodes":"3","size_leaf_vector":"0"}},{"base_weights":[1.5320784E-1,4.8029038E-1,-2.0047459E-1],"categories":[],"categories_nodes":[],"categories_segments":[],"categories_sizes":[],"default_left":[1,0,0],"id":108,"left_children":[1,-1,-1],"loss_changes":[4.9763286E-1,0E0,0E0],"parents":[2147483647,0,0],"right_children":[2,-1,-1],"split_conditions":[1.4368652E-1,3.9623957E-2,-1.6539155E-2],"split_indices":[7,0,0],"split_type":[0,0,0],"sum_hessian":[2.469357E0,1.0969428E0,1.3724142E0],"tree_param":{"num_deleted":"0","num_feature":"53","num_nodes":"3","size_leaf_vector":"0"}},{"base_weights":[-9.4711E-2,-5.2960485E-1,3.1563488E-1],"categories":[],"categories_nodes":[],"categories_segments":[],"categories_sizes":[],"default_left":[1,0,0],"id":109,"left_children":[1,-1,-1],"loss_changes":[7.6637435E-1,0E0,0E0],"parents":[2147483647,0,0],"right_children":[2,-1,-1],"split_conditions":[-9.1992915E-2,-4.3692403E-2,2.6039878E-2],"split_indices":[26,0,0],"split_type":[0,0,0],"sum_hessian":[2.3577437E0,1.0035393E0,1.3542043E0],"tree_param":{"num_deleted":"0","num_feature":"53","num_nodes":"3","size_leaf_vector":"0"}}]},"name":"gbtree"},"learner_model_param":{"base_score":"5E-1","boost_from_average":"1","num_class":"0","num_feature":"53","num_target":"1"},"objective":{"name":"binary:logistic","reg_loss_param":{"scale_pos_weight":"1"}}},"version":[1,7,7]}
