{"learner":{"attributes":{"niter":"209"},"feature_names":[],"feature_types":[],"gradient_booster":{"model":{"gbtree_model_param":{"num_parallel_tree":"1","num_trees":"210","size_leaf_vector":"0"},"tree_info":[0,0,0,0,0,0,0,0,0,0,0,0,0,0,0,0,0,0,0,0,0,0,0,0,0,0,0,0,0,0,0,0,0,0,0,0,0,0,0,0,0,0,0,0,0,0,0,0,0,0,0,0,0,0,0,0,0,0,0,0,0,0,0,0,0,0,0,0,0,0,0,0,0,0,0,0,0,0,0,0,0,0,0,0,0,0,0,0,0,0,0,0,0,0,0,0,0,0,0,0,0,0,0,0,0,0,0,0,0,0,0,0,0,0,0,0,0,0,0,0,0,0,0,0,0,0,0,0,0,0,0,0,0,0,0,0,0,0,0,0,0,0,0,0,0,0,0,0,0,0,0,0,0,0,0,0,0,0,0,0,0,0,0,0,0,0,0,0,0,0,0,0,0,0,0,0,0,0,0,0,0,0,0,0,0,0,0,0,0,0,0,0,0,0,0,0,0,0,0,0,0,0,0,0,0,0,0,0,0,0],"trees":[{"base_weights":[-1.5384616E-1,-1.1428572E0,1.904762E-1,4.864865E-1,-1.1111112E0,-6.666667E-1,7.5E-1],"categories":[],"categories_nodes":[],"categories_segments":[],"categories_sizes":[],"default_left":[1,0,1,1,0,0,0],"id":0,"left_children":[1,-1,3,5,-1,-1,-1],"loss_changes":[4.6446886E0,0E0,4.5860143E0,3.3108108E0,0E0,0E0,0E0],"parents":[2147483647,0,0,2,2,3,3],"right_children":[2,-1,4,6,-1,-1,-1],"split_conditions":[-2.1834701E-1,-1.1428571E-2,2.2450796E-1,-4.7193223E-1,-1.1111111E-2,-6.666667E-3,7.5E-3],"split_indices":[50,0,42,4,0,0,0],"split_type":[0,0,0,0,0,0,0],"sum_hessian":[1.2E1,2.5E0,9.5E0,8.25E0,1.25E0,1.25E0,7E0],"tree_param":{"num_deleted":"0","num_feature":"53","num_nodes":"7","size_leaf_vector":"0"}},{"base_weights":[5.420666E-4,-1.1960042E0,2.7243632E-1,1.4621259E0,-3.0135986E-1,-1.1080467E0,5.263141E-1],"categories":[],"categories_nodes":[],"categories_segments":[],"categories_sizes":[],"default_left":[1,0,1,0,1,0,0],"id":1,"left_children":[1,-1,3,-1,5,-1,-1],"loss_changes":[4.3924356E0,0E0,7.949525E0,0E0,6.091381E0,0E0,0E0],"parents":[2147483647,0,0,2,2,4,4],"right_children":[2,-1,4,-1,6,-1,-1],"split_conditions":[-5.445983E-1,-1.1960042E-2,5.991058E-2,1.4621259E-2,1.6558626E-1,-1.1080466E-2,5.263141E-3],"split_indices":[12,0,35,0,51,0,0],"split_type":[0,0,0,0,0,0,0],"sum_hessian":[1.1499769E1,1.4999664E0,9.999804E0,2.749962E0,7.249841E0,3.4999201E0,3.749921E0],"tree_param":{"num_deleted":"0","num_feature":"53","num_nodes":"7","size_leaf_vector":"0"}},{"base_weights":[-5.3879735E-4,8.521353E-1,-7.167097E-1,7.3040207E-4,1.3758473E0,3.9726958E-1,-1.1521168E0,-1.424381E0,-2.165046E-1],"categories":[],"categories_nodes":[],"categories_segments":[],"categories_sizes":[],"default_left":[1,1,1,0,0,0,1,0,0],"id":2,"left_children":[1,3,5,-1,-1,-1,7,-1,-1],"loss_changes":[7.0222654E0,2.3398082E0,3.4889715E0,0E0,0E0,0E0,9.01536E-1,0E0,0E0],"parents":[2147483647,0,0,1,1,2,2,6,6],"right_children":[2,4,6,-1,-1,-1,8,-1,-1],"split_conditions":[-8.022104E-2,-3.486256E-1,-4.5376807E-1,7.3040205E-6,1.3758473E-2,3.9726957E-3,3.935418E-1,-1.42438095E-2,-2.165046E-3],"split_indices":[10,2,24,0,0,0,38,0,0],"split_type":[0,0,0,0,0,0,0,0,0],"sum_hessian":[9.499341E0,4.2497425E0,5.249599E0,1.9998907E0,2.2498517E0,1.4998517E0,3.749747E0,2.499875E0,1.2498721E0],"tree_param":{"num_deleted":"0","num_feature":"53","num_nodes":"9","size_leaf_vector":"0"}},{"base_weights":[1.212756E-1,9.461714E-1,-5.273263E-1,-7.55523E-3,1.2845267E0,-1.3176321E0,-3.839604E-4,7.637037E-1,-7.6435107E-1],"categories":[],"categories_nodes":[],"categories_segments":[],"categories_sizes":[],"default_left":[1,1,1,0,0,0,1,0,0],"id":3,"left_children":[1,3,5,-1,-1,-1,7,-1,-1],"loss_changes":[7.0523305E0,1.8650503E0,3.1224992E0,0E0,0E0,0E0,3.79404E0,0E0,0E0],"parents":[2147483647,0,0,1,1,2,2,6,6],"right_children":[2,4,6,-1,-1,-1,8,-1,-1],"split_conditions":[-2.0701218E-1,-5.422512E-1,-2.1834701E-1,-7.55523E-5,1.2845267E-2,-1.317632E-2,1.9632527E-1,7.637037E-3,-7.6435106E-3],"split_indices":[0,23,50,0,0,0,35,0,0],"split_type":[0,0,0,0,0,0,0,0,0],"sum_hessian":[1.1248663E1,4.749471E0,6.4991918E0,1.4997568E0,3.2497141E0,1.9996307E0,4.4995613E0,2.2497756E0,2.2497857E0],"tree_param":{"num_deleted":"0","num_feature":"53","num_nodes":"9","size_leaf_vector":"0"}},{"base_weights":[1.8712768E-1,-1.1009772E0,4.8022792E-1,-3.136786E-1,1.0785763E0,5.379459E-1,-9.8980534E-1,1.2825619E0,2.1385829E-1],"categories":[],"categories_nodes":[],"categories_segments":[],"categories_sizes":[],"default_left":[1,0,1,1,1,0,0,0,0],"id":4,"left_children":[1,-1,3,5,7,-1,-1,-1,-1],"loss_changes":[4.492398E0,0E0,4.7318115E0,3.267282E0,6.957278E-1,0E0,0E0,0E0,0E0],"parents":[2147483647,0,0,2,2,3,3,4,4],"right_children":[2,-1,4,6,8,-1,-1,-1,-1],"split_conditions":[-5.445983E-1,-1.1009771E-2,-9.936488E-2,1.1477337E-1,4.4443294E-1,5.3794594E-3,-9.8980535E-3,1.28256185E-2,2.1385828E-3],"split_indices":[12,0,42,10,51,0,0,0,0],"split_type":[0,0,0,0,0,0,0,0,0],"sum_hessian":[9.498589E0,1.249782E0,8.248807E0,3.7495503E0,4.4992566E0,1.7498608E0,1.9996896E0,3.2494924E0,1.2497642E0],"tree_param":{"num_deleted":"0","num_feature":"53","num_nodes":"9","size_leaf_vector":"0"}},{"base_weights":[-2.9966313E-1,4.6559262E-1,-7.9536563E-1,-6.676728E-1,9.866831E-1,-1.1216979E0,1.7621133E-1,1.2593745E0,2.1482985E-1,-1.4944715E0,-1.7149438E-1],"categories":[],"categories_nodes":[],"categories_segments":[],"categories_sizes":[],"default_left":[1,1,1,0,1,1,0,0,0,0,0],"id":5,"left_children":[1,3,5,-1,7,9,-1,-1,-1,-1,-1],"loss_changes":[4.826774E0,3.7585328E0,2.5752292E0,0E0,5.712118E-1,1.7801394E0,0E0,0E0,0E0,0E0,0E0],"parents":[2147483647,0,0,1,1,2,2,4,4,5,5],"right_children":[2,4,6,-1,8,10,-1,-1,-1,-1,-1],"split_conditions":[-5.2527636E-2,-2.0218334E-1,1.6635695E-1,-6.676728E-3,4.597084E-1,-6.5008793E-3,1.7621132E-3,1.2593744E-2,2.1482983E-3,-1.4944715E-2,-1.7149438E-3],"split_indices":[2,48,50,0,19,1,0,0,0,0,0],"split_type":[0,0,0,0,0,0,0,0,0,0,0],"sum_hessian":[1.0747951E1,4.249067E0,6.498884E0,1.2497708E0,2.9992962E0,4.7492113E0,1.7496729E0,1.7495613E0,1.2497349E0,2.9996352E0,1.7495759E0],"tree_param":{"num_deleted":"0","num_feature":"53","num_nodes":"11","size_leaf_vector":"0"}},{"base_weights":[4.1723517E-3,8.466535E-1,-5.018308E-1,-2.209762E-1,1.2355202E0,5.7042974E-1,-1.022055E0,-1.553473E0,3.9624512E-1],"categories":[],"categories_nodes":[],"categories_segments":[],"categories_sizes":[],"default_left":[1,1,1,0,0,0,1,0,0],"id":6,"left_children":[1,3,5,-1,-1,-1,7,-1,-1],"loss_changes":[5.9652715E0,2.4522007E0,5.462553E0,0E0,0E0,0E0,5.324867E0,0E0,0E0],"parents":[2147483647,0,0,1,1,2,2,6,6],"right_children":[2,4,6,-1,-1,-1,8,-1,-1],"split_conditions":[-1.4934367E-1,-2.4648395E-1,-1.5746394E-1,-2.2097619E-3,1.2355202E-2,5.704297E-3,3.087321E-1,-1.553473E-2,3.962451E-3],"split_indices":[0,42,42,0,0,0,37,0,0],"split_type":[0,0,0,0,0,0,0,0,0],"sum_hessian":[1.1996525E1,4.24894E0,7.7475843E0,1.2496852E0,2.999255E0,2.499412E0,5.2481723E0,3.7483938E0,1.4997787E0],"tree_param":{"num_deleted":"0","num_feature":"53","num_nodes":"9","size_leaf_vector":"0"}},{"base_weights":[8.0638036E-2,-1.029924E0,6.107072E-1,-3.786966E-1,-1.2472578E0,1.3592923E0,1.424874E-1,-7.515549E-1,1.1234958E0],"categories":[],"categories_nodes":[],"categories_segments":[],"categories_sizes":[],"default_left":[1,1,1,0,0,0,1,0,0],"id":7,"left_children":[1,3,5,-1,-1,-1,7,-1,-1],"loss_changes":[7.690354E0,1.2887573E-1,2.87236E0,0E0,0E0,0E0,6.544094E0,0E0,0E0],"parents":[2147483647,0,0,1,1,2,2,6,6],"right_children":[2,4,6,-1,-1,-1,8,-1,-1],"split_conditions":[-2.1834701E-1,2.779634E-1,-3.5669625E-1,-3.7869657E-3,-1.2472578E-2,1.3592922E-2,4.9677768E-1,-7.5155487E-3,1.1234958E-2],"split_indices":[50,31,45,0,0,0,29,0,0],"split_type":[0,0,0,0,0,0,0,0,0],"sum_hessian":[1.0995371E1,3.2478063E0,7.7475643E0,1.4989022E0,1.7489041E0,2.2489152E0,5.498649E0,2.999212E0,2.4994373E0],"tree_param":{"num_deleted":"0","num_feature":"53","num_nodes":"9","size_leaf_vector":"0"}},{"base_weights":[-9.5765024E-2,8.8819957E-1,-4.1219968E-1,-8.919981E-1,4.0136638E-1,-1.3119934E0,-2.770905E-1,1.1869076E0,-6.5011024E-1],"categories":[],"categories_nodes":[],"categories_segments":[],"categories_sizes":[],"default_left":[1,0,1,1,1,0,0,0,0],"id":8,"left_children":[1,-1,3,5,7,-1,-1,-1,-1],"loss_changes":[3.4785132E0,0E0,3.577107E0,1.056304E0,3.8681746E0,0E0,0E0,0E0,0E0],"parents":[2147483647,0,0,2,2,3,3,4,4],"right_children":[2,-1,4,6,8,-1,-1,-1,-1],"split_conditions":[-4.8756188E-1,8.881995E-3,8.3523914E-2,2.1607116E-1,3.609221E-1,-1.3119933E-2,-2.770905E-3,1.1869077E-2,-6.5011024E-3],"split_indices":[10,0,1,10,25,0,0,0,0],"split_type":[0,0,0,0,0,0,0,0,0],"sum_hessian":[8.996123E0,1.7494013E0,7.246722E0,4.4977694E0,2.7489529E0,1.9988607E0,2.4989085E0,1.4997289E0,1.249224E0],"tree_param":{"num_deleted":"0","num_feature":"53","num_nodes":"9","size_leaf_vector":"0"}},{"base_weights":[2.6676252E-1,1.2047654E0,-3.4394613E-1,1.4610108E0,2.1373531E-1,5.6569624E-1,-8.172303E-1,-2.1716036E-1,1.0967634E0,-1.5265025E0,7.860234E-1],"categories":[],"categories_nodes":[],"categories_segments":[],"categories_sizes":[],"default_left":[1,1,1,0,0,1,1,0,0,0,0],"id":9,"left_children":[1,3,5,-1,-1,7,9,-1,-1,-1,-1],"loss_changes":[7.7140427E0,1.0201898E0,4.119911E0,0E0,0E0,1.69267E0,8.019667E0,0E0,0E0,0E0,0E0],"parents":[2147483647,0,0,1,1,2,2,5,5,6,6],"right_children":[2,4,6,-1,-1,8,10,-1,-1,-1,-1],"split_conditions":[-5.2527636E-2,-6.349815E-2,-4.3319142E-1,1.4610108E-2,2.1373532E-3,-5.7001305E-1,2.611229E-1,-2.1716035E-3,1.0967634E-2,-1.5265024E-2,7.860234E-3],"split_indices":[2,0,39,0,0,36,32,0,0,0,0],"split_type":[0,0,0,0,0,0,0,0,0,0,0],"sum_hessian":[1.17428E1,4.2469964E0,7.495803E0,2.9976702E0,1.2493262E0,2.4984932E0,4.9973097E0,1.2487593E0,1.249734E0,3.4977798E0,1.49953E0],"tree_param":{"num_deleted":"0","num_feature":"53","num_nodes":"11","size_leaf_vector":"0"}},{"base_weights":[-3.6201197E-1,6.35417E-2,-9.915883E-1,1.0480007E0,-4.8038685E-1,-3.407923E-1,-1.3117319E0,-8.66958E-1,4.0752083E-1],"categories":[],"categories_nodes":[],"categories_segments":[],"categories_sizes":[],"default_left":[1,1,1,0,1,0,0,0,0],"id":10,"left_children":[1,3,5,-1,7,-1,-1,-1,-1],"loss_changes":[3.3428383E0,4.91806E0,5.9421444E-1,0E0,2.4113572E0,0E0,0E0,0E0,0E0],"parents":[2147483647,0,0,1,1,2,2,4,4],"right_children":[2,4,6,-1,8,-1,-1,-1,-1],"split_conditions":[1.6972691E-1,1.5201859E-2,-9.825909E-2,1.0480007E-2,1.2316735E-1,-3.4079228E-3,-1.3117319E-2,-8.66958E-3,4.075208E-3],"split_indices":[48,10,26,0,36,0,0,0,0],"split_type":[0,0,0,0,0,0,0,0,0],"sum_hessian":[1.1241899E1,7.24429E0,3.9976084E0,2.2483196E0,4.9959702E0,1.9988319E0,1.9987766E0,3.497045E0,1.4989251E0],"tree_param":{"num_deleted":"0","num_feature":"53","num_nodes":"9","size_leaf_vector":"0"}},{"base_weights":[-3.599615E-2,-1.0971059E0,3.2965732E-1,8.8579994E-1,-2.597099E-1,3.8674146E-1,1.2440957E0,-8.115531E-1,7.8261155E-1],"categories":[],"categories_nodes":[],"categories_segments":[],"categories_sizes":[],"default_left":[1,0,1,1,1,0,0,0,0],"id":11,"left_children":[1,-1,3,5,7,-1,-1,-1,-1],"loss_changes":[5.3047833E0,0E0,3.5877314E0,5.0182295E-1,3.9406176E0,0E0,0E0,0E0,0E0],"parents":[2147483647,0,0,2,2,3,3,4,4],"right_children":[2,-1,4,6,8,-1,-1,-1,-1],"split_conditions":[-2.1834701E-1,-1.0971058E-2,2.6323728E-2,3.299454E-2,4.7111213E-1,3.8674145E-3,1.2440956E-2,-8.115531E-3,7.826115E-3],"split_indices":[50,0,48,41,19,0,0,0,0],"split_type":[0,0,0,0,0,0,0,0,0],"sum_hessian":[1.1740036E1,2.4960923E0,9.243944E0,4.4972506E0,4.746693E0,2.7484355E0,1.7488151E0,3.2483146E0,1.4983786E0],"tree_param":{"num_deleted":"0","num_feature":"53","num_nodes":"9","size_leaf_vector":"0"}},{"base_weights":[1.163574E-1,1.083717E0,-3.9456123E-1,2.0403135E-1,1.3590598E0,7.800872E-1,-7.452985E-1,-1.0755868E0,1.8672034E-1],"categories":[],"categories_nodes":[],"categories_segments":[],"categories_sizes":[],"default_left":[1,1,1,0,0,0,1,0,0],"id":12,"left_children":[1,3,5,-1,-1,-1,7,-1,-1],"loss_changes":[6.4779963E0,8.121629E-1,4.1838245E0,0E0,0E0,0E0,2.4310336E0,0E0,0E0],"parents":[2147483647,0,0,1,1,2,2,6,6],"right_children":[2,4,6,-1,-1,-1,8,-1,-1],"split_conditions":[-2.0844546E-1,-6.4839023E-1,-3.4430528E-1,2.0403133E-3,1.3590598E-2,7.8008715E-3,1.3728376E-1,-1.0755868E-2,1.8672034E-3],"split_indices":[25,27,21,0,0,0,2,0,0],"split_type":[0,0,0,0,0,0,0,0,0],"sum_hessian":[1.1241782E1,3.4978786E0,7.743903E0,1.2488782E0,2.2490003E0,1.4991128E0,6.2447906E0,4.497079E0,1.7477117E0],"tree_param":{"num_deleted":"0","num_feature":"53","num_nodes":"9","size_leaf_vector":"0"}},{"base_weights":[2.0682977E-3,9.0403974E-1,-3.8465706E-1,2.0538464E-1,1.1706976E0,-8.9339346E-1,7.5074893E-1,1.838745E-1,-1.3291707E0],"categories":[],"categories_nodes":[],"categories_segments":[],"categories_sizes":[],"default_left":[1,1,1,0,0,1,0,0,0],"id":13,"left_children":[1,3,5,-1,-1,7,-1,-1,-1],"loss_changes":[4.355721E0,4.5755506E-1,5.721245E0,0E0,0E0,3.2933698E0,0E0,0E0,0E0],"parents":[2147483647,0,0,1,1,2,2,5,5],"right_children":[2,4,6,-1,-1,8,-1,-1,-1],"split_conditions":[-5.3808856E-1,-1.1268381E-2,5.7413477E-1,2.0538464E-3,1.1706975E-2,-1.7110842E-1,7.507489E-3,1.838745E-3,-1.3291706E-2],"split_indices":[47,26,52,0,0,37,0,0,0],"split_type":[0,0,0,0,0,0,0,0,0],"sum_hessian":[1.0490254E1,2.7465987E0,7.7436557E0,1.2477244E0,1.4988742E0,5.494783E0,2.2488728E0,1.749058E0,3.7457247E0],"tree_param":{"num_deleted":"0","num_feature":"53","num_nodes":"9","size_leaf_vector":"0"}},{"base_weights":[-1.791729E-1,8.049651E-1,-1.1335686E0,-1.6587369E-1,1.4311633E0,-1.506058E0,-1.0049608E-2],"categories":[],"categories_nodes":[],"categories_segments":[],"categories_sizes":[],"default_left":[1,1,1,0,0,0,0],"id":14,"left_children":[1,3,5,-1,-1,-1,-1],"loss_changes":[1.1233133E1,3.881681E0,2.4931726E0,0E0,0E0,0E0,0E0],"parents":[2147483647,0,0,1,1,2,2],"right_children":[2,4,6,-1,-1,-1,-1],"split_conditions":[-2.2750008E-1,-5.492184E-1,6.471156E-1,-1.6587368E-3,1.4311633E-2,-1.5060579E-2,-1.0049607E-4],"split_indices":[39,23,14,0,0,0,0],"split_type":[0,0,0,0,0,0,0],"sum_hessian":[9.988098E0,4.9945116E0,4.9935865E0,2.246585E0,2.747927E0,3.4945333E0,1.4990534E0],"tree_param":{"num_deleted":"0","num_feature":"53","num_nodes":"7","size_leaf_vector":"0"}},{"base_weights":[-1.6510615E-1,7.036719E-1,-8.240549E-1,-6.418872E-1,1.2504364E0,1.4785148E-1,-1.3156085E0],"categories":[],"categories_nodes":[],"categories_segments":[],"categories_sizes":[],"default_left":[1,1,1,0,0,0,0],"id":15,"left_children":[1,3,5,-1,-1,-1,-1],"loss_changes":[7.1543465E0,4.8437433E0,3.5345993E0,0E0,0E0,0E0,0E0],"parents":[2147483647,0,0,1,1,2,2],"right_children":[2,4,6,-1,-1,-1,-1],"split_conditions":[2.6924834E-2,-5.445983E-1,-4.4818056E-1,-6.4188717E-3,1.2504364E-2,1.4785148E-3,-1.3156084E-2],"split_indices":[35,12,10,0,0,0,0],"split_type":[0,0,0,0,0,0,0],"sum_hessian":[1.0484208E1,4.492841E0,5.991368E0,1.2478855E0,3.244955E0,2.2472637E0,3.7441041E0],"tree_param":{"num_deleted":"0","num_feature":"53","num_nodes":"7","size_leaf_vector":"0"}},{"base_weights":[4.9456947E-2,3.717571E-1,-1.1625665E0,-3.229584E-1,1.2641822E0,3.809049E-1,-1.0357994E0],"categories":[],"categories_nodes":[],"categories_segments":[],"categories_sizes":[],"default_left":[1,1,0,1,0,0,0],"id":16,"left_children":[1,3,-1,5,-1,-1,-1],"loss_changes":[4.6262507E0,6.1362257E0,0E0,3.400686E0,0E0,0E0,0E0],"parents":[2147483647,0,0,1,1,3,3],"right_children":[2,4,-1,6,-1,-1,-1],"split_conditions":[4.5381784E-1,1.459113E-1,-1.1625665E-2,-1.378665E-1,1.2641822E-2,3.809049E-3,-1.0357994E-2],"split_indices":[22,8,0,37,0,0,0],"split_type":[0,0,0,0,0,0,0],"sum_hessian":[9.736505E0,8.2389E0,1.4976048E0,4.991409E0,3.247491E0,2.7458215E0,2.2455876E0],"tree_param":{"num_deleted":"0","num_feature":"53","num_nodes":"7","size_leaf_vector":"0"}},{"base_weights":[2.0365007E-1,7.507423E-1,-6.323242E-1,-2.1692313E-1,1.0224361E0,3.8558713E-1,-1.2701871E0,1.9079052E-2,1.4184651E0],"categories":[],"categories_nodes":[],"categories_segments":[],"categories_sizes":[],"default_left":[1,1,1,0,1,0,0,0,0],"id":17,"left_children":[1,3,5,-1,7,-1,-1,-1,-1],"loss_changes":[5.041023E0,1.9285874E0,3.4064956E0,0E0,2.0566154E0,0E0,0E0,0E0,0E0],"parents":[2147483647,0,0,1,1,2,2,4,4],"right_children":[2,4,6,-1,8,-1,-1,-1,-1],"split_conditions":[3.1203306E-1,-4.1930056E-1,-5.7693906E-2,-2.1692312E-3,-1.788615E-1,3.8558713E-3,-1.2701871E-2,1.9079051E-4,1.4184651E-2],"split_indices":[48,48,2,0,50,0,0,0,0],"split_type":[0,0,0,0,0,0,0,0,0],"sum_hessian":[8.984169E0,5.491975E0,3.4921947E0,1.2481502E0,4.2438245E0,1.4976784E0,1.9945161E0,1.4976462E0,2.7461782E0],"tree_param":{"num_deleted":"0","num_feature":"53","num_nodes":"9","size_leaf_vector":"0"}},{"base_weights":[1.2994798E-1,1.1464236E0,-3.337373E-1,-8.6414516E-1,4.7827792E-1,2.1583362E-1,-1.2330844E0,1.0868138E0,-1.9383995E-1],"categories":[],"categories_nodes":[],"categories_segments":[],"categories_sizes":[],"default_left":[1,0,1,1,1,0,0,0,0],"id":18,"left_children":[1,-1,3,5,7,-1,-1,-1,-1],"loss_changes":[5.6757255E0,0E0,4.068539E0,2.4535375E0,1.8454478E0,0E0,0E0,0E0,0E0],"parents":[2147483647,0,0,2,2,3,3,4,4],"right_children":[2,-1,4,6,8,-1,-1,-1,-1],"split_conditions":[-4.7872052E-1,1.1464235E-2,2.2734036E-1,4.4947736E-2,5.534018E-1,2.158336E-3,-1.2330844E-2,1.0868138E-2,-1.9383995E-3],"split_indices":[14,0,37,35,17,0,0,0,0],"split_type":[0,0,0,0,0,0,0,0,0],"sum_hessian":[1.0230308E1,2.7435563E0,7.486751E0,4.489811E0,2.9969401E0,1.2489134E0,3.2408977E0,1.2490504E0,1.7478898E0],"tree_param":{"num_deleted":"0","num_feature":"53","num_nodes":"9","size_leaf_vector":"0"}},{"base_weights":[-2.278565E-1,8.780311E-1,-5.5884206E-1,-8.622038E-1,6.654479E-1,3.656301E-1,-1.2461997E0],"categories":[],"categories_nodes":[],"categories_segments":[],"categories_sizes":[],"default_left":[1,0,1,1,0,0,0],"id":19,"left_children":[1,-1,3,5,-1,-1,-1],"loss_changes":[4.235276E0,0E0,3.725009E0,3.8670378E0,0E0,0E0,0E0],"parents":[2147483647,0,0,2,2,3,3],"right_children":[2,-1,4,6,-1,-1,-1],"split_conditions":[-2.99084E-1,8.780311E-3,8.2351613E-1,-1.8359509E-1,6.6544786E-3,3.6563007E-3,-1.2461997E-2],"split_indices":[0,0,33,30,0,0,0],"split_type":[0,0,0,0,0,0,0],"sum_hessian":[9.230218E0,1.745473E0,7.4847445E0,6.235442E0,1.2493024E0,1.4969015E0,4.7385406E0],"tree_param":{"num_deleted":"0","num_feature":"53","num_nodes":"7","size_leaf_vector":"0"}},{"base_weights":[8.7005444E-2,-8.6161196E-1,4.6175727E-1,-1.1277108E0,-1.8245095E-1,1.39299E0,-1.461201E-1,-1.2444524E0,5.2067006E-1],"categories":[],"categories_nodes":[],"categories_segments":[],"categories_sizes":[],"default_left":[1,1,1,0,0,0,1,0,0],"id":20,"left_children":[1,3,5,-1,-1,-1,7,-1,-1],"loss_changes":[4.65408E0,4.7003603E-1,5.4302845E0,0E0,0E0,0E0,5.4021425E0,0E0,0E0],"parents":[2147483647,0,0,1,1,2,2,6,6],"right_children":[2,4,6,-1,-1,-1,8,-1,-1],"split_conditions":[-2.1834701E-1,-3.4910426E-1,2.4699342E-2,-1.12771075E-2,-1.8245095E-3,1.39299E-2,-6.8996646E-2,-1.2444523E-2,5.2067004E-3],"split_indices":[50,15,35,0,0,0,1,0,0],"split_type":[0,0,0,0,0,0,0,0,0],"sum_hessian":[1.0972632E1,2.739337E0,8.233295E0,1.4936641E0,1.2456727E0,2.7416632E0,5.4916325E0,1.7472467E0,3.7443857E0],"tree_param":{"num_deleted":"0","num_feature":"53","num_nodes":"9","size_leaf_vector":"0"}},{"base_weights":[-3.1244233E-2,-4.1726908E-1,8.3087957E-1,1.8998314E-1,-1.3165827E0,1.0808836E0,2.1111201E-1,-1.0520757E0,8.0273753E-1],"categories":[],"categories_nodes":[],"categories_segments":[],"categories_sizes":[],"default_left":[1,1,1,1,0,0,0,0,0],"id":21,"left_children":[1,3,5,7,-1,-1,-1,-1,-1],"loss_changes":[3.7496932E0,4.4707575E0,3.136177E-1,5.0207872E0,0E0,0E0,0E0,0E0,0E0],"parents":[2147483647,0,0,1,1,2,2,3,3],"right_children":[2,4,6,8,-1,-1,-1,-1,-1],"split_conditions":[5.086668E-1,1.3621049E-1,5.4515636E-1,-5.089579E-1,-1.3165827E-2,1.0808836E-2,2.11112E-3,-1.0520757E-2,8.027375E-3],"split_indices":[47,12,12,13,0,0,0,0,0],"split_type":[0,0,0,0,0,0,0,0,0],"sum_hessian":[9.225302E0,6.7285314E0,2.4967709E0,4.4872847E0,2.2412465E0,1.2489502E0,1.2478205E0,1.2455604E0,3.2417245E0],"tree_param":{"num_deleted":"0","num_feature":"53","num_nodes":"9","size_leaf_vector":"0"}},{"base_weights":[1.7096075E-1,1.1258813E0,-4.884026E-1,1.9172852E-1,1.3857319E0,-1.1268474E0,5.612674E-1,-1.3527513E0,-3.591774E-1,-2.1004638E-1,1.0825677E0],"categories":[],"categories_nodes":[],"categories_segments":[],"categories_sizes":[],"default_left":[1,1,1,0,0,1,1,0,0,0,0],"id":22,"left_children":[1,3,5,-1,-1,7,9,-1,-1,-1,-1],"loss_changes":[7.7695603E0,9.446306E-1,5.645441E0,0E0,0E0,3.7840033E-1,1.6333122E0,0E0,0E0,0E0,0E0],"parents":[2147483647,0,0,1,1,2,2,5,5,6,6],"right_children":[2,4,6,-1,-1,8,10,-1,-1,-1,-1],"split_conditions":[-2.1445656E-1,-6.059376E-1,4.87949E-1,1.9172851E-3,1.3857319E-2,4.2104936E-1,-2.4436155E-1,-1.3527513E-2,-3.591774E-3,-2.1004637E-3,1.0825677E-2],"split_indices":[25,47,24,0,0,31,41,0,0,0,0],"split_type":[0,0,0,0,0,0,0,0,0,0,0],"sum_hessian":[1.0466364E1,3.9860516E0,6.480313E0,1.2456889E0,2.7403626E0,3.983741E0,2.4965715E0,2.4891126E0,1.4946287E0,1.2476404E0,1.248931E0],"tree_param":{"num_deleted":"0","num_feature":"53","num_nodes":"11","size_leaf_vector":"0"}},{"base_weights":[1.5633993E-1,-5.816112E-1,6.835451E-1,6.366178E-1,-1.0623325E0,1.005381E0,-3.936816E-1,-2.2141258E-1,-1.3174192E0,1.2729981E0,2.0146401E-1],"categories":[],"categories_nodes":[],"categories_segments":[],"categories_sizes":[],"default_left":[1,1,1,0,1,1,0,0,0,0,0],"id":23,"left_children":[1,3,5,-1,7,9,-1,-1,-1,-1,-1],"loss_changes":[5.248995E0,4.0358396E0,3.0768478E0,0E0,6.710501E-1,1.0851016E0,0E0,0E0,0E0,0E0,0E0],"parents":[2147483647,0,0,1,1,2,2,4,4,5,5],"right_children":[2,4,6,-1,8,10,-1,-1,-1,-1,-1],"split_conditions":[-1.9463685E-1,-2.5532618E-1,6.135438E-1,6.3661775E-3,-3.2886225E-1,4.382136E-1,-3.9368155E-3,-2.2141258E-3,-1.3174191E-2,1.2729981E-2,2.01464E-3],"split_indices":[4,3,17,0,48,4,0,0,0,0,0],"split_type":[0,0,0,0,0,0,0,0,0,0,0],"sum_hessian":[1.1469905E1,4.7366376E0,6.733267E0,1.2484803E0,3.4881575E0,5.2357206E0,1.4975463E0,1.2466002E0,2.2415574E0,3.4903264E0,1.7453941E0],"tree_param":{"num_deleted":"0","num_feature":"53","num_nodes":"11","size_leaf_vector":"0"}},{"base_weights":[1.20316856E-1,8.074494E-1,-3.763973E-1,-1.3105764E-2,1.1386454E0,2.727834E-1,-1.309767E0,-4.5751163E-1,9.724893E-1],"categories":[],"categories_nodes":[],"categories_segments":[],"categories_sizes":[],"default_left":[1,1,1,0,0,1,0,0,0],"id":24,"left_children":[1,3,5,-1,-1,7,-1,-1,-1],"loss_changes":[4.302845E0,1.4373081E0,4.891157E0,0E0,0E0,3.122908E0,0E0,0E0,0E0],"parents":[2147483647,0,0,1,1,2,2,5,5],"right_children":[2,4,6,-1,-1,8,-1,-1,-1],"split_conditions":[-2.0834254E-2,-2.0034087E-1,6.1791345E-2,-1.3105763E-4,1.1386454E-2,-3.7350312E-1,-1.309767E-2,-4.575116E-3,9.724893E-3],"split_indices":[10,4,17,0,0,16,0,0,0],"split_type":[0,0,0,0,0,0,0,0,0],"sum_hessian":[1.0716449E1,4.23389E0,6.482559E0,1.4936712E0,2.7402189E0,4.240756E0,2.2418027E0,2.2443876E0,1.9963685E0],"tree_param":{"num_deleted":"0","num_feature":"53","num_nodes":"9","size_leaf_vector":"0"}},{"base_weights":[-9.0470575E-2,6.972047E-1,-4.7263822E-1,-2.2716562E-1,1.1993852E0,-1.3277471E0,9.327949E-2,6.41749E-1,-1.0458839E0],"categories":[],"categories_nodes":[],"categories_segments":[],"categories_sizes":[],"default_left":[1,1,1,0,0,0,1,0,0],"id":25,"left_children":[1,3,5,-1,-1,-1,7,-1,-1],"loss_changes":[3.6310642E0,2.1232162E0,3.9858894E0,0E0,0E0,0E0,4.25552E0,0E0,0E0],"parents":[2147483647,0,0,1,1,2,2,6,6],"right_children":[2,4,6,-1,-1,-1,8,-1,-1],"split_conditions":[-2.9455587E-1,-4.8035955E-1,4.5566104E-2,-2.2716562E-3,1.19938515E-2,-1.3277471E-2,1.1045082E-1,6.41749E-3,-1.0458839E-2],"split_indices":[6,19,33,0,0,0,9,0,0],"split_type":[0,0,0,0,0,0,0,0,0],"sum_hessian":[9.967692E0,2.9869757E0,6.9807167E0,1.2442708E0,1.7427047E0,2.2439284E0,4.7367883E0,3.4921043E0,1.244684E0],"tree_param":{"num_deleted":"0","num_feature":"53","num_nodes":"9","size_leaf_vector":"0"}},{"base_weights":[3.224344E-2,3.2189977E-1,-1.1909182E0,-1.0637451E0,5.948409E-1,9.159635E-1,-7.6582885E-1],"categories":[],"categories_nodes":[],"categories_segments":[],"categories_sizes":[],"default_left":[1,1,0,0,1,0,0],"id":26,"left_children":[1,3,-1,-1,5,-1,-1],"loss_changes":[5.061831E0,4.9683847E0,0E0,0E0,5.1664453E0,0E0,0E0],"parents":[2147483647,0,0,1,1,4,4],"right_children":[2,4,-1,-1,6,-1,-1],"split_conditions":[3.36448E-1,-5.445983E-1,-1.1909182E-2,-1.0637451E-2,5.6047964E-1,9.159635E-3,-7.6582883E-3],"split_indices":[42,12,0,0,0,0,0],"split_type":[0,0,0,0,0,0,0],"sum_hessian":[1.220497E1,1.0463859E1,1.7411118E0,1.2451649E0,9.218694E0,7.7228937E0,1.4957998E0],"tree_param":{"num_deleted":"0","num_feature":"53","num_nodes":"7","size_leaf_vector":"0"}},{"base_weights":[-3.31511E-1,1.3559242E-1,-9.4877553E-1,-6.583839E-1,6.9696766E-1,-1.20166E0,-2.1785435E-1,1.1273117E0,-1.2004102E-2],"categories":[],"categories_nodes":[],"categories_segments":[],"categories_sizes":[],"default_left":[1,1,1,0,1,0,0,0,0],"id":27,"left_children":[1,3,5,-1,7,-1,-1,-1,-1],"loss_changes":[2.7151163E0,3.1248899E0,4.7557878E-1,0E0,1.2308013E0,0E0,0E0,0E0,0E0],"parents":[2147483647,0,0,1,1,2,2,4,4],"right_children":[2,4,6,-1,8,-1,-1,-1,-1],"split_conditions":[2.346213E-1,-2.817061E-1,6.655574E-2,-6.5838387E-3,3.0969176E-1,-1.20166E-2,-2.1785435E-3,1.1273117E-2,-1.2004101E-4],"split_indices":[0,34,2,0,14,0,0,0,0],"split_type":[0,0,0,0,0,0,0,0,0],"sum_hessian":[7.9706306E0,4.98139E0,2.9892406E0,1.9916755E0,2.9897146E0,1.742377E0,1.2468636E0,1.4932501E0,1.4964646E0],"tree_param":{"num_deleted":"0","num_feature":"53","num_nodes":"9","size_leaf_vector":"0"}},{"base_weights":[-2.230008E-1,-1.2859532E0,2.094162E-1,7.3782545E-1,-4.2398676E-1,-2.3529606E-1,1.1254722E0,3.2002375E-1,-1.1459149E0],"categories":[],"categories_nodes":[],"categories_segments":[],"categories_sizes":[],"default_left":[1,0,1,1,1,0,0,0,0],"id":28,"left_children":[1,-1,3,5,7,-1,-1,-1,-1],"loss_changes":[5.189869E0,0E0,3.1475685E0,2.1443305E0,2.776874E0,0E0,0E0,0E0,0E0],"parents":[2147483647,0,0,2,2,3,3,4,4],"right_children":[2,-1,4,6,8,-1,-1,-1,-1],"split_conditions":[-1.8115577E-1,-1.2859532E-2,5.6854725E-2,-5.492184E-1,3.7404805E-2,-2.3529604E-3,1.1254721E-2,3.2002374E-3,-1.14591485E-2],"split_indices":[50,0,19,23,3,0,0,0,0],"split_type":[0,0,0,0,0,0,0,0,0],"sum_hessian":[9.705299E0,2.235702E0,7.469598E0,3.9824357E0,3.4871619E0,1.2464495E0,2.7359865E0,1.9914782E0,1.4956837E0],"tree_param":{"num_deleted":"0","num_feature":"53","num_nodes":"9","size_leaf_vector":"0"}},{"base_weights":[-1.7059353E-1,-1.2067448E0,4.1939408E-1,-6.432582E-1,9.013006E-1,1.2518027E0,-2.0022653E-1],"categories":[],"categories_nodes":[],"categories_segments":[],"categories_sizes":[],"default_left":[1,0,1,0,1,0,0],"id":29,"left_children":[1,-1,3,-1,5,-1,-1],"loss_changes":[7.2034993E0,0E0,4.534658E0,0E0,2.4628482E0,0E0,0E0],"parents":[2147483647,0,0,2,2,4,4],"right_children":[2,-1,4,-1,6,-1,-1],"split_conditions":[-1.788615E-1,-1.2067447E-2,-3.051149E-1,-6.432582E-3,2.9123795E-1,1.2518027E-2,-2.0022653E-3],"split_indices":[50,0,29,0,48,0,0],"split_type":[0,0,0,0,0,0,0],"sum_hessian":[9.955697E0,3.2327993E0,6.722898E0,1.9930978E0,4.7298E0,3.484591E0,1.2452091E0],"tree_param":{"num_deleted":"0","num_feature":"53","num_nodes":"7","size_leaf_vector":"0"}},{"base_weights":[1.264709E-1,4.7976702E-1,-7.9269654E-1,-7.5590223E-1,8.394452E-1,-1.8545102E-1,-1.0460088E0,1.0651852E0,-1.4694296E-2],"categories":[],"categories_nodes":[],"categories_segments":[],"categories_sizes":[],"default_left":[1,1,1,0,1,0,0,0,0],"id":30,"left_children":[1,3,5,-1,7,-1,-1,-1,-1],"loss_changes":[4.018123E0,4.507846E0,3.4244633E-1,0E0,1.4085274E0,0E0,0E0,0E0,0E0],"parents":[2147483647,0,0,1,1,2,2,4,4],"right_children":[2,4,6,-1,8,-1,-1,-1,-1],"split_conditions":[5.965556E-1,-4.960779E-1,5.741006E-1,-7.559022E-3,4.5365766E-1,-1.8545102E-3,-1.0460088E-2,1.0651852E-2,-1.4694296E-4],"split_indices":[31,12,46,0,16,0,0,0,0],"split_type":[0,0,0,0,0,0,0,0,0],"sum_hessian":[1.02022915E1,7.714967E0,2.4873242E0,1.4910111E0,6.2239556E0,1.2420235E0,1.2453008E0,4.727454E0,1.4965017E0],"tree_param":{"num_deleted":"0","num_feature":"53","num_nodes":"9","size_leaf_vector":"0"}},{"base_weights":[-5.4052775E-4,-1.0951691E0,3.637276E-1,9.2404443E-1,-7.233757E-2,-2.1416904E-1,1.3606657E0,-1.2318695E0,5.210617E-1],"categories":[],"categories_nodes":[],"categories_segments":[],"categories_sizes":[],"default_left":[1,0,1,1,1,0,0,0,0],"id":31,"left_children":[1,-1,3,5,7,-1,-1,-1,-1],"loss_changes":[5.9545302E0,0E0,2.8048215E0,2.7647367E0,5.615924E0,0E0,0E0,0E0,0E0],"parents":[2147483647,0,0,2,2,3,3,4,4],"right_children":[2,-1,4,6,8,-1,-1,-1,-1],"split_conditions":[-2.1834701E-1,-1.095169E-2,6.8012185E-2,-6.5039325E-1,-6.8996646E-2,-2.1416903E-3,1.3606656E-2,-1.2318694E-2,5.210617E-3],"split_indices":[50,0,35,31,1,0,0,0,0],"split_type":[0,0,0,0,0,0,0,0,0],"sum_hessian":[1.2934422E1,2.7285664E0,1.0205854E1,3.9768267E0,6.2290277E0,1.2438253E0,2.7330015E0,1.74441E0,4.4846177E0],"tree_param":{"num_deleted":"0","num_feature":"53","num_nodes":"9","size_leaf_vector":"0"}},{"base_weights":[5.9384156E-2,-1.2692571E0,4.742329E-1,-6.618912E-1,8.3084273E-1,1.1687642E0,-4.109215E-1],"categories":[],"categories_nodes":[],"categories_segments":[],"categories_sizes":[],"default_left":[1,0,1,0,1,0,0],"id":32,"left_children":[1,-1,3,-1,5,-1,-1],"loss_changes":[7.4561872E0,0E0,4.6843424E0,0E0,3.9254007E0,0E0,0E0],"parents":[2147483647,0,0,2,2,4,4],"right_children":[2,-1,4,-1,6,-1,-1],"split_conditions":[-1.8115577E-1,-1.2692571E-2,-4.1955942E-1,-6.618912E-3,5.3687185E-1,1.1687642E-2,-4.109215E-3],"split_indices":[50,0,4,0,13,0,0],"split_type":[0,0,0,0,0,0,0],"sum_hessian":[1.1435501E1,2.2309246E0,9.2045765E0,1.9944351E0,7.210141E0,5.7139816E0,1.4961597E0],"tree_param":{"num_deleted":"0","num_feature":"53","num_nodes":"7","size_leaf_vector":"0"}},{"base_weights":[7.437033E-2,3.0260438E-1,-1.0455631E0,8.5135156E-1,-4.3438444E-1,-2.1228382E-1,1.1452526E0,1.7764283E-2,-1.0433527E0],"categories":[],"categories_nodes":[],"categories_segments":[],"categories_sizes":[],"default_left":[1,1,0,1,1,0,0,0,0],"id":33,"left_children":[1,3,-1,5,7,-1,-1,-1,-1],"loss_changes":[3.367215E0,4.6932893E0,0E0,2.2643228E0,1.4571623E0,0E0,0E0,0E0,0E0],"parents":[2147483647,0,0,1,1,3,3,4,4],"right_children":[2,4,-1,6,8,-1,-1,-1,-1],"split_conditions":[4.5217678E-1,1.08265445E-1,-1.0455631E-2,-6.5039325E-1,3.5467947E-1,-2.122838E-3,1.1452526E-2,1.7764283E-4,-1.0433527E-2],"split_indices":[48,21,0,31,2,0,0,0,0],"split_type":[0,0,0,0,0,0,0,0,0],"sum_hessian":[1.0935602E1,9.690543E0,1.2450587E0,5.4657097E0,4.224834E0,1.2434253E0,4.2222843E0,2.9817576E0,1.2430762E0],"tree_param":{"num_deleted":"0","num_feature":"53","num_nodes":"9","size_leaf_vector":"0"}},{"base_weights":[-1.3663098E-1,5.6388015E-1,-9.77547E-1,-7.69778E-1,1.119519E0,-1.333286E0,-1.6897395E-1,1.3631935E0,2.1401155E-1],"categories":[],"categories_nodes":[],"categories_segments":[],"categories_sizes":[],"default_left":[1,1,1,0,1,0,0,0,0],"id":34,"left_children":[1,3,5,-1,7,-1,-1,-1,-1],"loss_changes":[6.852089E0,5.6558695E0,1.2781539E0,0E0,8.0582523E-1,0E0,0E0,0E0,0E0],"parents":[2147483647,0,0,1,1,2,2,4,4],"right_children":[2,4,6,-1,8,-1,-1,-1,-1],"split_conditions":[8.6886615E-2,-4.7193223E-1,6.9694924E-1,-7.69778E-3,9.032065E-2,-1.3332861E-2,-1.6897395E-3,1.3631935E-2,2.1401155E-3],"split_indices":[12,4,15,0,20,0,0,0,0],"split_type":[0,0,0,0,0,0,0,0,0],"sum_hessian":[9.6962805E0,5.4694724E0,4.226808E0,1.4952186E0,3.974254E0,2.4847033E0,1.7421046E0,2.7332752E0,1.2409786E0],"tree_param":{"num_deleted":"0","num_feature":"53","num_nodes":"9","size_leaf_vector":"0"}},{"base_weights":[4.045469E-2,1.0943176E0,-5.736297E-1,6.0788363E-1,-9.712677E-1,-1.3933067E0,2.0967011E-1],"categories":[],"categories_nodes":[],"categories_segments":[],"categories_sizes":[],"default_left":[1,0,1,0,1,0,0],"id":35,"left_children":[1,-1,3,-1,5,-1,-1],"loss_changes":[6.5770535E0,0E0,3.627531E0,0E0,2.8946128E0,0E0,0E0],"parents":[2147483647,0,0,2,2,4,4],"right_children":[2,-1,4,-1,6,-1,-1],"split_conditions":[-5.7693906E-2,1.0943175E-2,-2.6344228E-1,6.078836E-3,5.752572E-1,-1.3933067E-2,2.0967012E-3],"split_indices":[2,0,48,0,23,0,0],"split_type":[0,0,0,0,0,0,0],"sum_hessian":[8.192958E0,2.7284644E0,5.4644938E0,1.2428479E0,4.221646E0,2.9776676E0,1.2439783E0],"tree_param":{"num_deleted":"0","num_feature":"53","num_nodes":"7","size_leaf_vector":"0"}},{"base_weights":[2.869626E-4,5.504349E-1,-5.5021495E-1,1.1053056E0,-1.5044731E-1,3.7454504E-1,-9.0362006E-1,-7.9910743E-1,6.4081585E-1,-1.2593436E0,-1.5400517E-1],"categories":[],"categories_nodes":[],"categories_segments":[],"categories_sizes":[],"default_left":[1,1,1,0,1,0,1,0,0,0,0],"id":36,"left_children":[1,3,5,-1,7,-1,9,-1,-1,-1,-1],"loss_changes":[3.912192E0,2.6788177E0,2.4486856E0,0E0,2.4290588E0,0E0,1.12992E0,0E0,0E0,0E0,0E0],"parents":[2147483647,0,0,1,1,2,2,4,4,6,6],"right_children":[2,4,6,-1,8,-1,10,-1,-1,-1,-1],"split_conditions":[5.270669E-2,6.1753914E-2,-2.129473E-1,1.10530555E-2,-2.564962E-1,3.7454504E-3,1.1803813E-1,-7.991075E-3,6.408158E-3,-1.2593436E-2,-1.5400517E-3],"split_indices":[2,19,3,0,2,0,28,0,0,0,0],"split_type":[0,0,0,0,0,0,0,0,0,0,0],"sum_hessian":[1.0917602E1,5.460617E0,5.4569845E0,2.725716E0,2.734901E0,1.4922849E0,3.9646995E0,1.4974284E0,1.2374725E0,2.2276156E0,1.7370838E0],"tree_param":{"num_deleted":"0","num_feature":"53","num_nodes":"11","size_leaf_vector":"0"}},{"base_weights":[-1.3690096E-1,7.138615E-1,-7.058226E-1,-1.987412E-1,1.2676566E0,9.578806E-2,-1.380306E0,-1.0348599E0,9.136741E-1],"categories":[],"categories_nodes":[],"categories_segments":[],"categories_sizes":[],"default_left":[1,1,1,0,0,1,0,0,0],"id":37,"left_children":[1,3,5,-1,-1,7,-1,-1,-1],"loss_changes":[5.910027E0,2.7653458E0,4.023013E0,0E0,0E0,4.8510094E0,0E0,0E0,0E0],"parents":[2147483647,0,0,1,1,2,2,5,5],"right_children":[2,4,6,-1,-1,8,-1,-1,-1],"split_conditions":[-1.11134425E-1,-4.6183628E-1,4.1440807E-2,-1.9874119E-3,1.2676565E-2,-5.445983E-1,-1.380306E-2,-1.03485985E-2,9.136741E-3],"split_indices":[11,11,35,0,0,12,0,0,0],"split_type":[0,0,0,0,0,0,0,0,0],"sum_hessian":[1.0169371E1,3.9731617E0,6.1962085E0,1.742618E0,2.2305439E0,3.2233279E0,2.9728806E0,1.2416213E0,1.9817067E0],"tree_param":{"num_deleted":"0","num_feature":"53","num_nodes":"9","size_leaf_vector":"0"}},{"base_weights":[-2.354036E-1,-1.0629165E0,1.2506829E-1,6.3740104E-1,-4.927481E-1,-1.9682287E-1,1.0789425E0,-1.295407E0,7.476269E-1],"categories":[],"categories_nodes":[],"categories_segments":[],"categories_sizes":[],"default_left":[1,0,1,1,1,0,0,0,0],"id":38,"left_children":[1,-1,3,5,7,-1,-1,-1,-1],"loss_changes":[3.6854682E0,0E0,3.2231152E0,2.2235723E0,5.6779904E0,0E0,0E0,0E0,0E0],"parents":[2147483647,0,0,2,2,3,3,4,4],"right_children":[2,-1,4,6,8,-1,-1,-1,-1],"split_conditions":[-2.2451669E-1,-1.0629165E-2,1.8986128E-1,-5.492184E-1,6.0434294E-1,-1.9682287E-3,1.0789425E-2,-1.295407E-2,7.476269E-3],"split_indices":[50,0,35,23,7,0,0,0,0],"split_type":[0,0,0,0,0,0,0,0,0],"sum_hessian":[1.0909449E1,2.7189786E0,8.190471E0,4.4601393E0,3.7303312E0,1.7354721E0,2.724667E0,2.2378373E0,1.492494E0],"tree_param":{"num_deleted":"0","num_feature":"53","num_nodes":"9","size_leaf_vector":"0"}},{"base_weights":[4.9252577E-2,-2.774255E-1,1.2125875E0,7.353761E-1,-8.745738E-1,-2.3420388E-1,1.2176583E0,-1.2778276E0,1.7433728E-1],"categories":[],"categories_nodes":[],"categories_segments":[],"categories_sizes":[],"default_left":[1,1,0,1,1,0,0,0,0],"id":39,"left_children":[1,3,-1,5,7,-1,-1,-1,-1],"loss_changes":[4.7688365E0,6.642628E0,0E0,2.259731E0,3.0555687E0,0E0,0E0,0E0,0E0],"parents":[2147483647,0,0,1,1,3,3,4,4],"right_children":[2,4,-1,6,8,-1,-1,-1,-1],"split_conditions":[5.462092E-1,-3.6601758E-1,1.2125875E-2,-9.108343E-1,1.6357514E-1,-2.3420388E-3,1.2176583E-2,-1.2778276E-2,1.7433728E-3],"split_indices":[29,39,0,23,51,0,0,0,0],"split_type":[0,0,0,0,0,0,0,0,0],"sum_hessian":[1.0663194E1,8.919906E0,1.7432885E0,3.2226336E0,5.697272E0,1.2413692E0,1.9812645E0,3.95755E0,1.739722E0],"tree_param":{"num_deleted":"0","num_feature":"53","num_nodes":"9","size_leaf_vector":"0"}},{"base_weights":[-1.799974E-1,8.125508E-1,-9.9245745E-1,1.321329E0,-1.7467628E-1,1.863069E-1,-1.3087742E0],"categories":[],"categories_nodes":[],"categories_segments":[],"categories_sizes":[],"default_left":[1,1,1,0,0,0,0],"id":40,"left_children":[1,3,5,-1,-1,-1,-1],"loss_changes":[9.590683E0,2.9697237E0,2.6451178E0,0E0,0E0,0E0,0E0],"parents":[2147483647,0,0,1,1,2,2],"right_children":[2,4,6,-1,-1,-1,-1],"split_conditions":[-1.0478327E-1,-3.0395743E-3,-2.9754585E-1,1.321329E-2,-1.7467628E-3,1.8630689E-3,-1.3087742E-2],"split_indices":[10,0,37,0,0,0,0],"split_type":[0,0,0,0,0,0,0],"sum_hessian":[9.893102E0,4.4529767E0,5.4401255E0,2.7152293E0,1.7377476E0,1.2379347E0,4.202191E0],"tree_param":{"num_deleted":"0","num_feature":"53","num_nodes":"7","size_leaf_vector":"0"}},{"base_weights":[2.6824657E-4,-3.593331E-1,1.0177765E0,5.460266E-1,-1.4345663E0,-5.706309E-1,9.82892E-1],"categories":[],"categories_nodes":[],"categories_segments":[],"categories_sizes":[],"default_left":[1,1,0,1,0,0,0],"id":41,"left_children":[1,3,-1,5,-1,-1,-1],"loss_changes":[4.535413E0,9.699452E0,0E0,3.3398595E0,0E0,0E0,0E0],"parents":[2147483647,0,0,1,1,3,3],"right_children":[2,4,-1,6,-1,-1,-1],"split_conditions":[5.1059806E-1,-2.4035546E-1,1.0177765E-2,-1.8115577E-1,-1.4345663E-2,-5.706309E-3,9.82892E-3],"split_indices":[24,39,0,50,0,0,0],"split_type":[0,0,0,0,0,0,0],"sum_hessian":[1.0395799E1,8.159108E0,2.2366905E0,4.6966496E0,3.4624586E0,1.234638E0,3.4620116E0],"tree_param":{"num_deleted":"0","num_feature":"53","num_nodes":"7","size_leaf_vector":"0"}},{"base_weights":[-4.4969004E-2,5.1185876E-1,-7.136202E-1,-6.2881637E-1,1.0970813E0,-1.2387036E0,-2.4647916E-2,1.7353792E-1,1.3539727E0,1.0367346E0,-1.0738423E0],"categories":[],"categories_nodes":[],"categories_segments":[],"categories_sizes":[],"default_left":[1,1,1,0,1,0,1,0,0,0,0],"id":42,"left_children":[1,3,5,-1,7,-1,9,-1,-1,-1,-1],"loss_changes":[4.6995864E0,5.318695E0,2.0341442E0,0E0,9.38756E-1,0E0,4.9982705E0,0E0,0E0,0E0,0E0],"parents":[2147483647,0,0,1,1,2,2,4,4,6,6],"right_children":[2,4,6,-1,8,-1,10,-1,-1,-1,-1],"split_conditions":[1.3621049E-1,-4.1877714E-1,5.63812E-1,-6.2881634E-3,-5.6587946E-1,-1.2387035E-2,5.9142447E-1,1.7353792E-3,1.3539727E-2,1.0367346E-2,-1.0738423E-2],"split_indices":[12,4,14,0,36,0,6,0,0,0,0],"split_type":[0,0,0,0,0,0,0,0,0,0,0],"sum_hessian":[1.0641255E1,5.934072E0,4.707183E0,1.9868844E0,3.9471877E0,2.2185037E0,2.4886792E0,1.2236404E0,2.7235472E0,1.2430573E0,1.2456219E0],"tree_param":{"num_deleted":"0","num_feature":"53","num_nodes":"11","size_leaf_vector":"0"}},{"base_weights":[-1.4550114E-1,-6.583807E-1,3.7064672E-1,2.0492056E-1,-9.617321E-1,1.0155985E0,-4.3558863E-1,-1.2279658E0,-1.7502384E-1],"categories":[],"categories_nodes":[],"categories_segments":[],"categories_sizes":[],"default_left":[1,1,1,0,1,0,0,0,0],"id":43,"left_children":[1,3,5,-1,7,-1,-1,-1,-1],"loss_changes":[2.9319196E0,1.6251674E0,3.4065518E0,0E0,6.6703725E-1,0E0,0E0,0E0,0E0],"parents":[2147483647,0,0,1,1,2,2,4,4],"right_children":[2,4,6,-1,8,-1,-1,-1,-1],"split_conditions":[-1.1215653E-2,-2.867076E-1,2.7597395E-1,2.0492056E-3,-8.2429826E-2,1.0155985E-2,-4.355886E-3,-1.2279658E-2,-1.7502384E-3],"split_indices":[50,37,34,0,51,0,0,0,0],"split_type":[0,0,0,0,0,0,0,0,0],"sum_hessian":[9.153655E0,4.4531436E0,4.700512E0,1.2422705E0,3.2108731E0,2.4671907E0,2.233321E0,1.9799405E0,1.2309326E0],"tree_param":{"num_deleted":"0","num_feature":"53","num_nodes":"9","size_leaf_vector":"0"}},{"base_weights":[-3.0912543E-2,6.33104E-1,-7.201391E-1,-5.4005843E-1,1.2109259E0,2.3077466E-1,-1.0189472E0,-1.28433E0,-1.5115136E-1],"categories":[],"categories_nodes":[],"categories_segments":[],"categories_sizes":[],"default_left":[1,1,1,0,0,0,1,0,0],"id":44,"left_children":[1,3,5,-1,-1,-1,7,-1,-1],"loss_changes":[5.5509853E0,4.858387E0,1.9202714E0,0E0,0E0,0E0,8.8764E-1,0E0,0E0],"parents":[2147483647,0,0,1,1,2,2,6,6],"right_children":[2,4,6,-1,-1,-1,8,-1,-1],"split_conditions":[3.7247818E-2,-3.425038E-1,-1.796755E-1,-5.400584E-3,1.2109259E-2,2.3077466E-3,3.2448843E-1,-1.28433E-2,-1.5115136E-3],"split_indices":[10,9,3,0,0,0,21,0,0],"split_type":[0,0,0,0,0,0,0,0,0],"sum_hessian":[1.0132907E1,5.2023106E0,4.9305964E0,1.7383206E0,3.46399E0,1.2333432E0,3.6972532E0,2.4638014E0,1.233452E0],"tree_param":{"num_deleted":"0","num_feature":"53","num_nodes":"9","size_leaf_vector":"0"}},{"base_weights":[2.4364269E-1,9.5959693E-1,-3.5323972E-1,-2.3625718E-1,1.3683393E0,-8.931416E-1,6.614995E-1,-1.2759355E0,-1.3869847E-3],"categories":[],"categories_nodes":[],"categories_segments":[],"categories_sizes":[],"default_left":[1,1,1,0,0,1,0,0,0],"id":45,"left_children":[1,3,5,-1,-1,7,-1,-1,-1],"loss_changes":[5.198382E0,2.981861E0,4.3887177E0,0E0,0E0,1.6880548E0,0E0,0E0,0E0],"parents":[2147483647,0,0,1,1,2,2,5,5],"right_children":[2,4,6,-1,-1,8,-1,-1,-1],"split_conditions":[-2.2750008E-1,-6.295419E-1,4.2325595E-1,-2.3625717E-3,1.3683393E-2,3.1723896E-1,6.6149947E-3,-1.2759355E-2,-1.3869847E-5],"split_indices":[39,47,19,0,0,37,0,0,0],"split_type":[0,0,0,0,0,0,0,0,0],"sum_hessian":[1.0371295E1,4.439036E0,5.932259E0,1.2382597E0,3.200776E0,3.9502964E0,1.9819626E0,2.462452E0,1.4878445E0],"tree_param":{"num_deleted":"0","num_feature":"53","num_nodes":"9","size_leaf_vector":"0"}},{"base_weights":[-2.7965343E-1,6.86077E-1,-5.987405E-1,3.500911E-1,-1.0717933E0,-3.5992283E-1,9.841652E-1,-1.391962E0,-2.6096633E-1],"categories":[],"categories_nodes":[],"categories_segments":[],"categories_sizes":[],"default_left":[1,0,1,1,1,0,0,0,0],"id":46,"left_children":[1,-1,3,5,7,-1,-1,-1,-1],"loss_changes":[3.8409023E0,0E0,4.3703146E0,2.026731E0,1.2425761E0,0E0,0E0,0E0,0E0],"parents":[2147483647,0,0,2,2,3,3,4,4],"right_children":[2,-1,4,6,8,-1,-1,-1,-1],"split_conditions":[-3.5517886E-1,6.86077E-3,1.5030904E-2,-3.851049E-1,1.888118E-1,-3.599228E-3,9.841652E-3,-1.391962E-2,-2.6096632E-3],"split_indices":[21,0,35,33,32,0,0,0,0],"split_type":[0,0,0,0,0,0,0,0,0],"sum_hessian":[1.0131256E1,2.2304826E0,7.900774E0,2.7150202E0,5.185754E0,1.4847802E0,1.23024E0,3.2039149E0,1.9818391E0],"tree_param":{"num_deleted":"0","num_feature":"53","num_nodes":"9","size_leaf_vector":"0"}},{"base_weights":[1.4109145E-1,-9.192125E-1,5.531926E-1,8.5635215E-1,-5.990335E-1,9.806681E-2,1.2127635E0],"categories":[],"categories_nodes":[],"categories_segments":[],"categories_sizes":[],"default_left":[1,0,1,1,0,0,0],"id":47,"left_children":[1,-1,3,5,-1,-1,-1],"loss_changes":[4.9376597E0,0E0,3.2808135E0,1.6877141E0,0E0,0E0,0E0],"parents":[2147483647,0,0,2,2,3,3],"right_children":[2,-1,4,6,-1,-1,-1],"split_conditions":[-1.8115577E-1,-9.192125E-3,1.9755808E-1,-3.9460662E-1,-5.990335E-3,9.80668E-4,1.2127635E-2],"split_indices":[50,0,42,17,0,0,0],"split_type":[0,0,0,0,0,0,0],"sum_hessian":[9.136475E0,2.2127335E0,6.923741E0,5.6848083E0,1.2389323E0,2.2253664E0,3.4594421E0],"tree_param":{"num_deleted":"0","num_feature":"53","num_nodes":"7","size_leaf_vector":"0"}},{"base_weights":[-2.7088577E-1,-1.1160074E0,1.8153036E-1,8.8524777E-1,-3.6224747E-1,1.8076494E-1,1.1386917E0,-1.2397978E0,4.951466E-1],"categories":[],"categories_nodes":[],"categories_segments":[],"categories_sizes":[],"default_left":[1,0,1,1,1,0,0,0,0],"id":48,"left_children":[1,-1,3,5,7,-1,-1,-1,-1],"loss_changes":[4.64456E0,0E0,3.5454004E0,5.018649E-1,4.72452E0,0E0,0E0,0E0,0E0],"parents":[2147483647,0,0,2,2,3,3,4,4],"right_children":[2,-1,4,6,8,-1,-1,-1,-1],"split_conditions":[-1.8115577E-1,-1.1160074E-2,2.2964206E-2,-3.303965E-2,3.752014E-1,1.8076494E-3,1.1386916E-2,-1.2397978E-2,4.951466E-3],"split_indices":[50,0,28,9,7,0,0,0,0],"split_type":[0,0,0,0,0,0,0,0,0],"sum_hessian":[1.0617653E1,3.190663E0,7.4269896E0,2.9636686E0,4.463321E0,1.2373939E0,1.7262747E0,1.9853207E0,2.4780004E0],"tree_param":{"num_deleted":"0","num_feature":"53","num_nodes":"9","size_leaf_vector":"0"}},{"base_weights":[4.3215875E-2,4.3386972E-1,-8.684876E-1,-7.2053385E-1,7.513847E-1,-1.5991242E-1,-1.1326891E0,1.1350476E0,-1.2868327E-1],"categories":[],"categories_nodes":[],"categories_segments":[],"categories_sizes":[],"default_left":[1,1,1,0,1,0,0,0,0],"id":49,"left_children":[1,3,5,-1,7,-1,-1,-1,-1],"loss_changes":[4.6836114E0,3.888632E0,5.602703E-1,0E0,2.7296147E0,0E0,0E0,0E0,0E0],"parents":[2147483647,0,0,1,1,2,2,4,4],"right_children":[2,4,6,-1,8,-1,-1,-1,-1],"split_conditions":[1.8045749E-1,-5.3296703E-1,-3.506016E-2,-7.205338E-3,2.3595262E-1,-1.5991242E-3,-1.1326891E-2,1.1350475E-2,-1.2868326E-3],"split_indices":[42,12,2,0,48,0,0,0,0],"split_type":[0,0,0,0,0,0,0,0,0],"sum_hessian":[1.1092304E1,8.131967E0,2.9603379E0,1.4803822E0,6.6515846E0,1.2399964E0,1.7203414E0,4.4304266E0,2.221158E0],"tree_param":{"num_deleted":"0","num_feature":"53","num_nodes":"9","size_leaf_vector":"0"}},{"base_weights":[-3.0082572E-1,-1.3004526E0,1.7411111E-1,-4.569857E-1,6.5980434E-1,4.3678725E-1,-1.1792932E0,1.1244968E0,-3.511376E-1],"categories":[],"categories_nodes":[],"categories_segments":[],"categories_sizes":[],"default_left":[1,0,1,1,1,0,0,0,0],"id":50,"left_children":[1,-1,3,5,7,-1,-1,-1,-1],"loss_changes":[5.842204E0,0E0,3.029774E0,3.3955116E0,2.9499698E0,0E0,0E0,0E0,0E0],"parents":[2147483647,0,0,2,2,3,3,4,4],"right_children":[2,-1,4,6,8,-1,-1,-1,-1],"split_conditions":[-1.8115577E-1,-1.3004526E-2,-3.7822127E-1,-3.1249574E-1,2.4504913E-1,4.3678726E-3,-1.1792932E-2,1.1244968E-2,-3.511376E-3],"split_indices":[50,0,33,32,10,0,0,0,0],"split_type":[0,0,0,0,0,0,0,0,0],"sum_hessian":[1.0828682E1,2.9279332E0,7.900749E0,3.46175E0,4.438999E0,1.7239044E0,1.7378457E0,2.9641595E0,1.4748396E0],"tree_param":{"num_deleted":"0","num_feature":"53","num_nodes":"9","size_leaf_vector":"0"}},{"base_weights":[3.7243273E-2,8.255766E-1,-4.6515954E-1,1.4164747E-1,1.1751912E0,2.1495013E-1,-1.1168536E0,-5.95731E-1,1.0996372E0],"categories":[],"categories_nodes":[],"categories_segments":[],"categories_sizes":[],"default_left":[1,1,1,0,0,1,0,0,0],"id":51,"left_children":[1,3,5,-1,-1,7,-1,-1,-1],"loss_changes":[4.7791324E0,9.525244E-1,3.52758E0,0E0,0E0,3.8596153E0,0E0,0E0,0E0],"parents":[2147483647,0,0,1,1,2,2,5,5],"right_children":[2,4,6,-1,-1,8,-1,-1,-1],"split_conditions":[5.991058E-2,-1.2591813E-2,9.017517E-2,1.4164747E-3,1.1751912E-2,5.6304E-1,-1.1168536E-2,-5.95731E-3,1.09963715E-2],"split_indices":[35,20,38,0,0,36,0,0,0],"split_type":[0,0,0,0,0,0,0,0,0],"sum_hessian":[1.0097051E1,3.6797707E0,6.41728E0,1.7200661E0,1.9597045E0,3.4681141E0,2.949166E0,1.9801902E0,1.4879239E0],"tree_param":{"num_deleted":"0","num_feature":"53","num_nodes":"9","size_leaf_vector":"0"}},{"base_weights":[8.169239E-2,-8.3076614E-1,3.5953388E-1,1.1566525E0,2.9067457E-2,-3.3705458E-1,8.1412685E-1],"categories":[],"categories_nodes":[],"categories_segments":[],"categories_sizes":[],"default_left":[1,0,1,0,1,0,0],"id":52,"left_children":[1,-1,3,-1,5,-1,-1],"loss_changes":[3.17633E0,0E0,2.442332E0,0E0,2.4790697E0,0E0,0E0],"parents":[2147483647,0,0,2,2,4,4],"right_children":[2,-1,4,-1,6,-1,-1],"split_conditions":[-2.1834701E-1,-8.307661E-3,-4.4273347E-2,1.1566524E-2,5.4531187E-1,-3.3705458E-3,8.141268E-3],"split_indices":[50,0,50,0,29,0,0],"split_type":[0,0,0,0,0,0,0],"sum_hessian":[1.03508005E1,1.9515728E0,8.399227E0,1.7288955E0,6.670332E0,4.9380674E0,1.7322645E0],"tree_param":{"num_deleted":"0","num_feature":"53","num_nodes":"7","size_leaf_vector":"0"}},{"base_weights":[-1.751682E-1,5.2369636E-1,-6.8674034E-1,-1.9285852E-1,9.6523726E-1,5.678292E-1,-1.0944365E0,-1.9929866E-1,-1.323708E0],"categories":[],"categories_nodes":[],"categories_segments":[],"categories_sizes":[],"default_left":[1,1,1,0,0,0,1,0,0],"id":53,"left_children":[1,3,5,-1,-1,-1,7,-1,-1],"loss_changes":[4.0573673E0,1.7486489E0,3.897082E0,0E0,0E0,0E0,7.9826117E-1,0E0,0E0],"parents":[2147483647,0,0,1,1,2,2,6,6],"right_children":[2,4,6,-1,-1,-1,8,-1,-1],"split_conditions":[-1.7755965E-3,-3.9010528E-1,-6.620487E-1,-1.9285851E-3,9.652372E-3,5.678292E-3,-2.890107E-1,-1.9929865E-3,-1.3237081E-2],"split_indices":[10,33,33,0,0,0,20,0,0],"split_type":[0,0,0,0,0,0,0,0,0],"sum_hessian":[9.342714E0,3.938536E0,5.4041786E0,1.7163581E0,2.2221777E0,1.2291236E0,4.175055E0,1.2324615E0,2.9425936E0],"tree_param":{"num_deleted":"0","num_feature":"53","num_nodes":"9","size_leaf_vector":"0"}},{"base_weights":[1.6631772E-1,8.462353E-1,-4.2930347E-1,8.954357E-2,1.2242608E0,1.0464613E-1,-1.1001939E0,-5.0304425E-1,7.30224E-1],"categories":[],"categories_nodes":[],"categories_segments":[],"categories_sizes":[],"default_left":[1,1,1,0,0,1,0,0,0],"id":54,"left_children":[1,3,5,-1,-1,7,-1,-1,-1],"loss_changes":[4.3506093E0,1.3017869E0,2.232835E0,0E0,0E0,1.9658834E0,0E0,0E0,0E0],"parents":[2147483647,0,0,1,1,2,2,5,5],"right_children":[2,4,6,-1,-1,8,-1,-1,-1],"split_conditions":[-8.022104E-2,-3.4002733E-1,2.1892291E-1,8.954357E-4,1.2242608E-2,-2.6228243E-1,-1.1001938E-2,-5.0304425E-3,7.30224E-3],"split_indices":[10,38,12,0,0,52,0,0,0],"split_type":[0,0,0,0,0,0,0,0,0],"sum_hessian":[8.845879E0,3.934164E0,4.9117146E0,1.7227056E0,2.2114584E0,3.204962E0,1.7067525E0,1.7250804E0,1.4798815E0],"tree_param":{"num_deleted":"0","num_feature":"53","num_nodes":"9","size_leaf_vector":"0"}},{"base_weights":[-6.39493E-2,6.4761305E-1,-5.8452886E-1,-2.069299E-1,1.0727475E0,-9.765082E-1,3.523844E-1,2.0450582E-1,-1.3517992E0],"categories":[],"categories_nodes":[],"categories_segments":[],"categories_sizes":[],"default_left":[1,1,1,0,0,1,0,0,0],"id":55,"left_children":[1,3,5,-1,-1,7,-1,-1,-1],"loss_changes":[4.9340267E0,2.2819765E0,3.1453798E0,0E0,0E0,2.7775402E0,0E0,0E0,0E0],"parents":[2147483647,0,0,1,1,2,2,5,5],"right_children":[2,4,6,-1,-1,8,-1,-1,-1],"split_conditions":[-1.0847717E-1,-2.0034087E-1,1.6357514E-1,-2.069299E-3,1.07274745E-2,-6.029267E-2,3.5238438E-3,2.0450582E-3,-1.3517993E-2],"split_indices":[11,4,51,0,0,35,0,0,0],"split_type":[0,0,0,0,0,0,0,0,0],"sum_hessian":[1.1297984E1,4.670295E0,6.6276894E0,1.7220805E0,2.9482143E0,4.642945E0,1.9847445E0,1.2293483E0,3.4135964E0],"tree_param":{"num_deleted":"0","num_feature":"53","num_nodes":"9","size_leaf_vector":"0"}},{"base_weights":[-1.0237607E-1,6.3275725E-1,-6.113383E-1,-7.0685315E-1,1.3147635E0,-1.1150724E0,4.2518702E-1,-3.3300725E-1,-1.3251835E0],"categories":[],"categories_nodes":[],"categories_segments":[],"categories_sizes":[],"default_left":[1,1,1,0,0,1,0,0,0],"id":56,"left_children":[1,3,5,-1,-1,7,-1,-1,-1],"loss_changes":[4.8888273E0,5.8755965E0,4.45201E0,0E0,0E0,4.46527E-1,0E0,0E0,0E0],"parents":[2147483647,0,0,1,1,2,2,5,5],"right_children":[2,4,6,-1,-1,8,-1,-1,-1],"split_conditions":[-2.0844546E-1,-5.445983E-1,5.086668E-1,-7.0685316E-3,1.3147635E-2,8.6886615E-2,4.2518703E-3,-3.3300724E-3,-1.3251835E-2],"split_indices":[25,12,47,0,0,12,0,0,0],"split_type":[0,0,0,0,0,0,0,0,0],"sum_hessian":[1.1032437E1,4.4138885E0,6.6185493E0,1.476765E0,2.9371233E0,4.4029903E0,2.215559E0,1.4798133E0,2.9231768E0],"tree_param":{"num_deleted":"0","num_feature":"53","num_nodes":"9","size_leaf_vector":"0"}},{"base_weights":[-3.9574675E-2,6.191509E-1,-6.223356E-1,-2.7566087E-1,1.1069016E0,-1.160352E0,2.4232276E-1,6.359955E-1,-2.5957975E-1],"categories":[],"categories_nodes":[],"categories_segments":[],"categories_sizes":[],"default_left":[1,1,1,0,0,0,1,0,0],"id":57,"left_children":[1,3,5,-1,-1,-1,7,-1,-1],"loss_changes":[5.0015826E0,2.987532E0,3.4814177E0,0E0,0E0,0E0,8.4989977E-1,0E0,0E0],"parents":[2147483647,0,0,1,1,2,2,6,6],"right_children":[2,4,6,-1,-1,-1,8,-1,-1],"split_conditions":[-2.3770362E-1,-2.5392613E-1,2.8835014E-1,-2.7566087E-3,1.10690165E-2,-1.1603519E-2,5.790224E-1,6.359955E-3,-2.5957974E-3],"split_indices":[39,20,37,0,0,0,40,0,0],"split_type":[0,0,0,0,0,0,0,0,0],"sum_hessian":[1.1025292E1,5.146024E0,5.879268E0,1.9688565E0,3.177168E0,3.413382E0,2.465886E0,1.2322152E0,1.233671E0],"tree_param":{"num_deleted":"0","num_feature":"53","num_nodes":"9","size_leaf_vector":"0"}},{"base_weights":[-1.5011798E-1,4.4376704E-1,-5.961986E-1,-1.6155022E-1,1.1093355E0,-5.421864E-2,-1.2037114E0,-1.0443777E0,6.9835347E-1,-1.0574523E0,7.323616E-1],"categories":[],"categories_nodes":[],"categories_segments":[],"categories_sizes":[],"default_left":[1,1,1,1,0,1,0,0,0,0,0],"id":58,"left_children":[1,3,5,7,-1,9,-1,-1,-1,-1,-1],"loss_changes":[3.2612348E0,2.3649333E0,2.2021205E0,3.5488944E0,0E0,4.472758E0,0E0,0E0,0E0,0E0,0E0],"parents":[2147483647,0,0,1,1,2,2,3,3,5,5],"right_children":[2,4,6,8,-1,10,-1,-1,-1,-1,-1],"split_conditions":[-2.7472824E-2,-3.977944E-1,1.3621049E-1,4.8343295E-1,1.1093355E-2,-3.775897E-1,-1.2037113E-2,-1.0443777E-2,6.9835344E-3,-1.0574523E-2,7.323616E-3],"split_indices":[10,11,12,47,0,16,0,0,0,0,0],"split_type":[0,0,0,0,0,0,0,0,0,0,0],"sum_hessian":[1.0311545E1,4.4252367E0,5.8863087E0,2.7141042E0,1.7111325E0,3.686617E0,2.199692E0,1.2333481E0,1.480756E0,1.4688387E0,2.2177782E0],"tree_param":{"num_deleted":"0","num_feature":"53","num_nodes":"11","size_leaf_vector":"0"}},{"base_weights":[-1.2999858E-1,-6.835325E-1,2.9802385E-1,4.8274475E-1,-1.3178715E0,8.0659485E-1,-6.504945E-1,-1.7272702E-1,1.3060168E0],"categories":[],"categories_nodes":[],"categories_segments":[],"categories_sizes":[],"default_left":[1,1,1,0,0,1,0,0,0],"id":59,"left_children":[1,3,5,-1,-1,7,-1,-1,-1],"loss_changes":[3.1116462E0,4.820398E0,4.1994877E0,0E0,0E0,2.869366E0,0E0,0E0,0E0],"parents":[2147483647,0,0,1,1,2,2,5,5],"right_children":[2,4,6,-1,-1,8,-1,-1,-1],"split_conditions":[-1.9463685E-1,-4.3082023E-1,2.743258E-1,4.8274472E-3,-1.3178715E-2,7.275006E-2,-6.504945E-3,-1.7272702E-3,1.3060167E-2],"split_indices":[4,39,48,0,0,28,0,0,0],"split_type":[0,0,0,0,0,0,0,0,0],"sum_hessian":[1.1273664E1,4.6557403E0,6.617924E0,1.7243607E0,2.9313796E0,4.405458E0,2.2124662E0,1.7087998E0,2.6966581E0],"tree_param":{"num_deleted":"0","num_feature":"53","num_nodes":"9","size_leaf_vector":"0"}},{"base_weights":[3.0369686E-2,9.2672974E-1,-7.5951123E-1,1.2519351E0,1.4502954E-1,-1.1904259E0,3.5202235E-1],"categories":[],"categories_nodes":[],"categories_segments":[],"categories_sizes":[],"default_left":[1,1,1,0,0,0,0],"id":60,"left_children":[1,3,5,-1,-1,-1,-1],"loss_changes":[8.166093E0,1.1879945E0,3.3657925E0,0E0,0E0,0E0,0E0],"parents":[2147483647,0,0,1,1,2,2],"right_children":[2,4,6,-1,-1,-1,-1],"split_conditions":[-2.248159E-2,1.0984869E-2,4.2325595E-1,1.2519351E-2,1.4502954E-3,-1.1904258E-2,3.5202233E-3],"split_indices":[0,9,19,0,0,0,0],"split_type":[0,0,0,0,0,0,0],"sum_hessian":[9.539612E0,4.387456E0,5.1521554E0,2.6736157E0,1.7138404E0,3.6616476E0,1.4905081E0],"tree_param":{"num_deleted":"0","num_feature":"53","num_nodes":"7","size_leaf_vector":"0"}},{"base_weights":[-4.754388E-3,6.5826327E-1,-5.149705E-1,-2.4274527E-1,1.0235924E0,3.9236137E-1,-8.694967E-1,-1.2758392E0,1.9324678E-1],"categories":[],"categories_nodes":[],"categories_segments":[],"categories_sizes":[],"default_left":[1,1,1,0,0,0,1,0,0],"id":61,"left_children":[1,3,5,-1,-1,-1,7,-1,-1],"loss_changes":[3.8257298E0,1.8684003E0,2.395319E0,0E0,0E0,0E0,2.3637078E0,0E0,0E0],"parents":[2147483647,0,0,1,1,2,2,6,6],"right_children":[2,4,6,-1,-1,-1,8,-1,-1],"split_conditions":[-1.2014532E-1,-3.0205548E-1,-3.8224274E-1,-2.4274527E-3,1.0235923E-2,3.9236136E-3,8.717033E-2,-1.2758392E-2,1.9324678E-3],"split_indices":[11,9,20,0,0,0,26,0,0],"split_type":[0,0,0,0,0,0,0,0,0],"sum_hessian":[9.307202E0,3.9213302E0,5.385872E0,1.2280768E0,2.6932535E0,1.483208E0,3.902664E0,2.6781516E0,1.2245123E0],"tree_param":{"num_deleted":"0","num_feature":"53","num_nodes":"9","size_leaf_vector":"0"}},{"base_weights":[3.9919402E-2,7.430953E-1,-3.9007664E-1,1.24468766E-1,1.0915109E0,7.183731E-1,-7.913735E-1,-1.2044263E0,-1.5411533E-1],"categories":[],"categories_nodes":[],"categories_segments":[],"categories_sizes":[],"default_left":[1,1,1,0,0,0,1,0,0],"id":62,"left_children":[1,3,5,-1,-1,-1,7,-1,-1],"loss_changes":[3.543874E0,8.1854534E-1,3.8307714E0,0E0,0E0,0E0,1.3569572E0,0E0,0E0],"parents":[2147483647,0,0,1,1,2,2,6,6],"right_children":[2,4,6,-1,-1,-1,8,-1,-1],"split_conditions":[4.9837694E-2,-2.82817E-2,-1.5758103E-2,1.2446876E-3,1.0915109E-2,7.183731E-3,2.6421225E-1,-1.2044263E-2,-1.5411533E-3],"split_indices":[10,20,35,0,0,0,47,0,0],"split_type":[0,0,0,0,0,0,0,0,0],"sum_hessian":[9.761939E0,3.4279845E0,6.3339543E0,1.7240694E0,1.7039151E0,1.4735715E0,4.8603826E0,2.4089537E0,2.451429E0],"tree_param":{"num_deleted":"0","num_feature":"53","num_nodes":"9","size_leaf_vector":"0"}},{"base_weights":[5.3271975E-2,-9.147586E-1,4.546152E-1,1.1023371E0,-1.8435954E-1,-8.334931E-1,9.792952E-1],"categories":[],"categories_nodes":[],"categories_segments":[],"categories_sizes":[],"default_left":[1,0,1,0,1,0,0],"id":63,"left_children":[1,-1,3,-1,5,-1,-1],"loss_changes":[4.5024023E0,0E0,3.557145E0,0E0,4.5447927E0,0E0,0E0],"parents":[2147483647,0,0,2,2,4,4],"right_children":[2,-1,4,-1,6,-1,-1],"split_conditions":[-2.1834701E-1,-9.147586E-3,-2.0844546E-1,1.1023371E-2,6.4080083E-1,-8.334931E-3,9.792952E-3],"split_indices":[50,0,25,0,14,0,0],"split_type":[0,0,0,0,0,0,0],"sum_hessian":[9.518424E0,2.4147823E0,7.1036415E0,3.167557E0,3.9360845E0,2.708758E0,1.2273265E0],"tree_param":{"num_deleted":"0","num_feature":"53","num_nodes":"7","size_leaf_vector":"0"}},{"base_weights":[-3.187057E-2,6.417348E-1,-5.2850884E-1,1.1548778E0,-8.6218424E-2,1.4751577E-1,-1.2050099E0,-4.8877385E-1,7.839838E-1],"categories":[],"categories_nodes":[],"categories_segments":[],"categories_sizes":[],"default_left":[1,1,1,0,0,1,0,0,0],"id":64,"left_children":[1,3,5,-1,-1,7,-1,-1,-1],"loss_changes":[3.8611238E0,1.9372272E0,3.1999478E0,0E0,0E0,2.0825815E0,0E0,0E0,0E0],"parents":[2147483647,0,0,1,1,2,2,5,5],"right_children":[2,4,6,-1,-1,8,-1,-1,-1],"split_conditions":[-1.11134425E-1,-1.3318575E-2,4.658389E-2,1.1548777E-2,-8.621842E-4,-3.7716413E-1,-1.2050099E-2,-4.8877383E-3,7.839838E-3],"split_indices":[11,41,16,0,0,8,0,0,0],"split_type":[0,0,0,0,0,0,0,0,0],"sum_hessian":[9.52783E0,3.9195158E0,5.608314E0,1.954965E0,1.9645509E0,3.1962543E0,2.4120598E0,1.7143937E0,1.4818604E0],"tree_param":{"num_deleted":"0","num_feature":"53","num_nodes":"9","size_leaf_vector":"0"}},{"base_weights":[-2.082473E-1,5.443161E-1,-6.932651E-1,-3.921695E-1,1.0307587E0,-1.0735897E0,1.6316985E-1,-1.3055286E0,-2.6118E-1],"categories":[],"categories_nodes":[],"categories_segments":[],"categories_sizes":[],"default_left":[1,1,1,0,0,1,0,0,0],"id":65,"left_children":[1,3,5,-1,-1,7,-1,-1,-1],"loss_changes":[4.6541452E0,2.751285E0,2.639226E0,0E0,0E0,6.709757E-1,0E0,0E0,0E0],"parents":[2147483647,0,0,1,1,2,2,5,5],"right_children":[2,4,6,-1,-1,8,-1,-1,-1],"split_conditions":[-1.2014532E-1,-3.4347403E-1,1.6045082E-1,-3.921695E-3,1.0307587E-2,4.2041892E-1,1.6316985E-3,-1.3055286E-2,-2.6118E-3],"split_indices":[11,9,41,0,0,38,0,0,0],"split_type":[0,0,0,0,0,0,0,0,0],"sum_hessian":[1.0717022E1,4.15217E0,6.5648518E0,1.4857149E0,2.666455E0,4.3704643E0,2.1943872E0,2.927651E0,1.4428133E0],"tree_param":{"num_deleted":"0","num_feature":"53","num_nodes":"9","size_leaf_vector":"0"}},{"base_weights":[-1.5847968E-1,-9.894873E-1,3.9889428E-1,-1.2263052E0,-2.0163025E-1,-9.252849E-1,8.448047E-1,-8.226962E-2,1.1869017E0],"categories":[],"categories_nodes":[],"categories_segments":[],"categories_sizes":[],"default_left":[1,1,1,0,0,0,1,0,0],"id":66,"left_children":[1,3,5,-1,-1,-1,7,-1,-1],"loss_changes":[5.1590195E0,5.768037E-1,4.8377995E0,0E0,0E0,0E0,1.893219E0,0E0,0E0],"parents":[2147483647,0,0,1,1,2,2,6,6],"right_children":[2,4,6,-1,-1,-1,8,-1,-1],"split_conditions":[-4.5742935E-1,1.1427198E-1,-3.0855823E-1,-1.2263052E-2,-2.0163024E-3,-9.252849E-3,-4.42968E-1,-8.2269614E-4,1.1869017E-2],"split_indices":[31,26,41,0,0,0,10,0,0],"split_type":[0,0,0,0,0,0,0,0,0],"sum_hessian":[9.286062E0,3.4167092E0,5.8693533E0,2.1991658E0,1.2175434E0,1.2077532E0,4.6616E0,1.4612265E0,3.2003736E0],"tree_param":{"num_deleted":"0","num_feature":"53","num_nodes":"9","size_leaf_vector":"0"}},{"base_weights":[-2.106117E-1,3.7320045E-1,-7.604191E-1,-4.8815095E-1,8.710262E-1,-1.0977415E0,2.4582085E-1,1.1352682E0,1.536212E-1],"categories":[],"categories_nodes":[],"categories_segments":[],"categories_sizes":[],"default_left":[1,1,1,0,1,0,0,0,0],"id":67,"left_children":[1,3,5,-1,7,-1,-1,-1,-1],"loss_changes":[3.5756102E0,2.8456454E0,2.1742814E0,0E0,5.718074E-1,0E0,0E0,0E0,0E0],"parents":[2147483647,0,0,1,1,2,2,4,4],"right_children":[2,4,6,-1,8,-1,-1,-1,-1],"split_conditions":[1.0739708E-1,-2.7877265E-1,7.446542E-2,-4.8815096E-3,4.204912E-1,-1.0977414E-2,2.4582085E-3,1.1352682E-2,1.5362119E-3],"split_indices":[10,33,26,0,13,0,0,0,0],"split_type":[0,0,0,0,0,0,0,0,0],"sum_hessian":[9.255401E0,4.6446753E0,4.610726E0,1.7083232E0,2.936352E0,3.3850267E0,1.225699E0,1.7202626E0,1.2160892E0],"tree_param":{"num_deleted":"0","num_feature":"53","num_nodes":"9","size_leaf_vector":"0"}},{"base_weights":[-1.401236E-2,6.594585E-1,-4.0748134E-1,-1.7557278E-1,1.1677856E0,-6.023442E-2,-1.1087583E0,3.4107313E-1,-1.0049043E0],"categories":[],"categories_nodes":[],"categories_segments":[],"categories_sizes":[],"default_left":[1,1,1,0,0,1,0,0,0],"id":68,"left_children":[1,3,5,-1,-1,7,-1,-1,-1],"loss_changes":[3.5125225E0,2.2833488E0,1.96535E0,0E0,0E0,2.8595183E0,0E0,0E0,0E0],"parents":[2147483647,0,0,1,1,2,2,5,5],"right_children":[2,4,6,-1,-1,8,-1,-1,-1],"split_conditions":[-1.6469252E-1,-8.738676E-2,3.1948246E-2,-1.7557278E-3,1.1677857E-2,7.804185E-1,-1.1087583E-2,3.4107312E-3,-1.0049042E-2],"split_indices":[34,20,26,0,0,15,0,0,0],"split_type":[0,0,0,0,0,0,0,0,0],"sum_hessian":[1.1241242E1,3.8962746E0,7.344968E0,1.7220545E0,2.17422E0,5.6387534E0,1.7062141E0,4.405986E0,1.2327678E0],"tree_param":{"num_deleted":"0","num_feature":"53","num_nodes":"9","size_leaf_vector":"0"}},{"base_weights":[-5.7414606E-2,-1.0073993E0,3.04991E-1,1.0188427E0,-7.944248E-2,-1.0963594E0,3.433183E-1],"categories":[],"categories_nodes":[],"categories_segments":[],"categories_sizes":[],"default_left":[1,0,1,0,1,0,0],"id":69,"left_children":[1,-1,3,-1,5,-1,-1],"loss_changes":[4.8471045E0,0E0,2.9110622E0,0E0,3.6569183E0,0E0,0E0],"parents":[2147483647,0,0,2,2,4,4],"right_children":[2,-1,4,-1,6,-1,-1],"split_conditions":[-2.1834701E-1,-1.0073993E-2,2.2611596E-2,1.0188427E-2,-1.01087876E-1,-1.0963594E-2,3.433183E-3],"split_indices":[50,0,28,0,49,0,0],"split_type":[0,0,0,0,0,0,0],"sum_hessian":[1.2186532E1,2.8737438E0,9.312788E0,2.682125E0,6.630663E0,1.4792101E0,5.1514525E0],"tree_param":{"num_deleted":"0","num_feature":"53","num_nodes":"7","size_leaf_vector":"0"}},{"base_weights":[-1.270497E-1,4.8539844E-1,-7.905453E-1,-4.839204E-1,9.045011E-1,-1.2892818E-1,-1.2716752E0,1.2426023E0,3.5946913E-2,-7.1790195E-1,5.864977E-1],"categories":[],"categories_nodes":[],"categories_segments":[],"categories_sizes":[],"default_left":[1,1,1,0,1,1,0,0,0,0,0],"id":70,"left_children":[1,3,5,-1,7,9,-1,-1,-1,-1,-1],"loss_changes":[5.2450314E0,3.2166016E0,1.7850418E0,0E0,1.4600911E0,1.9761676E0,0E0,0E0,0E0,0E0,0E0],"parents":[2147483647,0,0,1,1,2,2,4,4,5,5],"right_children":[2,4,6,-1,8,10,-1,-1,-1,-1,-1],"split_conditions":[-1.7021425E-2,-4.1955942E-1,3.8704395E-1,-4.839204E-3,-1.6739196E-1,1.6899425E-1,-1.2716752E-2,1.2426023E-2,3.5946912E-4,-7.1790195E-3,5.864977E-3],"split_indices":[37,4,17,0,24,22,0,0,0,0,0],"split_type":[0,0,0,0,0,0,0,0,0,0,0],"sum_hessian":[1.0963142E1,5.840456E0,5.122686E0,1.7162894E0,4.124167E0,2.6906533E0,2.4320328E0,2.6586E0,1.4655666E0,1.4738481E0,1.2168051E0],"tree_param":{"num_deleted":"0","num_feature":"53","num_nodes":"11","size_leaf_vector":"0"}},{"base_weights":[-1.8148176E-1,5.96881E-1,-6.3253117E-1,-2.5187376E-1,1.076097E0,-9.1176546E-1,2.9718488E-1,2.2587132E-1,-1.3233709E0],"categories":[],"categories_nodes":[],"categories_segments":[],"categories_sizes":[],"default_left":[1,1,1,0,0,1,0,0,0],"id":71,"left_children":[1,3,5,-1,-1,7,-1,-1,-1],"loss_changes":[3.6364179E0,1.8654705E0,1.9226885E0,0E0,0E0,2.7051258E0,0E0,0E0,0E0],"parents":[2147483647,0,0,1,1,2,2,5,5],"right_children":[2,4,6,-1,-1,8,-1,-1,-1],"split_conditions":[-4.775303E-1,-2.3728696E-1,7.671505E-1,-2.5187375E-3,1.07609695E-2,-5.027543E-1,2.9718487E-3,2.2587131E-3,-1.3233709E-2],"split_indices":[10,42,33,0,0,31,0,0,0],"split_type":[0,0,0,0,0,0,0,0,0],"sum_hessian":[8.282419E0,2.9200528E0,5.362366E0,1.2249353E0,1.6951176E0,4.1386547E0,1.2237111E0,1.2194525E0,2.9192023E0],"tree_param":{"num_deleted":"0","num_feature":"53","num_nodes":"9","size_leaf_vector":"0"}},{"base_weights":[-1.8662062E-1,6.399044E-1,-8.234739E-1,9.250089E-1,-2.09919E-1,-1.3164858E0,7.575245E-2,1.314005E-1,1.1884602E0,6.6107625E-1,-5.5052716E-1],"categories":[],"categories_nodes":[],"categories_segments":[],"categories_sizes":[],"default_left":[1,1,1,1,0,0,1,0,0,0,0],"id":72,"left_children":[1,3,5,7,-1,-1,9,-1,-1,-1,-1],"loss_changes":[6.668603E0,1.5608029E0,3.2151537E0,7.655549E-1,0E0,0E0,1.6227908E0,0E0,0E0,0E0,0E0],"parents":[2147483647,0,0,1,1,2,2,3,3,6,6],"right_children":[2,4,6,8,-1,-1,10,-1,-1,-1,-1],"split_conditions":[-1.2400553E-1,4.992954E-1,1.5746658E-1,-5.08242E-1,-2.09919E-3,-1.3164857E-2,5.032156E-1,1.3140049E-3,1.1884602E-2,6.6107623E-3,-5.5052713E-3],"split_indices":[21,16,8,5,0,0,31,0,0,0,0],"split_type":[0,0,0,0,0,0,0,0,0,0,0],"sum_hessian":[1.0667835E1,4.6404915E0,6.0273433E0,3.4085095E0,1.2319819E0,3.593269E0,2.4340742E0,1.2230418E0,2.1854677E0,1.2294571E0,1.2046171E0],"tree_param":{"num_deleted":"0","num_feature":"53","num_nodes":"11","size_leaf_vector":"0"}},{"base_weights":[-1.4245217E-1,5.904259E-1,-5.402193E-1,-1.4397603E-1,1.0128874E0,-1.1958959E0,8.76136E-2,5.728389E-1,-6.0306174E-1],"categories":[],"categories_nodes":[],"categories_segments":[],"categories_sizes":[],"default_left":[1,1,1,0,0,0,1,0,0],"id":73,"left_children":[1,3,5,-1,-1,-1,7,-1,-1],"loss_changes":[2.9582424E0,1.2822803E0,2.7355633E0,0E0,0E0,0E0,1.7518214E0,0E0,0E0],"parents":[2147483647,0,0,1,1,2,2,6,6],"right_children":[2,4,6,-1,-1,-1,8,-1,-1],"split_conditions":[-5.326308E-1,-4.8539153E-1,8.604851E-2,-1.4397603E-3,1.0128873E-2,-1.1958959E-2,2.9791199E-2,5.7283887E-3,-6.0306173E-3],"split_indices":[47,13,51,0,0,0,38,0,0],"split_type":[0,0,0,0,0,0,0,0,0],"sum_hessian":[8.053684E0,2.6629329E0,5.3907514E0,1.2131699E0,1.4497628E0,2.194318E0,3.1964335E0,1.9776622E0,1.2187713E0],"tree_param":{"num_deleted":"0","num_feature":"53","num_nodes":"9","size_leaf_vector":"0"}},{"base_weights":[-3.7068594E-2,7.0643437E-1,-5.129932E-1,-5.4818285E-1,1.268255E0,3.1236464E-1,-1.2730742E0,1.0281724E0,-3.8884738E-1],"categories":[],"categories_nodes":[],"categories_segments":[],"categories_sizes":[],"default_left":[1,1,1,0,0,1,0,0,0],"id":74,"left_children":[1,3,5,-1,-1,7,-1,-1,-1],"loss_changes":[4.406952E0,4.136187E0,5.1330776E0,0E0,0E0,2.6192455E0,0E0,0E0,0E0],"parents":[2147483647,0,0,1,1,2,2,5,5],"right_children":[2,4,6,-1,-1,8,-1,-1,-1],"split_conditions":[-1.8529189E-1,-6.5723264E-1,-1.7123032E-1,-5.4818285E-3,1.268255E-2,-1.7909655E-1,-1.2730741E-2,1.0281724E-2,-3.8884736E-3],"split_indices":[6,36,11,0,0,26,0,0,0],"split_type":[0,0,0,0,0,0,0,0,0],"sum_hessian":[1.04300995E1,3.8816829E0,6.548416E0,1.208105E0,2.673578E0,3.4217925E0,3.1266236E0,1.4625355E0,1.959257E0],"tree_param":{"num_deleted":"0","num_feature":"53","num_nodes":"9","size_leaf_vector":"0"}},{"base_weights":[-6.5150596E-2,-1.0263954E0,3.2341403E-1,8.2021844E-1,-1.0800644E-1,-9.716321E-2,1.237554E0,-6.109214E-1,7.9476297E-1],"categories":[],"categories_nodes":[],"categories_segments":[],"categories_sizes":[],"default_left":[1,0,1,1,1,0,0,0,0],"id":75,"left_children":[1,-1,3,5,7,-1,-1,-1,-1],"loss_changes":[5.327454E0,0E0,2.2929742E0,1.9949334E0,3.385948E0,0E0,0E0,0E0,0E0],"parents":[2147483647,0,0,2,2,3,3,4,4],"right_children":[2,-1,4,6,8,-1,-1,-1,-1],"split_conditions":[-2.1834701E-1,-1.0263954E-2,-2.7472824E-2,4.5566104E-2,1.3747117E-1,-9.716321E-4,1.2375539E-2,-6.109214E-3,7.947629E-3],"split_indices":[50,0,10,33,2,0,0,0,0],"split_type":[0,0,0,0,0,0,0,0,0],"sum_hessian":[1.2374636E1,3.0897064E0,9.284929E0,3.8965888E0,5.3883405E0,1.4582546E0,2.4383342E0,3.6681614E0,1.7201792E0],"tree_param":{"num_deleted":"0","num_feature":"53","num_nodes":"9","size_leaf_vector":"0"}},{"base_weights":[-2.013181E-1,6.50032E-1,-4.8035675E-1,-9.974761E-1,4.3180218E-1,-1.920583E-2,-1.3054924E0,1.1541705E0,-6.4372325E-1],"categories":[],"categories_nodes":[],"categories_segments":[],"categories_sizes":[],"default_left":[1,0,1,1,1,0,0,0,0],"id":76,"left_children":[1,-1,3,5,7,-1,-1,-1,-1],"loss_changes":[2.9671297E0,0E0,4.6721797E0,1.7951436E0,3.812773E0,0E0,0E0,0E0,0E0],"parents":[2147483647,0,0,2,2,3,3,4,4],"right_children":[2,-1,4,6,8,-1,-1,-1,-1],"split_conditions":[-1.5758103E-2,6.5003196E-3,4.9889314E-1,-2.397204E-1,6.826808E-1,-1.9205829E-4,-1.3054924E-2,1.1541705E-2,-6.4372323E-3],"split_indices":[35,0,29,18,7,0,0,0,0],"split_type":[0,0,0,0,0,0,0,0,0],"sum_hessian":[1.0175648E1,2.1836786E0,7.9919696E0,5.040746E0,2.9512234E0,1.4614583E0,3.5792878E0,1.7217205E0,1.2295028E0],"tree_param":{"num_deleted":"0","num_feature":"53","num_nodes":"9","size_leaf_vector":"0"}},{"base_weights":[-1.5767464E-1,1.9853383E-1,-9.753958E-1,8.449082E-1,-3.1562358E-1,2.535064E-1,1.0707506E0,-7.7283025E-1,3.5456282E-1],"categories":[],"categories_nodes":[],"categories_segments":[],"categories_sizes":[],"default_left":[1,1,0,1,1,0,0,0,0],"id":77,"left_children":[1,3,-1,5,7,-1,-1,-1,-1],"loss_changes":[3.5043242E0,3.1739855E0,0E0,2.8253555E-1,1.990052E0,0E0,0E0,0E0,0E0],"parents":[2147483647,0,0,1,1,3,3,4,4],"right_children":[2,4,-1,6,8,-1,-1,-1,-1],"split_conditions":[3.0800557E-1,2.173113E-2,-9.753957E-3,-4.6364933E-1,1.1809726E-1,2.5350638E-3,1.0707506E-2,-7.7283024E-3,3.5456282E-3],"split_indices":[48,11,0,11,36,0,0,0,0],"split_type":[0,0,0,0,0,0,0,0,0],"sum_hessian":[1.0365985E1,7.748056E0,2.617929E0,3.1476688E0,4.600387E0,1.4563898E0,1.691279E0,2.6436858E0,1.9567013E0],"tree_param":{"num_deleted":"0","num_feature":"53","num_nodes":"9","size_leaf_vector":"0"}},{"base_weights":[3.0046819E-2,5.0342447E-1,-9.9183875E-1,-4.6414906E-1,9.3709964E-1,1.296006E0,-1.5427005E-1],"categories":[],"categories_nodes":[],"categories_segments":[],"categories_sizes":[],"default_left":[1,1,0,0,1,0,0],"id":78,"left_children":[1,3,-1,-1,5,-1,-1],"loss_changes":[5.19531E0,3.4971726E0,0E0,0E0,2.3035097E0,0E0,0E0],"parents":[2147483647,0,0,1,1,4,4],"right_children":[2,4,-1,-1,6,-1,-1],"split_conditions":[2.3756139E-1,-1.788615E-1,-9.918387E-3,-4.6414905E-3,9.8005526E-2,1.296006E-2,-1.5427005E-3],"split_indices":[48,50,0,0,19,0,0],"split_type":[0,0,0,0,0,0,0],"sum_hessian":[8.7077265E0,6.2977276E0,2.4099984E0,1.9273483E0,4.3703794E0,3.1477206E0,1.2226591E0],"tree_param":{"num_deleted":"0","num_feature":"53","num_nodes":"7","size_leaf_vector":"0"}},{"base_weights":[-2.6937956E-1,6.109532E-1,-7.034808E-1,1.0381339E0,-1.4106724E-1,4.0894723E-1,-1.0842223E0,-1.3067833E0,-1.8439631E-1],"categories":[],"categories_nodes":[],"categories_segments":[],"categories_sizes":[],"default_left":[1,1,1,0,0,0,1,0,0],"id":79,"left_children":[1,3,5,-1,-1,-1,7,-1,-1],"loss_changes":[4.058082E0,1.3256747E0,3.33349E0,0E0,0E0,0E0,8.319607E-1,0E0,0E0],"parents":[2147483647,0,0,1,1,2,2,6,6],"right_children":[2,4,6,-1,-1,-1,8,-1,-1],"split_conditions":[-1.9050854E-1,4.747141E-3,-3.952957E-1,1.0381338E-2,-1.4106723E-3,4.0894723E-3,5.3259504E-1,-1.3067833E-2,-1.843963E-3],"split_indices":[3,36,20,0,0,0,19,0,0],"split_type":[0,0,0,0,0,0,0,0,0],"sum_hessian":[8.49432E0,2.6707637E0,5.823556E0,1.4606122E0,1.2101516E0,1.4660517E0,4.3575044E0,3.1308615E0,1.226643E0],"tree_param":{"num_deleted":"0","num_feature":"53","num_nodes":"9","size_leaf_vector":"0"}},{"base_weights":[3.267568E-1,9.804904E-1,-4.2037615E-1,1.526109E-1,1.1646348E0,3.6657304E-1,-7.911496E-1,-1.0800813E0,-4.210218E-2],"categories":[],"categories_nodes":[],"categories_segments":[],"categories_sizes":[],"default_left":[1,1,1,0,0,0,1,0,0],"id":80,"left_children":[1,3,5,-1,-1,-1,7,-1,-1],"loss_changes":[5.469207E0,7.0984125E-1,1.9040325E0,0E0,0E0,0E0,8.368192E-1,0E0,0E0],"parents":[2147483647,0,0,1,1,2,2,6,6],"right_children":[2,4,6,-1,-1,-1,8,-1,-1],"split_conditions":[3.7247818E-2,-6.398023E-1,2.7752835E-3,1.526109E-3,1.1646348E-2,3.6657304E-3,9.578293E-2,-1.0800813E-2,-4.210218E-4],"split_indices":[10,10,28,0,0,0,51,0,0],"split_type":[0,0,0,0,0,0,0,0,0],"sum_hessian":[9.353735E0,4.8221054E0,4.5316296E0,1.2101685E0,3.611937E0,1.4549326E0,3.076697E0,1.9013464E0,1.1753507E0],"tree_param":{"num_deleted":"0","num_feature":"53","num_nodes":"9","size_leaf_vector":"0"}},{"base_weights":[5.1812077E-1,-7.0159143E-1,7.797951E-1,1.0466796E0,-1.7802314E-1,1.2961601E0,4.324053E-3],"categories":[],"categories_nodes":[],"categories_segments":[],"categories_sizes":[],"default_left":[1,0,1,1,0,0,0],"id":81,"left_children":[1,-1,3,5,-1,-1,-1],"loss_changes":[4.0420074E0,0E0,2.612092E0,1.9621449E0,0E0,0E0,0E0],"parents":[2147483647,0,0,2,2,3,3],"right_children":[2,-1,4,6,-1,-1,-1],"split_conditions":[-4.7193223E-1,-7.015914E-3,1.7873536E-1,3.5255206E-1,-1.7802314E-3,1.2961601E-2,4.324053E-5],"split_indices":[4,0,42,4,0,0,0],"split_type":[0,0,0,0,0,0,0],"sum_hessian":[9.950086E0,1.460635E0,8.48945E0,6.5668907E0,1.9225595E0,5.102219E0,1.4646715E0],"tree_param":{"num_deleted":"0","num_feature":"53","num_nodes":"7","size_leaf_vector":"0"}},{"base_weights":[-1.0778845E-1,-4.7004098E-1,8.497425E-1,2.5842458E-1,-1.0586203E0,-7.1040857E-1,1.0550255E0],"categories":[],"categories_nodes":[],"categories_segments":[],"categories_sizes":[],"default_left":[1,1,0,1,0,0,0],"id":82,"left_children":[1,3,-1,5,-1,-1,-1],"loss_changes":[3.6716723E0,3.4842207E0,0E0,3.9525316E0,0E0,0E0,0E0],"parents":[2147483647,0,0,1,1,3,3],"right_children":[2,4,-1,6,-1,-1,-1],"split_conditions":[2.2891104E-1,-2.0844546E-1,8.497424E-3,-5.603595E-1,-1.0586203E-2,-7.1040853E-3,1.0550254E-2],"split_indices":[20,25,0,13,0,0,0],"split_type":[0,0,0,0,0,0,0],"sum_hessian":[8.433729E0,6.4882207E0,1.9455082E0,3.1502247E0,3.337996E0,1.4702697E0,1.679955E0],"tree_param":{"num_deleted":"0","num_feature":"53","num_nodes":"7","size_leaf_vector":"0"}},{"base_weights":[-1.3468125E-1,-1.0672851E0,1.5633665E-1,8.50823E-1,-2.2420552E-1,2.2673133E-1,1.0584555E0,7.3963416E-1,-6.6796184E-1],"categories":[],"categories_nodes":[],"categories_segments":[],"categories_sizes":[],"default_left":[1,0,1,1,1,0,0,0,0],"id":83,"left_children":[1,-1,3,5,7,-1,-1,-1,-1],"loss_changes":[3.3156078E0,0E0,2.7581635E0,2.3264933E-1,3.5167916E0,0E0,0E0,0E0,0E0],"parents":[2147483647,0,0,2,2,3,3,4,4],"right_children":[2,-1,4,6,8,-1,-1,-1,-1],"split_conditions":[-2.9129395E-1,-1.06728505E-2,-3.952653E-2,-2.55287E-2,-5.1535845E-1,2.2673132E-3,1.0584555E-2,7.3963413E-3,-6.6796183E-3],"split_indices":[50,0,50,41,10,0,0,0,0],"split_type":[0,0,0,0,0,0,0,0,0],"sum_hessian":[1.0601697E1,1.8870345E0,8.714663E0,2.6473863E0,6.0672765E0,1.1831415E0,1.464245E0,1.7025583E0,4.364718E0],"tree_param":{"num_deleted":"0","num_feature":"53","num_nodes":"9","size_leaf_vector":"0"}},{"base_weights":[-2.907627E-1,2.8059983E-1,-7.3102593E-1,7.9701173E-1,-6.527868E-1,2.3616004E-1,-1.0075518E0,9.323564E-2,1.076994E0,-1.265378E0,-8.443601E-2],"categories":[],"categories_nodes":[],"categories_segments":[],"categories_sizes":[],"default_left":[1,1,1,1,0,0,1,0,0,0,0],"id":84,"left_children":[1,3,5,7,-1,-1,9,-1,-1,-1,-1],"loss_changes":[2.8726466E0,3.0931005E0,1.9139757E0,6.654353E-1,0E0,0E0,1.0982218E0,0E0,0E0,0E0,0E0],"parents":[2147483647,0,0,1,1,2,2,3,3,6,6],"right_children":[2,4,6,8,-1,-1,10,-1,-1,-1,-1],"split_conditions":[-3.462765E-2,-1.8704899E-2,-3.0294138E-1,-2.980282E-2,-6.5278676E-3,2.3616003E-3,2.951074E-1,9.323564E-4,1.0769939E-2,-1.2653779E-2,-8.4436004E-4],"split_indices":[2,9,42,20,0,0,9,0,0,0,0],"split_type":[0,0,0,0,0,0,0,0,0,0,0],"sum_hessian":[9.604341E0,4.3376727E0,5.266668E0,2.8866773E0,1.4509954E0,1.2034423E0,4.0632257E0,1.2009414E0,1.6857358E0,2.8863103E0,1.1769153E0],"tree_param":{"num_deleted":"0","num_feature":"53","num_nodes":"11","size_leaf_vector":"0"}},{"base_weights":[2.3316999E-1,8.3145267E-1,-2.8436685E-1,-2.2582908E-1,1.2394531E0,-7.8708184E-1,7.7469593E-1,-1.0817188E0,-2.4770854E-1],"categories":[],"categories_nodes":[],"categories_segments":[],"categories_sizes":[],"default_left":[1,1,1,0,0,1,0,0,0],"id":85,"left_children":[1,3,5,-1,-1,7,-1,-1,-1],"loss_changes":[3.3064244E0,2.3735921E0,3.8368526E0,0E0,0E0,4.64082E-1,0E0,0E0,0E0],"parents":[2147483647,0,0,1,1,2,2,5,5],"right_children":[2,4,6,-1,-1,8,-1,-1,-1],"split_conditions":[-1.4934367E-1,-5.808754E-1,4.9226558E-1,-2.2582908E-3,1.2394531E-2,-7.3668726E-2,7.746959E-3,-1.0817188E-2,-2.4770855E-3],"split_indices":[0,23,51,0,0,48,0,0,0],"split_type":[0,0,0,0,0,0,0,0,0],"sum_hessian":[8.914911E0,3.8535612E0,5.0613494E0,1.1973298E0,2.6562314E0,3.6063185E0,1.4550312E0,1.6820015E0,1.9243169E0],"tree_param":{"num_deleted":"0","num_feature":"53","num_nodes":"9","size_leaf_vector":"0"}},{"base_weights":[2.0568653E-3,7.314587E-1,-4.2592242E-1,1.0588782E0,1.3604136E-1,-1.1262465E0,1.1270659E-1,1.0417235E0,-4.4780162E-1],"categories":[],"categories_nodes":[],"categories_segments":[],"categories_sizes":[],"default_left":[1,1,1,0,0,0,1,0,0],"id":86,"left_children":[1,3,5,-1,-1,-1,7,-1,-1],"loss_changes":[3.699301E0,7.100308E-1,2.9452274E0,0E0,0E0,0E0,3.1389477E0,0E0,0E0],"parents":[2147483647,0,0,1,1,2,2,6,6],"right_children":[2,4,6,-1,-1,-1,8,-1,-1],"split_conditions":[-2.2750008E-1,-1.8613645E-1,1.829173E-1,1.0588782E-2,1.3604135E-3,-1.1262464E-2,3.201261E-1,1.0417235E-2,-4.478016E-3],"split_indices":[39,3,30,0,0,0,12,0,0],"split_type":[0,0,0,0,0,0,0,0,0],"sum_hessian":[9.85232E0,3.3810031E0,6.471317E0,1.6792214E0,1.7017817E0,2.339089E0,4.132228E0,1.2318908E0,2.900337E0],"tree_param":{"num_deleted":"0","num_feature":"53","num_nodes":"9","size_leaf_vector":"0"}},{"base_weights":[-1.3297391E-1,-6.6143215E-1,3.40875E-1,3.545905E-1,-1.1083933E0,-7.783287E-1,8.9020616E-1,1.4586453E-1,1.2333227E0],"categories":[],"categories_nodes":[],"categories_segments":[],"categories_sizes":[],"default_left":[1,1,1,0,0,0,1,0,0],"id":87,"left_children":[1,3,5,-1,-1,-1,7,-1,-1],"loss_changes":[3.0160615E0,2.9400043E0,4.7110257E0,0E0,0E0,0E0,1.0588586E0,0E0,0E0],"parents":[2147483647,0,0,1,1,2,2,6,6],"right_children":[2,4,6,-1,-1,-1,8,-1,-1],"split_conditions":[-2.0034087E-1,-1.7656049E-2,-1.5087323E-1,3.545905E-3,-1.1083933E-2,-7.783287E-3,-1.1016542E-1,1.4586453E-3,1.2333227E-2],"split_indices":[4,28,41,0,0,0,42,0,0],"split_type":[0,0,0,0,0,0,0,0,0],"sum_hessian":[1.01441345E1,4.608571E0,5.5355635E0,1.4711188E0,3.1374524E0,1.6852269E0,3.8503366E0,1.6645195E0,2.185817E0],"tree_param":{"num_deleted":"0","num_feature":"53","num_nodes":"9","size_leaf_vector":"0"}},{"base_weights":[-1.9762662E-1,5.2163184E-1,-5.791228E-1,1.0447298E0,-1.9034356E-1,-1.1332937E0,2.5378776E-1,-5.526423E-1,8.199569E-1],"categories":[],"categories_nodes":[],"categories_segments":[],"categories_sizes":[],"default_left":[1,1,1,0,0,0,1,0,0],"id":88,"left_children":[1,3,5,-1,-1,-1,7,-1,-1],"loss_changes":[3.346096E0,1.8267181E0,3.852205E0,0E0,0E0,0E0,2.2348921E0,0E0,0E0],"parents":[2147483647,0,0,1,1,2,2,6,6],"right_children":[2,4,6,-1,-1,-1,8,-1,-1],"split_conditions":[-1.2014532E-1,1.6972691E-1,1.3747117E-1,1.0447298E-2,-1.9034356E-3,-1.13329375E-2,-3.775897E-1,-5.5264225E-3,8.199569E-3],"split_indices":[11,48,2,0,0,0,16,0,0],"split_type":[0,0,0,0,0,0,0,0,0],"sum_hessian":[1.0093549E1,3.3708823E0,6.7226663E0,1.6737717E0,1.6971105E0,3.8202486E0,2.9024177E0,1.2070429E0,1.6953747E0],"tree_param":{"num_deleted":"0","num_feature":"53","num_nodes":"9","size_leaf_vector":"0"}},{"base_weights":[1.49955675E-2,2.662292E-1,-9.9124646E-1,6.624476E-1,-6.659022E-1,-1.8390292E-1,9.4631493E-1,-8.726586E-2,-9.3634534E-1],"categories":[],"categories_nodes":[],"categories_segments":[],"categories_sizes":[],"default_left":[1,1,0,1,1,0,0,0,0],"id":89,"left_children":[1,3,-1,5,7,-1,-1,-1,-1],"loss_changes":[3.0762582E0,4.0200577E0,0E0,1.9281678E0,4.486494E-1,0E0,0E0,0E0,0E0],"parents":[2147483647,0,0,1,1,3,3,4,4],"right_children":[2,4,-1,6,8,-1,-1,-1,-1],"split_conditions":[3.2682502E-1,6.1550045E-1,-9.912465E-3,-3.05395E-1,2.4180183E-1,-1.8390291E-3,9.463149E-3,-8.7265857E-4,-9.363453E-3],"split_indices":[2,31,0,29,50,0,0,0,0],"split_type":[0,0,0,0,0,0,0,0,0],"sum_hessian":[1.0124757E1,8.690402E0,1.4343553E0,6.3012624E0,2.3891397E0,1.6710825E0,4.63018E0,1.1822634E0,1.2068763E0],"tree_param":{"num_deleted":"0","num_feature":"53","num_nodes":"9","size_leaf_vector":"0"}},{"base_weights":[-3.72376E-2,3.5278398E-1,-9.026215E-1,6.4805394E-1,-6.4636743E-1,1.0842153E0,-1.2022565E-1],"categories":[],"categories_nodes":[],"categories_segments":[],"categories_sizes":[],"default_left":[1,1,0,1,0,0,0],"id":90,"left_children":[1,3,-1,5,-1,-1,-1],"loss_changes":[3.6509898E0,2.6389594E0,0E0,2.2441144E0,0E0,0E0,0E0],"parents":[2147483647,0,0,1,1,3,3],"right_children":[2,4,-1,6,-1,-1,-1],"split_conditions":[1.4657784E-1,6.518759E-1,-9.0262145E-3,6.0117196E-2,-6.4636744E-3,1.0842153E-2,-1.2022565E-3],"split_indices":[9,27,0,2,0,0,0],"split_type":[0,0,0,0,0,0,0],"sum_hessian":[8.873711E0,6.5251956E0,2.3485153E0,5.307975E0,1.2172208E0,3.1235013E0,2.1844735E0],"tree_param":{"num_deleted":"0","num_feature":"53","num_nodes":"7","size_leaf_vector":"0"}},{"base_weights":[-1.1137321E-1,6.691048E-1,-7.3451537E-1,-2.8052133E-1,1.0157821E0,-9.946638E-1,2.2033277E-1,-1.2338114E0,-1.03580534E-1],"categories":[],"categories_nodes":[],"categories_segments":[],"categories_sizes":[],"default_left":[1,1,1,0,0,1,0,0,0],"id":91,"left_children":[1,3,5,-1,-1,7,-1,-1,-1],"loss_changes":[5.733777E0,2.0326252E0,1.8263876E0,0E0,0E0,9.9443865E-1,0E0,0E0,0E0],"parents":[2147483647,0,0,1,1,2,2,5,5],"right_children":[2,4,6,-1,-1,8,-1,-1,-1],"split_conditions":[-1.11134425E-1,-6.398023E-1,4.4801223E-1,-2.8052132E-3,1.0157821E-2,4.371227E-1,2.2033276E-3,-1.2338114E-2,-1.0358053E-3],"split_indices":[11,10,10,0,0,51,0,0,0],"split_type":[0,0,0,0,0,0,0,0,0],"sum_hessian":[9.77891E0,4.308636E0,5.470274E0,1.2033157E0,3.1053202E0,4.2662387E0,1.2040352E0,3.0603E0,1.2059387E0],"tree_param":{"num_deleted":"0","num_feature":"53","num_nodes":"9","size_leaf_vector":"0"}},{"base_weights":[-7.653347E-2,-8.283389E-1,3.3936375E-1,-1.0699447E0,-1.2618677E-1,1.0076407E0,-2.920923E-1,-1.1178237E0,5.560331E-1],"categories":[],"categories_nodes":[],"categories_segments":[],"categories_sizes":[],"default_left":[1,1,1,0,0,0,1,0,0],"id":92,"left_children":[1,3,5,-1,-1,-1,7,-1,-1],"loss_changes":[3.588687E0,5.5345225E-1,3.4677026E0,0E0,0E0,0E0,3.8723283E0,0E0,0E0],"parents":[2147483647,0,0,1,1,2,2,6,6],"right_children":[2,4,6,-1,-1,-1,8,-1,-1],"split_conditions":[-1.27700595E-2,1.213281E-1,4.5390658E-2,-1.0699447E-2,-1.2618677E-3,1.0076407E-2,4.9659413E-1,-1.1178237E-2,5.5603306E-3],"split_indices":[50,42,12,0,0,0,47,0,0],"split_type":[0,0,0,0,0,0,0,0,0],"sum_hessian":[9.578368E0,3.0582914E0,6.5200768E0,1.8856456E0,1.1726458E0,2.8782506E0,3.6418264E0,1.6841507E0,1.9576757E0],"tree_param":{"num_deleted":"0","num_feature":"53","num_nodes":"9","size_leaf_vector":"0"}},{"base_weights":[-1.1281333E-1,6.565704E-1,-5.9669775E-1,-2.3314121E-1,1.0973076E0,-1.1581825E0,-3.0973118E-2,8.197411E-1,-7.920734E-1],"categories":[],"categories_nodes":[],"categories_segments":[],"categories_sizes":[],"default_left":[1,1,1,0,0,0,1,0,0],"id":93,"left_children":[1,3,5,-1,-1,-1,7,-1,-1],"loss_changes":[3.8810108E0,1.8614929E0,1.9581659E0,0E0,0E0,0E0,3.339213E0,0E0,0E0],"parents":[2147483647,0,0,1,1,2,2,6,6],"right_children":[2,4,6,-1,-1,-1,8,-1,-1],"split_conditions":[-1.6469252E-1,-4.2685223E-1,1.0220672E-1,-2.3314122E-3,1.0973075E-2,-1.1581825E-2,2.781994E-1,8.197411E-3,-7.920734E-3],"split_indices":[34,29,32,0,0,0,34,0,0],"split_type":[0,0,0,0,0,0,0,0,0],"sum_hessian":[8.372292E0,3.0947373E0,5.2775545E0,1.181227E0,1.9135103E0,2.1231058E0,3.154449E0,1.453152E0,1.701297E0],"tree_param":{"num_deleted":"0","num_feature":"53","num_nodes":"9","size_leaf_vector":"0"}},{"base_weights":[2.6164496E-1,8.8514566E-1,-3.6338335E-1,-2.3092934E-1,1.2736592E0,-9.348895E-1,4.0568465E-1],"categories":[],"categories_nodes":[],"categories_segments":[],"categories_sizes":[],"default_left":[1,1,1,0,0,0,0],"id":94,"left_children":[1,3,5,-1,-1,-1,-1],"loss_changes":[4.2469063E0,2.6067405E0,2.901705E0,0E0,0E0,0E0,0E0],"parents":[2147483647,0,0,1,1,2,2],"right_children":[2,4,6,-1,-1,-1,-1],"split_conditions":[6.579507E-2,-5.824038E-1,5.1640403E-1,-2.3092935E-3,1.2736592E-2,-9.3488945E-3,4.0568463E-3],"split_indices":[35,24,8,0,0,0,0],"split_type":[0,0,0,0,0,0,0],"sum_hessian":[9.0723715E0,4.333397E0,4.7389746E0,1.2237017E0,3.1096952E0,2.594987E0,2.143988E0],"tree_param":{"num_deleted":"0","num_feature":"53","num_nodes":"7","size_leaf_vector":"0"}},{"base_weights":[1.3678989E-1,4.1900513E-1,-1.0026162E0,9.658872E-1,-1.3243106E-1,6.931585E-2,1.2386534E0,8.6844146E-1,-9.216671E-1],"categories":[],"categories_nodes":[],"categories_segments":[],"categories_sizes":[],"default_left":[1,1,0,1,1,0,0,0,0],"id":95,"left_children":[1,3,-1,5,7,-1,-1,-1,-1],"loss_changes":[3.896011E0,2.9533205E0,0E0,1.0939918E0,5.180142E0,0E0,0E0,0E0,0E0],"parents":[2147483647,0,0,1,1,3,3,4,4],"right_children":[2,4,-1,6,8,-1,-1,-1,-1],"split_conditions":[6.135438E-1,5.270669E-2,-1.0026162E-2,-3.9397883E-1,-2.831631E-1,6.931585E-4,1.2386534E-2,8.684414E-3,-9.216671E-3],"split_indices":[17,2,0,12,45,0,0,0,0],"split_type":[0,0,0,0,0,0,0,0,0],"sum_hessian":[9.809598E0,8.368978E0,1.4406208E0,3.8244889E0,4.5444884E0,1.1846651E0,2.639824E0,1.9593607E0,2.5851276E0],"tree_param":{"num_deleted":"0","num_feature":"53","num_nodes":"9","size_leaf_vector":"0"}},{"base_weights":[-5.8309935E-2,1.0264194E0,-3.1901142E-1,-1.0535291E0,2.4167117E-1,-1.86088E-1,-1.2898335E0,6.68735E-1,-5.0187755E-1],"categories":[],"categories_nodes":[],"categories_segments":[],"categories_sizes":[],"default_left":[1,0,1,1,1,0,0,0,0],"id":96,"left_children":[1,-1,3,5,7,-1,-1,-1,-1],"loss_changes":[3.8601182E0,0E0,4.716598E0,7.5961876E-1,2.5450037E0,0E0,0E0,0E0,0E0],"parents":[2147483647,0,0,2,2,3,3,4,4],"right_children":[2,-1,4,6,8,-1,-1,-1,-1],"split_conditions":[-4.072662E-1,1.0264194E-2,4.5566104E-2,-5.614083E-1,2.3321566E-1,-1.86088E-3,-1.2898335E-2,6.68735E-3,-5.0187754E-3],"split_indices":[32,0,33,36,38,0,0,0,0],"split_type":[0,0,0,0,0,0,0,0,0],"sum_hessian":[1.14922085E1,1.6576978E0,9.834511E0,3.8767688E0,5.9577417E0,1.2126799E0,2.664089E0,3.8481433E0,2.1095982E0],"tree_param":{"num_deleted":"0","num_feature":"53","num_nodes":"9","size_leaf_vector":"0"}},{"base_weights":[-3.7618604E-2,7.00542E-1,-7.335647E-1,-2.4018455E-1,1.0396191E0,-1.2231543E0,2.3707551E-1],"categories":[],"categories_nodes":[],"categories_segments":[],"categories_sizes":[],"default_left":[1,1,1,0,0,0,0],"id":97,"left_children":[1,3,5,-1,-1,-1,-1],"loss_changes":[5.5498652E0,1.9303067E0,2.9199371E0,0E0,0E0,0E0,0E0],"parents":[2147483647,0,0,1,1,2,2],"right_children":[2,4,6,-1,-1,-1,-1],"split_conditions":[-2.7472824E-2,-3.4347403E-1,3.7348205E-1,-2.4018453E-3,1.0396191E-2,-1.2231543E-2,2.370755E-3],"split_indices":[10,9,38,0,0,0,0],"split_type":[0,0,0,0,0,0,0],"sum_hessian":[8.802953E0,4.2687097E0,4.5342436E0,1.2082433E0,3.0604663E0,2.841063E0,1.6931807E0],"tree_param":{"num_deleted":"0","num_feature":"53","num_nodes":"7","size_leaf_vector":"0"}},{"base_weights":[-1.1057436E-1,9.9846303E-1,-8.248515E-1,5.150762E-2,-1.2319424E0],"categories":[],"categories_nodes":[],"categories_segments":[],"categories_sizes":[],"default_left":[1,0,1,0,0],"id":98,"left_children":[1,-1,3,-1,-1],"loss_changes":[8.164676E0,0E0,2.2697892E0,0E0,0E0],"parents":[2147483647,0,0,2,2],"right_children":[2,-1,4,-1,-1],"split_conditions":[-1.11134425E-1,9.98463E-3,-4.7426385E-1,5.1507616E-4,-1.2319424E-2],"split_indices":[11,0,33,0,0],"split_type":[0,0,0,0,0],"sum_hessian":[8.267181E0,3.0827775E0,5.184404E0,1.9214668E0,3.262937E0],"tree_param":{"num_deleted":"0","num_feature":"53","num_nodes":"5","size_leaf_vector":"0"}},{"base_weights":[1.3567121E-1,5.9563684E-1,-2.781823E-1,-1.4948557E-1,1.205522E0,-1.1066967E0,1.9254324E-1,6.043917E-1,-9.0664166E-1,6.7902195E-1,-4.5198548E-1],"categories":[],"categories_nodes":[],"categories_segments":[],"categories_sizes":[],"default_left":[1,1,1,1,0,0,1,0,0,0,0],"id":99,"left_children":[1,3,5,7,-1,-1,9,-1,-1,-1,-1],"loss_changes":[2.4490156E0,2.9065192E0,2.941376E0,2.5971153E0,0E0,0E0,1.9727383E0,0E0,0E0,0E0,0E0],"parents":[2147483647,0,0,1,1,2,2,3,3,6,6],"right_children":[2,4,6,8,-1,-1,10,-1,-1,-1,-1],"split_conditions":[7.26992E-2,-3.992198E-1,-4.9460724E-2,-1.1786519E-2,1.2055219E-2,-1.1066967E-2,-2.7472824E-2,6.043917E-3,-9.066417E-3,6.7902193E-3,-4.5198547E-3],"split_indices":[35,29,1,18,0,0,10,0,0,0,0],"split_type":[0,0,0,0,0,0,0,0,0,0,0],"sum_hessian":[1.0994848E1,4.9992876E0,5.9955606E0,2.5899417E0,2.4093456E0,1.6827469E0,4.3128138E0,1.3988801E0,1.1910616E0,2.4272509E0,1.8855627E0],"tree_param":{"num_deleted":"0","num_feature":"53","num_nodes":"11","size_leaf_vector":"0"}},{"base_weights":[-4.6746165E-2,6.838403E-1,-5.058564E-1,-1.3875793E-1,1.138756E0,-8.3746487E-1,3.310375E-1,-1.2308211E0,-1.6031647E-1],"categories":[],"categories_nodes":[],"categories_segments":[],"categories_sizes":[],"default_left":[1,1,1,0,0,1,0,0,0],"id":100,"left_children":[1,3,5,-1,-1,7,-1,-1,-1],"loss_changes":[4.346474E0,2.0395124E0,2.4694011E0,0E0,0E0,1.3850541E0,0E0,0E0,0E0],"parents":[2147483647,0,0,1,1,2,2,5,5],"right_children":[2,4,6,-1,-1,8,-1,-1,-1],"split_conditions":[-2.2750008E-1,-1.3418671E-2,4.1046014E-1,-1.3875793E-3,1.13875605E-2,4.895203E-2,3.310375E-3,-1.2308211E-2,-1.6031646E-3],"split_indices":[39,50,19,0,0,3,0,0,0],"split_type":[0,0,0,0,0,0,0,0,0],"sum_hessian":[1.0926995E1,4.027889E0,6.899107E0,1.6817883E0,2.3461003E0,4.940726E0,1.9583813E0,2.608052E0,2.3326738E0],"tree_param":{"num_deleted":"0","num_feature":"53","num_nodes":"9","size_leaf_vector":"0"}},{"base_weights":[-3.428339E-2,5.9286183E-1,-5.702014E-1,-1.6628169E-1,1.091935E0,-1.0593737E0,7.726499E-2],"categories":[],"categories_nodes":[],"categories_segments":[],"categories_sizes":[],"default_left":[1,1,1,0,0,0,0],"id":101,"left_children":[1,3,5,-1,-1,-1,-1],"loss_changes":[3.3059683E0,1.908901E0,1.7513963E0,0E0,0E0,0E0,0E0],"parents":[2147483647,0,0,1,1,2,2],"right_children":[2,4,6,-1,-1,-1,-1],"split_conditions":[1.3621049E-1,-3.4618667E-1,1.8905108E-1,-1.6628169E-3,1.091935E-2,-1.05937375E-2,7.7264983E-4],"split_indices":[12,22,30,0,0,0,0],"split_type":[0,0,0,0,0,0,0],"sum_hessian":[7.8305016E0,3.5591898E0,4.2713118E0,1.6762516E0,1.8829381E0,2.0706873E0,2.2006245E0],"tree_param":{"num_deleted":"0","num_feature":"53","num_nodes":"7","size_leaf_vector":"0"}},{"base_weights":[3.731813E-1,-5.008709E-1,6.6137624E-1,1.1707577E0,2.1040896E-1,6.7193973E-1,-3.5628113E-1],"categories":[],"categories_nodes":[],"categories_segments":[],"categories_sizes":[],"default_left":[1,0,1,0,1,0,0],"id":102,"left_children":[1,-1,3,-1,5,-1,-1],"loss_changes":[2.9020627E0,0E0,1.6157341E0,0E0,1.6827723E0,0E0,0E0],"parents":[2147483647,0,0,2,2,4,4],"right_children":[2,-1,4,-1,6,-1,-1],"split_conditions":[-2.1471389E-1,-5.0087087E-3,-2.397204E-1,1.1707576E-2,4.73253E-2,6.7193974E-3,-3.5628113E-3],"split_indices":[50,0,18,0,35,0,0],"split_type":[0,0,0,0,0,0,0],"sum_hessian":[9.205734E0,2.0996997E0,7.1060348E0,2.5873923E0,4.5186424E0,2.388028E0,2.1306143E0],"tree_param":{"num_deleted":"0","num_feature":"53","num_nodes":"7","size_leaf_vector":"0"}},{"base_weights":[-9.979219E-2,-6.331663E-1,4.04331E-1,-1.0040064E0,5.4458335E-2,9.7378725E-1,-6.838762E-1,2.005913E-1,1.2003399E0],"categories":[],"categories_nodes":[],"categories_segments":[],"categories_sizes":[],"default_left":[1,1,1,0,0,1,0,0,0],"id":103,"left_children":[1,3,5,-1,-1,7,-1,-1,-1],"loss_changes":[3.091575E0,1.4607029E0,4.403737E0,0E0,0E0,5.251012E-1,0E0,0E0,0E0],"parents":[2147483647,0,0,1,1,2,2,5,5],"right_children":[2,4,6,-1,-1,8,-1,-1,-1],"split_conditions":[2.703534E-2,3.770092E-1,4.5381784E-1,-1.0040063E-2,5.4458337E-4,-5.5991758E-2,-6.838762E-3,2.0059128E-3,1.20033985E-2],"split_indices":[1,38,22,0,0,36,0,0,0],"split_type":[0,0,0,0,0,0,0,0,0],"sum_hessian":[9.545596E0,4.5138555E0,5.03174E0,2.6334903E0,1.8803654E0,3.372214E0,1.6595263E0,1.1914276E0,2.1807866E0],"tree_param":{"num_deleted":"0","num_feature":"53","num_nodes":"9","size_leaf_vector":"0"}},{"base_weights":[1.5845194E-2,5.655833E-1,-8.4978044E-1,-6.391323E-2,1.0484258E0,-1.0732243E0,-1.4611474E-1,6.185014E-1,-7.185476E-1],"categories":[],"categories_nodes":[],"categories_segments":[],"categories_sizes":[],"default_left":[1,1,1,1,0,0,0,0,0],"id":104,"left_children":[1,3,5,7,-1,-1,-1,-1,-1],"loss_changes":[5.2278705E0,2.1039548E0,5.152421E-1,2.1650465E0,0E0,0E0,0E0,0E0,0E0],"parents":[2147483647,0,0,1,1,2,2,3,3],"right_children":[2,4,6,8,-1,-1,-1,-1,-1],"split_conditions":[1.0788444E-1,6.0789198E-2,1.4522938E-1,-2.138246E-1,1.0484258E-2,-1.0732243E-2,-1.4611473E-3,6.1850143E-3,-7.1854754E-3],"split_indices":[9,50,20,19,0,0,0,0,0],"split_type":[0,0,0,0,0,0,0,0,0],"sum_hessian":[8.975991E0,5.7016373E0,3.2743542E0,2.8515782E0,2.850059E0,2.0865839E0,1.1877702E0,1.4231894E0,1.428389E0],"tree_param":{"num_deleted":"0","num_feature":"53","num_nodes":"9","size_leaf_vector":"0"}},{"base_weights":[2.320363E-1,-7.953929E-1,5.485043E-1,8.5607654E-1,-5.3928775E-1,1.3090857E0,7.0972204E-2],"categories":[],"categories_nodes":[],"categories_segments":[],"categories_sizes":[],"default_left":[1,0,1,1,0,0,0],"id":105,"left_children":[1,-1,3,5,-1,-1,-1],"loss_changes":[4.1446676E0,0E0,3.5770025E0,2.626237E0,0E0,0E0,0E0],"parents":[2147483647,0,0,2,2,3,3],"right_children":[2,-1,4,6,-1,-1,-1],"split_conditions":[-2.1834701E-1,-7.953929E-3,2.2875892E-1,1.5083863E-1,-5.3928774E-3,1.3090857E-2,7.0972205E-4],"split_indices":[50,0,41,10,0,0,0],"split_type":[0,0,0,0,0,0,0],"sum_hessian":[1.0405225E1,2.0939074E0,8.311317E0,6.645362E0,1.6659557E0,3.7907033E0,2.8546588E0],"tree_param":{"num_deleted":"0","num_feature":"53","num_nodes":"7","size_leaf_vector":"0"}},{"base_weights":[2.2869477E-2,3.6225855E-1,-8.3940244E-1,-4.5608196E-1,9.182869E-1,-1.0560584E0,3.5367602E-1,-1.17987856E-1,1.2611384E0],"categories":[],"categories_nodes":[],"categories_segments":[],"categories_sizes":[],"default_left":[1,1,0,1,1,0,0,0,0],"id":106,"left_children":[1,3,-1,5,7,-1,-1,-1,-1],"loss_changes":[3.2279065E0,3.9988027E0,0E0,2.244557E0,1.931119E0,0E0,0E0,0E0,0E0],"parents":[2147483647,0,0,1,1,3,3,4,4],"right_children":[2,4,-1,6,8,-1,-1,-1,-1],"split_conditions":[2.781994E-1,-4.5742935E-1,-8.394024E-3,-4.1877714E-1,-1.856286E-1,-1.0560584E-2,3.53676E-3,-1.1798785E-3,1.26113845E-2],"split_indices":[34,31,0,4,41,0,0,0,0],"split_type":[0,0,0,0,0,0,0,0,0],"sum_hessian":[8.991011E0,6.867752E0,2.123259E0,2.8512077E0,4.0165443E0,1.463033E0,1.3881749E0,1.1615628E0,2.8549812E0],"tree_param":{"num_deleted":"0","num_feature":"53","num_nodes":"9","size_leaf_vector":"0"}},{"base_weights":[1.03668876E-1,-1.9559367E-1,7.954643E-1,3.549048E-1,-5.2729565E-1,6.2015362E-2,1.091549E0,7.776512E-1,-3.615599E-1,-9.6822035E-1,1.3004827E-1],"categories":[],"categories_nodes":[],"categories_segments":[],"categories_sizes":[],"default_left":[1,1,1,1,1,0,0,0,0,0,0],"id":107,"left_children":[1,3,5,7,9,-1,-1,-1,-1,-1,-1],"loss_changes":[2.670228E0,1.8819087E0,7.716644E-1,1.5191698E0,1.9211357E0,0E0,0E0,0E0,0E0,0E0,0E0],"parents":[2147483647,0,0,1,1,2,2,3,3,4,4],"right_children":[2,4,6,8,10,-1,-1,-1,-1,-1,-1],"split_conditions":[1.75005E-1,-6.312757E-2,-4.2765698E-1,-2.0983793E-2,4.2041892E-1,6.201536E-4,1.091549E-2,7.776512E-3,-3.615599E-3,-9.682204E-3,1.3004828E-3],"split_indices":[41,10,10,41,38,0,0,0,0,0,0],"split_type":[0,0,0,0,0,0,0,0,0,0,0],"sum_hessian":[1.114635E1,8.281246E0,2.865103E0,3.087397E0,5.1938496E0,1.1718055E0,1.6932976E0,1.8879948E0,1.1994023E0,2.825601E0,2.3682485E0],"tree_param":{"num_deleted":"0","num_feature":"53","num_nodes":"11","size_leaf_vector":"0"}},{"base_weights":[-1.319055E-1,3.6828735E-1,-9.474191E-1,-6.367223E-1,6.37047E-1,-1.1965342E0,-1.0920041E-1,-4.8211277E-1,9.425443E-1],"categories":[],"categories_nodes":[],"categories_segments":[],"categories_sizes":[],"default_left":[1,1,1,0,1,0,0,0,0],"id":108,"left_children":[1,3,5,-1,7,-1,-1,-1,-1],"loss_changes":[5.185528E0,2.5852032E0,8.690443E-1,0E0,2.8021147E0,0E0,0E0,0E0,0E0],"parents":[2147483647,0,0,1,1,2,2,4,4],"right_children":[2,4,6,-1,8,-1,-1,-1,-1],"split_conditions":[1.9632527E-1,-5.086831E-1,2.3693302E-1,-6.3672233E-3,-3.9577197E-2,-1.1965341E-2,-1.0920041E-3,-4.8211277E-3,9.425443E-3],"split_indices":[35,22,42,0,41,0,0,0,0],"split_type":[0,0,0,0,0,0,0,0,0],"sum_hessian":[1.0856923E1,7.069354E0,3.7875688E0,1.2027252E0,5.8666286E0,2.590277E0,1.197292E0,1.1340439E0,4.732585E0],"tree_param":{"num_deleted":"0","num_feature":"53","num_nodes":"9","size_leaf_vector":"0"}},{"base_weights":[-2.3308E-1,-5.510462E-1,6.930809E-1,2.1819106E-1,-1.152487E0,6.3281935E-1,-3.992845E-1],"categories":[],"categories_nodes":[],"categories_segments":[],"categories_sizes":[],"default_left":[1,1,0,1,0,0,0],"id":109,"left_children":[1,3,-1,5,-1,-1,-1],"loss_changes":[3.5220842E0,4.1816807E0,0E0,1.4222751E0,0E0,0E0,0E0],"parents":[2147483647,0,0,1,1,3,3],"right_children":[2,4,-1,6,-1,-1,-1],"split_conditions":[4.612736E-1,-2.2750008E-1,6.930809E-3,2.8280975E-2,-1.152487E-2,6.3281935E-3,-3.992845E-3],"split_indices":[24,39,0,28,0,0,0],"split_type":[0,0,0,0,0,0,0],"sum_hessian":[9.6631365E0,7.495001E0,2.1681356E0,3.5683427E0,3.9266584E0,2.1199617E0,1.448381E0],"tree_param":{"num_deleted":"0","num_feature":"53","num_nodes":"7","size_leaf_vector":"0"}},{"base_weights":[-1.1661628E-1,-5.017971E-1,5.719213E-1,5.807559E-1,-1.2270907E0,1.0110914E0,-1.8427251E-1],"categories":[],"categories_nodes":[],"categories_segments":[],"categories_sizes":[],"default_left":[1,1,1,0,0,0,0],"id":110,"left_children":[1,3,5,-1,-1,-1,-1],"loss_changes":[2.6200235E0,5.5601044E0,1.3895391E0,0E0,0E0,0E0,0E0],"parents":[2147483647,0,0,1,1,2,2],"right_children":[2,4,6,-1,-1,-1,-1],"split_conditions":[4.8703468E-1,-7.3903136E-2,7.421855E-1,5.8075585E-3,-1.2270907E-2,1.0110913E-2,-1.8427251E-3],"split_indices":[47,34,15,0,0,0,0],"split_type":[0,0,0,0,0,0,0],"sum_hessian":[7.7968855E0,5.1737857E0,2.6230996E0,2.1556318E0,3.0181541E0,1.446149E0,1.1769506E0],"tree_param":{"num_deleted":"0","num_feature":"53","num_nodes":"7","size_leaf_vector":"0"}},{"base_weights":[1.3189211E-1,-3.7241703E-1,8.656203E-1,1.8604265E-1,-9.364599E-1,1.1720574E0,-1.362446E-2,7.6454324E-1,-4.711235E-1],"categories":[],"categories_nodes":[],"categories_segments":[],"categories_sizes":[],"default_left":[1,1,1,1,0,0,0,0,0],"id":111,"left_children":[1,3,5,7,-1,-1,-1,-1,-1],"loss_changes":[4.1759405E0,2.3386426E0,1.240015E0,1.9899838E0,0E0,0E0,0E0,0E0,0E0],"parents":[2147483647,0,0,1,1,2,2,3,3],"right_children":[2,4,6,8,-1,-1,-1,-1,-1],"split_conditions":[-6.5008793E-3,-2.1412775E-1,7.237239E-2,9.378386E-2,-9.364598E-3,1.17205735E-2,-1.362446E-4,7.6454324E-3,-4.711235E-3],"split_indices":[1,0,9,41,0,0,0,0,0],"split_type":[0,0,0,0,0,0,0,0,0],"sum_hessian":[9.414325E0,5.8712826E0,3.5430424E0,3.2869906E0,2.5842917E0,2.3803933E0,1.1626494E0,1.661226E0,1.6257645E0],"tree_param":{"num_deleted":"0","num_feature":"53","num_nodes":"9","size_leaf_vector":"0"}},{"base_weights":[-3.2906973E-1,2.8156278E-1,-8.346145E-1,-3.8759607E-1,8.7117845E-1,-8.967382E-2,-1.1885837E0,-6.850632E-1,9.0800285E-2],"categories":[],"categories_nodes":[],"categories_segments":[],"categories_sizes":[],"default_left":[1,1,1,1,0,0,0,0,0],"id":112,"left_children":[1,3,5,7,-1,-1,-1,-1,-1],"loss_changes":[3.6553864E0,2.6126652E0,1.5582743E0,5.4504603E-1,0E0,0E0,0E0,0E0,0E0],"parents":[2147483647,0,0,1,1,2,2,3,3],"right_children":[2,4,6,8,-1,-1,-1,-1,-1],"split_conditions":[-2.7076318E-3,-2.9616445E-1,2.5455235E-2,-1.24531716E-1,8.711784E-3,-8.9673814E-4,-1.1885837E-2,-6.850632E-3,9.0800284E-4],"split_indices":[10,21,35,31,0,0,0,0,0],"split_type":[0,0,0,0,0,0,0,0,0],"sum_hessian":[1.0079906E1,4.766112E0,5.313794E0,2.3929577E0,2.3731544E0,2.115335E0,3.198459E0,1.2091243E0,1.1838332E0],"tree_param":{"num_deleted":"0","num_feature":"53","num_nodes":"9","size_leaf_vector":"0"}},{"base_weights":[1.7057627E-1,7.9943544E-1,-4.931677E-1,-5.826624E-1,1.2866745E0,-1.1224812E0,2.5996158E-1,9.3624663E-1,-5.41269E-1],"categories":[],"categories_nodes":[],"categories_segments":[],"categories_sizes":[],"default_left":[1,1,1,0,0,0,1,0,0],"id":113,"left_children":[1,3,5,-1,-1,-1,7,-1,-1],"loss_changes":[4.72982E0,4.5983896E0,2.9799886E0,0E0,0E0,0E0,2.345767E0,0E0,0E0],"parents":[2147483647,0,0,1,1,2,2,6,6],"right_children":[2,4,6,-1,-1,-1,8,-1,-1],"split_conditions":[9.31637E-2,-6.294969E-1,5.086668E-1,-5.826624E-3,