{"learner":{"attributes":{"niter":"109"},"feature_names":[],"feature_types":[],"gradient_booster":{"model":{"gbtree_model_param":{"num_parallel_tree":"1","num_trees":"110","size_leaf_vector":"0"},"tree_info":[0,0,0,0,0,0,0,0,0,0,0,0,0,0,0,0,0,0,0,0,0,0,0,0,0,0,0,0,0,0,0,0,0,0,0,0,0,0,0,0,0,0,0,0,0,0,0,0,0,0,0,0,0,0,0,0,0,0,0,0,0,0,0,0,0,0,0,0,0,0,0,0,0,0,0,0,0,0,0,0,0,0,0,0,0,0,0,0,0,0,0,0,0,0,0,0,0,0,0,0,0,0,0,0,0,0,0,0,0,0],"trees":[{"base_weights":[5E-1,1.1304348E0,-7.692308E-1,1.5294118E0,-0E0,-0E0,-1.1111112E0],"categories":[],"categories_nodes":[],"categories_segments":[],"categories_sizes":[],"default_left":[1,1,1,0,0,0,0],"id":0,"left_children":[1,3,5,-1,-1,-1,-1],"loss_changes":[7.2709026E0,2.5933504E0,8.547008E-1,0E0,0E0,0E0,0E0],"parents":[2147483647,0,0,1,1,2,2],"right_children":[2,4,6,-1,-1,-1,-1],"split_conditions":[8.751687E-2,1.24537855E-1,1.09612525E-1,1.5294118E-2,-0E0,-0E0,-1.1111111E-2],"split_indices":[31,28,4,0,0,0,0],"split_type":[0,0,0,0,0,0,0],"sum_hessian":[7E0,4.75E0,2.25E0,3.25E0,1.5E0,1E0,1.25E0],"tree_param":{"num_deleted":"0","num_feature":"53","num_nodes":"7","size_leaf_vector":"0"}},{"base_weights":[-3.3047737E-3,6.025454E-1,-1.0741729E0,9.3993425E-1,-5E-1,1.3269932E0,1.7588168E-1],"categories":[],"categories_nodes":[],"categories_segments":[],"categories_sizes":[],"default_left":[1,1,0,1,0,0,0],"id":1,"left_children":[1,3,-1,5,-1,-1,-1],"loss_changes":[5.8373733E0,2.6088328E0,0E0,1.1712942E0,0E0,0E0,0E0],"parents":[2147483647,0,0,1,1,3,3],"right_children":[2,4,-1,6,-1,-1,-1],"split_conditions":[4.0232897E-1,3.399517E-1,-1.0741728E-2,1.2704723E-1,-5E-3,1.3269932E-2,1.7588168E-3],"split_indices":[4,50,0,9,0,0,0],"split_type":[0,0,0,0,0,0,0],"sum_hessian":[6.9997706E0,4.749846E0,2.2499244E0,3.749846E0,1E0,1.9999269E0,1.7499192E0],"tree_param":{"num_deleted":"0","num_feature":"53","num_nodes":"7","size_leaf_vector":"0"}},{"base_weights":[1.7536165E-1,8.214438E-1,-1.0713159E0,1.278868E0,-1.8417573E-1],"categories":[],"categories_nodes":[],"categories_segments":[],"categories_sizes":[],"default_left":[1,1,0,0,0],"id":2,"left_children":[1,3,-1,-1,-1],"loss_changes":[7.524536E0,2.9952774E0,0E0,0E0,0E0],"parents":[2147483647,0,0,1,1],"right_children":[2,4,-1,-1,-1],"split_conditions":[3.89906E-1,9.492395E-3,-1.0713158E-2,1.2788679E-2,-1.8417572E-3],"split_indices":[31,4,0,0,0],"split_type":[0,0,0,0,0],"sum_hessian":[7.2493753E0,4.999508E0,2.2498674E0,3.2496326E0,1.7498753E0],"tree_param":{"num_deleted":"0","num_feature":"53","num_nodes":"5","size_leaf_vector":"0"}},{"base_weights":[5.0901574E-1,1.3132726E0,-1.0608852E-1,-1.1062064E0,5.671985E-1,1.1042109E0,-2.2197463E-1],"categories":[],"categories_nodes":[],"categories_segments":[],"categories_sizes":[],"default_left":[1,0,1,0,1,0,0],"id":3,"left_children":[1,-1,3,-1,5,-1,-1],"loss_changes":[3.4780307E0,0E0,3.8255398E0,0E0,1.728207E0,0E0,0E0],"parents":[2147483647,0,0,2,2,4,4],"right_children":[2,-1,4,-1,6,-1,-1],"split_conditions":[-3.6360174E-1,1.3132726E-2,-3.555333E-2,-1.1062064E-2,3.897096E-1,1.1042108E-2,-2.2197461E-3],"split_indices":[6,0,6,0,8,0,0],"split_type":[0,0,0,0,0,0,0],"sum_hessian":[5.7489285E0,1.9995068E0,3.7494216E0,1.2498575E0,2.4995642E0,1.2498637E0,1.2497004E0],"tree_param":{"num_deleted":"0","num_feature":"53","num_nodes":"7","size_leaf_vector":"0"}},{"base_weights":[-7.679327E-2,7.1404827E-1,-1.1280398E0,-2.3934992E-1,1.1229182E0],"categories":[],"categories_nodes":[],"categories_segments":[],"categories_sizes":[],"default_left":[1,1,0,0,0],"id":4,"left_children":[1,3,-1,-1,-1],"loss_changes":[6.8316493E0,2.1199884E0,0E0,0E0,0E0],"parents":[2147483647,0,0,1,1],"right_children":[2,4,-1,-1,-1],"split_conditions":[3.89906E-1,-3.0309245E-1,-1.1280398E-2,-2.393499E-3,1.1229183E-2],"split_indices":[31,49,0,0,0],"split_type":[0,0,0,0,0],"sum_hessian":[6.2484922E0,3.7489545E0,2.499538E0,1.2496476E0,2.499307E0],"tree_param":{"num_deleted":"0","num_feature":"53","num_nodes":"5","size_leaf_vector":"0"}},{"base_weights":[4.876994E-1,1.1770175E0,-4.9575004E-1,1.441048E0,2.1372409E-1,-8.973809E-1,2.1551023E-1],"categories":[],"categories_nodes":[],"categories_segments":[],"categories_sizes":[],"default_left":[1,1,1,0,0,0,0],"id":5,"left_children":[1,3,5,-1,-1,-1,-1],"loss_changes":[6.005065E0,9.632535E-1,1.3358369E0,0E0,0E0,0E0,0E0],"parents":[2147483647,0,0,1,1,2,2],"right_children":[2,4,6,-1,-1,-1,-1],"split_conditions":[1.1435426E-1,1.9942895E-1,-1.3697308E-1,1.441048E-2,2.137241E-3,-8.973809E-3,2.1551023E-3],"split_indices":[28,2,11,0,0,0,0],"split_type":[0,0,0,0,0,0,0],"sum_hessian":[6.997467E0,3.9982166E0,2.9992504E0,2.748827E0,1.2493896E0,1.7496114E0,1.2496389E0],"tree_param":{"num_deleted":"0","num_feature":"53","num_nodes":"7","size_leaf_vector":"0"}},{"base_weights":[2.8975043E-1,1.4346113E0,-5.434593E-1,4.4734994E-1,-1.3668901E0],"categories":[],"categories_nodes":[],"categories_segments":[],"categories_sizes":[],"default_left":[1,0,1,0,0],"id":6,"left_children":[1,-1,3,-1,-1],"loss_changes":[8.646042E0,0E0,5.097193E0,0E0,0E0],"parents":[2147483647,0,0,2,2],"right_children":[2,-1,4,-1,-1],"split_conditions":[-2.5499767E-1,1.43461125E-2,-4.0615078E-2,4.4734995E-3,-1.36689E-2],"split_indices":[31,0,48,0,0],"split_type":[0,0,0,0,0],"sum_hessian":[7.2464757E0,2.748351E0,4.4981246E0,2.2488618E0,2.2492628E0],"tree_param":{"num_deleted":"0","num_feature":"53","num_nodes":"5","size_leaf_vector":"0"}},{"base_weights":[1.2475388E-1,1.0324559E0,-8.119581E-1,1.3036649E0,2.1177651E-1,-1.1940849E0,-1.6920917E-1],"categories":[],"categories_nodes":[],"categories_segments":[],"categories_sizes":[],"default_left":[1,1,1,0,0,0,0],"id":7,"left_children":[1,3,5,-1,-1,-1,-1],"loss_changes":[7.2116723E0,6.6921186E-1,8.4148836E-1,0E0,0E0,0E0,0E0],"parents":[2147483647,0,0,1,1,2,2],"right_children":[2,4,6,-1,-1,-1,-1],"split_conditions":[1.6293144E-1,-6.4195534E-3,2.2740138E-1,1.3036649E-2,2.1177651E-3,-1.1940849E-2,-1.6920916E-3],"split_indices":[42,4,42,0,0,0,0],"split_type":[0,0,0,0,0,0,0],"sum_hessian":[6.4958205E0,3.2470849E0,3.248736E0,1.9982173E0,1.2488676E0,1.4994847E0,1.7492511E0],"tree_param":{"num_deleted":"0","num_feature":"53","num_nodes":"7","size_leaf_vector":"0"}},{"base_weights":[4.4618502E-1,1.3818991E0,-4.8373365E-1,4.0834087E-1,-1.1822964E0],"categories":[],"categories_nodes":[],"categories_segments":[],"categories_sizes":[],"default_left":[1,0,1,0,0],"id":8,"left_children":[1,-1,3,-1,-1],"loss_changes":[6.320336E0,0E0,2.974516E0,0E0,0E0],"parents":[2147483647,0,0,2,2],"right_children":[2,-1,4,-1,-1],"split_conditions":[-1.5738286E-1,1.381899E-2,-1.2599899E-1,4.0834085E-3,-1.1822964E-2],"split_indices":[31,0,10,0,0],"split_type":[0,0,0,0,0],"sum_hessian":[5.4953656E0,2.4968808E0,2.9984848E0,1.4993058E0,1.499179E0],"tree_param":{"num_deleted":"0","num_feature":"53","num_nodes":"5","size_leaf_vector":"0"}},{"base_weights":[6.820395E-1,1.226957E0,-7.887184E-1,1.4676259E0,2.2710867E-1],"categories":[],"categories_nodes":[],"categories_segments":[],"categories_sizes":[],"default_left":[1,1,0,0,0],"id":9,"left_children":[1,3,-1,-1,-1],"loss_changes":[6.5709825E0,9.8840714E-1,0E0,0E0,0E0],"parents":[2147483647,0,0,1,1],"right_children":[2,4,-1,-1,-1],"split_conditions":[8.698893E-2,2.4563056E-1,-7.887184E-3,1.4676258E-2,2.2710867E-3],"split_indices":[17,50,0,0,0],"split_type":[0,0,0,0,0],"sum_hessian":[5.991473E0,4.4926915E0,1.4987819E0,3.2439961E0,1.2486955E0],"tree_param":{"num_deleted":"0","num_feature":"53","num_nodes":"5","size_leaf_vector":"0"}},{"base_weights":[6.7687744E-1,1.2561088E0,-6.58517E-1,1.5112181E0,1.8745738E-1],"categories":[],"categories_nodes":[],"categories_segments":[],"categories_sizes":[],"default_left":[1,1,0,0,0],"id":10,"left_children":[1,3,-1,-1,-1],"loss_changes":[6.8149614E0,1.2824268E0,0E0,0E0,0E0],"parents":[2147483647,0,0,1,1],"right_children":[2,4,-1,-1,-1],"split_conditions":[8.820863E-2,1.7730433E-1,-6.58517E-3,1.511218E-2,1.8745738E-3],"split_indices":[3,2,0,0,0],"split_type":[0,0,0,0,0],"sum_hessian":[6.7411427E0,4.7431564E0,1.997986E0,3.494751E0,1.2484056E0],"tree_param":{"num_deleted":"0","num_feature":"53","num_nodes":"5","size_leaf_vector":"0"}},{"base_weights":[8.1623936E-1,1.2225102E0,-4.0388724E-1,1.7884672E-1,1.4869359E0],"categories":[],"categories_nodes":[],"categories_segments":[],"categories_sizes":[],"default_left":[1,1,0,0,0],"id":11,"left_children":[1,3,-1,-1,-1],"loss_changes":[3.9588604E0,1.2498302E0,0E0,0E0,0E0],"parents":[2147483647,0,0,1,1],"right_children":[2,4,-1,-1,-1],"split_conditions":[2.0698503E-1,-2.6313823E-1,-4.038872E-3,1.7884672E-3,1.4869358E-2],"split_indices":[2,17,0,0,0],"split_type":[0,0,0,0,0],"sum_hessian":[5.9902983E0,4.492468E0,1.4978303E0,1.2470068E0,3.2454612E0],"tree_param":{"num_deleted":"0","num_feature":"53","num_nodes":"5","size_leaf_vector":"0"}},{"base_weights":[6.523561E-1,1.0712004E0,-4.4907993E-1,-2.4146487E-1,1.399009E0],"categories":[],"categories_nodes":[],"categories_segments":[],"categories_sizes":[],"default_left":[1,1,0,0,0],"id":12,"left_children":[1,3,-1,-1,-1],"loss_changes":[4.7408566E0,3.3435593E0,0E0,0E0,0E0],"parents":[2147483647,0,0,1,1],"right_children":[2,4,-1,-1,-1],"split_conditions":[2.2417575E-1,-4.2792946E-1,-4.4907993E-3,-2.4146487E-3,1.3990089E-2],"split_indices":[47,10,0,0,0],"split_type":[0,0,0,0,0],"sum_hessian":[8.233737E0,5.985192E0,2.2485447E0,1.2486273E0,4.7365646E0],"tree_param":{"num_deleted":"0","num_feature":"53","num_nodes":"5","size_leaf_vector":"0"}},{"base_weights":[5.7239586E-1,1.4514972E0,-3.335265E-1,-1.0889158E0,2.47921E-1,-2.5680697E-1,6.422355E-1],"categories":[],"categories_nodes":[],"categories_segments":[],"categories_sizes":[],"default_left":[1,0,1,0,1,0,0],"id":13,"left_children":[1,-1,3,-1,5,-1,-1],"loss_changes":[6.842803E0,0E0,2.3542037E0,0E0,8.6069554E-1,0E0,0E0],"parents":[2147483647,0,0,2,2,4,4],"right_children":[2,-1,4,-1,6,-1,-1],"split_conditions":[-1.6748837E-1,1.45149715E-2,-5.9690323E-2,-1.0889158E-2,-1.7364158E-1,-2.5680696E-3,6.422355E-3],"split_indices":[48,0,26,0,0,0,0],"split_type":[0,0,0,0,0,0,0],"sum_hessian":[6.984315E0,3.238989E0,3.745326E0,1.2493987E0,2.4959273E0,1.2476473E0,1.24828E0],"tree_param":{"num_deleted":"0","num_feature":"53","num_nodes":"7","size_leaf_vector":"0"}},{"base_weights":[5.298207E-1,1.2014525E0,-2.2075894E-1,-9.9215287E-1,7.9268193E-1],"categories":[],"categories_nodes":[],"categories_segments":[],"categories_sizes":[],"default_left":[1,0,1,0,0],"id":14,"left_children":[1,-1,3,-1,-1],"loss_changes":[4.163505E0,0E0,4.3017445E0,0E0,0E0],"parents":[2147483647,0,0,2,2],"right_children":[2,-1,4,-1,-1],"split_conditions":[-2.7011997E-1,1.2014525E-2,3.2763854E-1,-9.921528E-3,7.926819E-3],"split_indices":[31,0,12,0,0],"split_type":[0,0,0,0,0],"sum_hessian":[6.732934E0,3.2363195E0,3.4966147E0,1.9973279E0,1.4992868E0],"tree_param":{"num_deleted":"0","num_feature":"53","num_nodes":"5","size_leaf_vector":"0"}},{"base_weights":[4.468958E-1,-5.551448E-1,1.0043603E0,2.2002071E-1,-1.0828934E0,1.2963586E-1,1.3780574E0],"categories":[],"categories_nodes":[],"categories_segments":[],"categories_sizes":[],"default_left":[1,1,1,0,0,0,0],"id":15,"left_children":[1,3,5,-1,-1,-1,-1],"loss_changes":[5.015187E0,1.6686757E0,1.6137772E0,0E0,0E0,0E0,0E0],"parents":[2147483647,0,0,1,1,2,2],"right_children":[2,4,6,-1,-1,-1,-1],"split_conditions":[-7.520631E-2,-2.2320187E-1,-3.3690345E-1,2.200207E-3,-1.0828934E-2,1.2963585E-3,1.3780573E-2],"split_indices":[26,26,49,0,0,0,0],"split_type":[0,0,0,0,0,0,0],"sum_hessian":[6.979958E0,2.4965606E0,4.4833975E0,1.2474225E0,1.2491381E0,1.7452161E0,2.7381816E0],"tree_param":{"num_deleted":"0","num_feature":"53","num_nodes":"7","size_leaf_vector":"0"}},{"base_weights":[1.28223E-1,7.668005E-1,-9.260887E-1,1.0862422E0,-2.480429E-1,-1.1856784E0,-2.254479E-1,1.7074317E-1,1.3636984E0],"categories":[],"categories_nodes":[],"categories_segments":[],"categories_sizes":[],"default_left":[1,1,1,1,0,0,0,0,0],"id":16,"left_children":[1,3,5,7,-1,-1,-1,-1,-1],"loss_changes":[6.586756E0,2.2090654E0,4.1391802E-1,9.703078E-1,0E0,0E0,0E0,0E0,0E0],"parents":[2147483647,0,0,1,1,2,2,3,3],"right_children":[2,4,6,8,-1,-1,-1,-1,-1],"split_conditions":[8.523224E-3,9.1388345E-2,2.559378E-1,-4.201057E-1,-2.480429E-3,-1.1856783E-2,-2.2544789E-3,1.7074316E-3,1.3636983E-2],"split_indices":[4,3,16,16,0,0,0,0,0],"split_type":[0,0,0,0,0,0,0,0,0],"sum_hessian":[7.7286234E0,4.983131E0,2.745492E0,3.7366068E0,1.2465242E0,1.4981467E0,1.2473454E0,1.2447609E0,2.491846E0],"tree_param":{"num_deleted":"0","num_feature":"53","num_nodes":"9","size_leaf_vector":"0"}},{"base_weights":[4.211358E-1,1.1349335E0,-9.6442777E-1,1.3917874E0,1.743814E-1],"categories":[],"categories_nodes":[],"categories_segments":[],"categories_sizes":[],"default_left":[1,1,0,0,0],"id":17,"left_children":[1,3,-1,-1,-1],"loss_changes":[8.239546E0,1.0470157E0,0E0,0E0,0E0],"parents":[2147483647,0,0,1,1],"right_children":[2,4,-1,-1,-1],"split_conditions":[1.6788453E-1,2.200923E-1,-9.644277E-3,1.3917874E-2,1.743814E-3],"split_indices":[31,26,0,0,0],"split_type":[0,0,0,0,0],"sum_hessian":[6.2243648E0,4.227421E0,1.9969442E0,2.9812753E0,1.2461452E0],"tree_param":{"num_deleted":"0","num_feature":"53","num_nodes":"5","size_leaf_vector":"0"}},{"base_weights":[3.1334676E-2,6.6290474E-1,-9.0158963E-1,1.1579556E0,-3.9148116E-1,-2.1261941E-1,-1.1606932E0],"categories":[],"categories_nodes":[],"categories_segments":[],"categories_sizes":[],"default_left":[1,1,1,0,0,0,0],"id":18,"left_children":[1,3,5,-1,-1,-1,-1],"loss_changes":[5.444038E0,3.3143015E0,4.2160177E-1,0E0,0E0,0E0,0E0],"parents":[2147483647,0,0,1,1,2,2],"right_children":[2,4,6,-1,-1,-1,-1],"split_conditions":[1.1137165E-1,1.02272354E-1,-1.980159E-1,1.1579556E-2,-3.9148116E-3,-2.126194E-3,-1.1606932E-2],"split_indices":[4,42,41,0,0,0,0],"split_type":[0,0,0,0,0,0,0],"sum_hessian":[7.22524E0,4.481078E0,2.7441618E0,2.9825134E0,1.4985648E0,1.2475244E0,1.4966376E0],"tree_param":{"num_deleted":"0","num_feature":"53","num_nodes":"7","size_leaf_vector":"0"}},{"base_weights":[3.8038915E-1,1.1568141E0,-8.8432384E-1],"categories":[],"categories_nodes":[],"categories_segments":[],"categories_sizes":[],"default_left":[1,0,0],"id":19,"left_children":[1,-1,-1],"loss_changes":[6.64563E0,0E0,0E0],"parents":[2147483647,0,0],"right_children":[2,-1,-1],"split_conditions":[8.523224E-3,1.1568141E-2,-8.843238E-3],"split_indices":[4,0,0],"split_type":[0,0,0],"sum_hessian":[4.725958E0,2.981121E0,1.7448368E0],"tree_param":{"num_deleted":"0","num_feature":"53","num_nodes":"3","size_leaf_vector":"0"}},{"base_weights":[-2.5896396E-2,5.4164886E-1,-8.2807916E-1,-6.7090255E-1,1.1258204E0,-1.0917081E0,-1.953944E-1],"categories":[],"categories_nodes":[],"categories_segments":[],"categories_sizes":[],"default_left":[1,1,1,0,0,0,0],"id":20,"left_children":[1,3,5,-1,-1,-1,-1],"loss_changes":[3.8534513E0,4.286056E0,3.6951232E-1,0E0,0E0,0E0,0E0],"parents":[2147483647,0,0,1,1,2,2],"right_children":[2,4,6,-1,-1,-1,-1],"split_conditions":[9.1388345E-2,-1.966227E-1,-7.6384075E-2,-6.7090252E-3,1.1258204E-2,-1.0917081E-2,-1.9539439E-3],"split_indices":[3,37,0,0,0,0,0],"split_type":[0,0,0,0,0,0,0],"sum_hessian":[6.4788275E0,3.9845412E0,2.4942863E0,1.2472287E0,2.7373126E0,1.2485291E0,1.2457571E0],"tree_param":{"num_deleted":"0","num_feature":"53","num_nodes":"7","size_leaf_vector":"0"}},{"base_weights":[4.328498E-1,1.2490978E0,-5.78427E-1,3.7899476E-1,-1.2373621E0],"categories":[],"categories_nodes":[],"categories_segments":[],"categories_sizes":[],"default_left":[1,0,1,0,0],"id":21,"left_children":[1,-1,3,-1,-1],"loss_changes":[7.2970123E0,0E0,3.1444256E0,0E0,0E0],"parents":[2147483647,0,0,2,2],"right_children":[2,-1,4,-1,-1],"split_conditions":[3.8301043E-2,1.24909775E-2,-2.862062E-1,3.7899476E-3,-1.2373622E-2],"split_indices":[34,0,11,0,0],"split_type":[0,0,0,0,0],"sum_hessian":[6.964721E0,3.7238564E0,3.2408648E0,1.4943854E0,1.7464794E0],"tree_param":{"num_deleted":"0","num_feature":"53","num_nodes":"5","size_leaf_vector":"0"}},{"base_weights":[2.0721567E-1,1.2629496E0,-4.8317283E-1,-9.223374E-1,3.7099478E-1,-2.1342546E-1,-1.1910129E0],"categories":[],"categories_nodes":[],"categories_segments":[],"categories_sizes":[],"default_left":[1,0,1,1,0,0,0],"id":22,"left_children":[1,-1,3,5,-1,-1,-1],"loss_changes":[6.0520644E0,0E0,2.3068576E0,4.592743E-1,0E0,0E0,0E0],"parents":[2147483647,0,0,2,2,3,3],"right_children":[2,-1,4,6,-1,-1,-1],"split_conditions":[-1.2473732E-1,1.2629496E-2,1.4170204E-1,-3.1194007E-1,3.7099477E-3,-2.1342544E-3,-1.1910128E-2],"split_indices":[42,0,21,11,0,0,0],"split_type":[0,0,0,0,0,0,0],"sum_hessian":[6.4661694E0,2.2287142E0,4.2374554E0,2.745874E0,1.4915814E0,1.2478168E0,1.4980572E0],"tree_param":{"num_deleted":"0","num_feature":"53","num_nodes":"7","size_leaf_vector":"0"}},{"base_weights":[3.3281803E-1,9.497511E-1,-7.6263416E-1,1.3709416E0,-2.1727087E-1],"categories":[],"categories_nodes":[],"categories_segments":[],"categories_sizes":[],"default_left":[1,1,0,0,0],"id":23,"left_children":[1,3,-1,-1,-1],"loss_changes":[5.766475E0,2.8628163E0,0E0,0E0,0E0],"parents":[2147483647,0,0,1,1],"right_children":[2,4,-1,-1,-1],"split_conditions":[4.4544226E-1,1.633346E-1,-7.626341E-3,1.3709416E-2,-2.1727085E-3],"split_indices":[48,31,0,0,0],"split_type":[0,0,0,0,0],"sum_hessian":[6.460799E0,4.218209E0,2.242591E0,2.971153E0,1.2470555E0],"tree_param":{"num_deleted":"0","num_feature":"53","num_nodes":"5","size_leaf_vector":"0"}},{"base_weights":[-1.03437364E-1,-1.079492E0,5.686062E-1,1.0203551E0,-2.1041584E-1],"categories":[],"categories_nodes":[],"categories_segments":[],"categories_sizes":[],"default_left":[1,0,1,0,0],"id":24,"left_children":[1,-1,3,-1,-1],"loss_changes":[5.6747923E0,0E0,2.0532632E0,0E0,0E0],"parents":[2147483647,0,0,2,2],"right_children":[2,-1,4,-1,-1],"split_conditions":[-5.9690323E-2,-1.079492E-2,1.13223076E-1,1.0203551E-2,-2.1041583E-3],"split_indices":[26,0,28,0,0],"split_type":[0,0,0,0,0],"sum_hessian":[6.7154927E0,2.4911473E0,4.2243457E0,2.4777355E0,1.7466099E0],"tree_param":{"num_deleted":"0","num_feature":"53","num_nodes":"5","size_leaf_vector":"0"}},{"base_weights":[1.762804E-1,1.1923656E0,-3.1745127E-1,-1.2519792E0,2.9272923E-1,1.0207301E0,-7.692491E-1],"categories":[],"categories_nodes":[],"categories_segments":[],"categories_sizes":[],"default_left":[1,0,1,0,1,0,0],"id":25,"left_children":[1,-1,3,-1,5,-1,-1],"loss_changes":[4.6177344E0,0E0,4.059632E0,0E0,4.441081E0,0E0,0E0],"parents":[2147483647,0,0,2,2,4,4],"right_children":[2,-1,4,-1,6,-1,-1],"split_conditions":[-3.6971998E-1,1.1923656E-2,1.11686125E-1,-1.2519792E-2,3.4649348E-1,1.0207301E-2,-7.6924907E-3],"split_indices":[6,0,16,0,16,0,0],"split_type":[0,0,0,0,0,0,0],"sum_hessian":[7.4501505E0,1.9735779E0,5.4765725E0,1.7478373E0,3.7287354E0,2.2352686E0,1.4934667E0],"tree_param":{"num_deleted":"0","num_feature":"53","num_nodes":"7","size_leaf_vector":"0"}},{"base_weights":[4.9534684E-1,1.164732E0,-6.560925E-1,1.411331E0,1.5307719E-1,-1.0826356E0,-8.667626E-3],"categories":[],"categories_nodes":[],"categories_segments":[],"categories_sizes":[],"default_left":[1,1,1,0,0,0,0],"id":26,"left_children":[1,3,5,-1,-1,-1,-1],"loss_changes":[7.270319E0,1.2055411E0,1.0242376E0,0E0,0E0,0E0,0E0],"parents":[2147483647,0,0,1,1,2,2],"right_children":[2,4,6,-1,-1,-1,-1],"split_conditions":[9.492395E-3,2.0554654E-1,2.7978566E-1,1.4113311E-2,1.5307718E-3,-1.0826356E-2,-8.6676264E-5],"split_indices":[4,1,29,0,0,0,0],"split_type":[0,0,0,0,0,0,0],"sum_hessian":[7.4412513E0,4.698343E0,2.7429087E0,3.4598937E0,1.238449E0,1.2482836E0,1.4946251E0],"tree_param":{"num_deleted":"0","num_feature":"53","num_nodes":"7","size_leaf_vector":"0"}},{"base_weights":[4.7076896E-1,1.1678506E0,-5.525123E-1,2.1178992E-1,-1.0701969E0],"categories":[],"categories_nodes":[],"categories_segments":[],"categories_sizes":[],"default_left":[1,0,1,0,0],"id":27,"left_children":[1,-1,3,-1,-1],"loss_changes":[5.598096E0,0E0,1.6084433E0,0E0,0E0],"parents":[2147483647,0,0,2,2],"right_children":[2,-1,4,-1,-1],"split_conditions":[-2.9929748E-1,1.1678506E-2,-4.734794E-2,2.1178992E-3,-1.0701968E-2],"split_indices":[12,0,19,0,0],"split_type":[0,0,0,0,0],"sum_hessian":[5.9434614E0,3.451169E0,2.4922922E0,1.2450331E0,1.2472591E0],"tree_param":{"num_deleted":"0","num_feature":"53","num_nodes":"5","size_leaf_vector":"0"}},{"base_weights":[-1.8646489E-1,6.944341E-1,-1.0190233E0,7.548758E-2,1.0947707E0,-1.2653311E0,-2.3571941E-1],"categories":[],"categories_nodes":[],"categories_segments":[],"categories_sizes":[],"default_left":[1,1,1,0,0,0,0],"id":28,"left_children":[1,3,5,-1,-1,-1,-1],"loss_changes":[6.1702857E0,9.6149325E-1,5.187235E-1,0E0,0E0,0E0,0E0],"parents":[2147483647,0,0,1,1,2,2],"right_children":[2,4,6,-1,-1,-1,-1],"split_conditions":[-1.6748837E-1,-4.6382168E-1,2.776758E-1,7.548758E-4,1.0947706E-2,-1.2653311E-2,-2.357194E-3],"split_indices":[48,14,19,0,0,0,0],"split_type":[0,0,0,0,0,0,0],"sum_hessian":[6.448382E0,3.2138405E0,3.2345414E0,1.7290996E0,1.4847407E0,1.9925972E0,1.2419441E0],"tree_param":{"num_deleted":"0","num_feature":"53","num_nodes":"7","size_leaf_vector":"0"}},{"base_weights":[-2.4661782E-1,5.5311996E-1,-1.1362051E0,9.31594E-1,-2.3583762E-1],"categories":[],"categories_nodes":[],"categories_segments":[],"categories_sizes":[],"default_left":[1,1,0,0,0],"id":29,"left_children":[1,3,-1,-1,-1],"loss_changes":[5.7504296E0,1.5525883E0,0E0,0E0,0E0],"parents":[2147483647,0,0,1,1],"right_children":[2,4,-1,-1,-1],"split_conditions":[8.523224E-3,1.3052157E-1,-1.1362051E-2,9.31594E-3,-2.3583763E-3],"split_indices":[4,28,0,0,0],"split_type":[0,0,0,0,0],"sum_hessian":[6.199477E0,3.4637759E0,2.7357013E0,2.2186615E0,1.2451141E0],"tree_param":{"num_deleted":"0","num_feature":"53","num_nodes":"5","size_leaf_vector":"0"}},{"base_weights":[3.3634564E-1,1.00327E0,-7.353863E-1,1.2734345E0,1.3654588E-1],"categories":[],"categories_nodes":[],"categories_segments":[],"categories_sizes":[],"default_left":[1,1,0,0,0],"id":30,"left_children":[1,3,-1,-1,-1],"loss_changes":[5.6947465E0,9.26157E-1,0E0,0E0,0E0],"parents":[2147483647,0,0,1,1],"right_children":[2,4,-1,-1,-1],"split_conditions":[1.3482326E-1,-1.6861647E-2,-7.3538627E-3,1.2734345E-2,1.3654588E-3],"split_indices":[22,50,0,0,0],"split_type":[0,0,0,0,0],"sum_hessian":[5.935093E0,3.6978502E0,2.2372425E0,2.4613717E0,1.2364787E0],"tree_param":{"num_deleted":"0","num_feature":"53","num_nodes":"5","size_leaf_vector":"0"}},{"base_weights":[5.7146686E-1,9.724141E-1,-6.578341E-1,1.3019222E0,2.628596E-1],"categories":[],"categories_nodes":[],"categories_segments":[],"categories_sizes":[],"default_left":[1,1,0,0,0],"id":31,"left_children":[1,3,-1,-1,-1],"loss_changes":[3.9401577E0,9.3267775E-1,0E0,0E0,0E0],"parents":[2147483647,0,0,1,1],"right_children":[2,4,-1,-1,-1],"split_conditions":[4.4544226E-1,3.9885204E-2,-6.578341E-3,1.3019222E-2,2.628596E-3],"split_indices":[48,0,0,0,0],"split_type":[0,0,0,0,0],"sum_hessian":[5.696231E0,4.4528613E0,1.2433696E0,2.4706693E0,1.9821919E0],"tree_param":{"num_deleted":"0","num_feature":"53","num_nodes":"5","size_leaf_vector":"0"}},{"base_weights":[2.3914966E-1,1.2152748E0,-5.5784065E-1,-3.175698E-2,-1.0114096E0],"categories":[],"categories_nodes":[],"categories_segments":[],"categories_sizes":[],"default_left":[1,0,1,0,0],"id":32,"left_children":[1,-1,3,-1,-1],"loss_changes":[5.685969E0,0E0,9.770465E-1,0E0,0E0],"parents":[2147483647,0,0,2,2],"right_children":[2,-1,4,-1,-1],"split_conditions":[-1.2473732E-1,1.2152748E-2,4.8528388E-1,-3.1756976E-4,-1.0114096E-2],"split_indices":[42,0,6,0,0],"split_type":[0,0,0,0,0],"sum_hessian":[5.437381E0,2.208122E0,3.229259E0,1.9905196E0,1.2387393E0],"tree_param":{"num_deleted":"0","num_feature":"53","num_nodes":"5","size_leaf_vector":"0"}},{"base_weights":[1.7219169E-2,5.698467E-1,-1.0027606E0,1.0395585E0,-6.707746E-1,1.6535373E-1,1.3038783E0],"categories":[],"categories_nodes":[],"categories_segments":[],"categories_sizes":[],"default_left":[1,1,0,1,0,0,0],"id":33,"left_children":[1,3,-1,5,-1,-1,-1],"loss_changes":[5.1850677E0,4.162472E0,0E0,8.7169886E-1,0E0,0E0,0E0],"parents":[2147483647,0,0,1,1,3,3],"right_children":[2,4,-1,6,-1,-1,-1],"split_conditions":[4.4544226E-1,2.2910964E-1,-1.0027606E-2,-2.617489E-1,-6.7077456E-3,1.6535373E-3,1.3038782E-2],"split_indices":[48,2,0,2,0,0,0],"split_type":[0,0,0,0,0,0,0],"sum_hessian":[7.18503E0,4.946383E0,2.2386465E0,3.7055068E0,1.2408763E0,1.2376654E0,2.4678414E0],"tree_param":{"num_deleted":"0","num_feature":"53","num_nodes":"7","size_leaf_vector":"0"}},{"base_weights":[-1.19684346E-1,7.988735E-1,-1.3233575E0,1.1072608E0,2.4990243E-1],"categories":[],"categories_nodes":[],"categories_segments":[],"categories_sizes":[],"default_left":[1,1,0,0,0],"id":34,"left_children":[1,3,-1,-1,-1],"loss_changes":[8.990432E0,5.178251E-1,0E0,0E0,0E0],"parents":[2147483647,0,0,1,1],"right_children":[2,4,-1,-1,-1],"split_conditions":[1.8781579E-1,-4.2911136E-1,-1.3233574E-2,1.1072608E-2,2.4990242E-3],"split_indices":[23,31,0,0,0],"split_type":[0,0,0,0,0],"sum_hessian":[6.1752214E0,3.6931643E0,2.482057E0,1.7135783E0,1.9795861E0],"tree_param":{"num_deleted":"0","num_feature":"53","num_nodes":"5","size_leaf_vector":"0"}},{"base_weights":[3.0226352E-2,7.1792704E-1,-8.0801326E-1,1.1930323E0,-2.3251116E-1,-1.0972055E0,-1.5735328E-1],"categories":[],"categories_nodes":[],"categories_segments":[],"categories_sizes":[],"default_left":[1,1,1,0,0,0,0],"id":35,"left_children":[1,3,5,-1,-1,-1,-1],"loss_changes":[4.4351234E0,2.175341E0,4.8298335E-1,0E0,0E0,0E0,0E0],"parents":[2147483647,0,0,1,1,2,2],"right_children":[2,4,6,-1,-1,-1,-1],"split_conditions":[1.6380052E-1,1.877182E-2,2.8449303E-1,1.1930322E-2,-2.3251115E-3,-1.0972055E-2,-1.5735328E-3],"split_indices":[42,50,39,0,0,0,0],"split_type":[0,0,0,0,0,0,0],"sum_hessian":[5.6874413E0,3.2031078E0,2.4843338E0,1.9653991E0,1.2377087E0,1.244782E0,1.2395518E0],"tree_param":{"num_deleted":"0","num_feature":"53","num_nodes":"7","size_leaf_vector":"0"}},{"base_weights":[2.0077641E-1,7.5532264E-1,-1.1723024E0,1.0510956E0,-2.6322135E-1,1.1078062E-1,1.3157185E0],"categories":[],"categories_nodes":[],"categories_segments":[],"categories_sizes":[],"default_left":[1,1,0,1,0,0,0],"id":36,"left_children":[1,3,-1,5,-1,-1,-1],"loss_changes":[7.0899925E0,2.208468E0,0E0,1.1406045E0,0E0,0E0,0E0],"parents":[2147483647,0,0,1,1,3,3],"right_children":[2,4,-1,6,-1,-1,-1],"split_conditions":[3.89906E-1,4.5864907E-1,-1.1723024E-2,-4.9343652E-1,-2.6322135E-3,1.1078062E-3,1.3157185E-2],"split_indices":[31,11,0,49,0,0,0],"split_type":[0,0,0,0,0,0,0],"sum_hessian":[7.1484566E0,5.412438E0,1.7360189E0,4.1696596E0,1.2427781E0,1.2272758E0,2.9423838E0],"tree_param":{"num_deleted":"0","num_feature":"53","num_nodes":"7","size_leaf_vector":"0"}},{"base_weights":[2.7233645E-1,1.057688E0,-7.121155E-1],"categories":[],"categories_nodes":[],"categories_segments":[],"categories_sizes":[],"default_left":[1,0,0],"id":37,"left_children":[1,-1,-1],"loss_changes":[5.345857E0,0E0,0E0],"parents":[2147483647,0,0],"right_children":[2,-1,-1],"split_conditions":[5.083448E-2,1.057688E-2,-7.121155E-3],"split_indices":[4,0,0],"split_type":[0,0,0],"sum_hessian":[4.9402633E0,2.706637E0,2.2336261E0],"tree_param":{"num_deleted":"0","num_feature":"53","num_nodes":"3","size_leaf_vector":"0"}},{"base_weights":[1.5375994E-1,9.103381E-1,-9.138568E-1,5.8261298E-2,1.290342E0,-1.8493496E-1,-1.1769841E0],"categories":[],"categories_nodes":[],"categories_segments":[],"categories_sizes":[],"default_left":[1,1,1,0,0,0,0],"id":38,"left_children":[1,3,5,-1,-1,-1,-1],"loss_changes":[7.60651E0,1.6764007E0,5.452297E-1,0E0,0E0,0E0,0E0],"parents":[2147483647,0,0,1,1,2,2],"right_children":[2,4,6,-1,-1,-1,-1],"split_conditions":[7.373813E-2,-3.3690345E-1,-7.583091E-2,5.8261293E-4,1.2903419E-2,-1.8493496E-3,-1.17698405E-2],"split_indices":[34,49,21,0,0,0,0],"split_type":[0,0,0,0,0,0,0],"sum_hessian":[7.3871408E0,4.4095693E0,2.9775715E0,1.7157307E0,2.6938388E0,1.2414129E0,1.7361586E0],"tree_param":{"num_deleted":"0","num_feature":"53","num_nodes":"7","size_leaf_vector":"0"}},{"base_weights":[4.1656873E-1,1.1023453E0,-5.258702E-1,1.9430314E-1,-1.0123295E0],"categories":[],"categories_nodes":[],"categories_segments":[],"categories_sizes":[],"default_left":[1,0,1,0,0],"id":39,"left_children":[1,-1,3,-1,-1],"loss_changes":[4.8819075E0,0E0,1.4161094E0,0E0,0E0],"parents":[2147483647,0,0,2,2],"right_children":[2,-1,4,-1,-1],"split_conditions":[8.427672E-3,1.1023453E-2,1.3068263E-1,1.9430313E-3,-1.0123295E-2],"split_indices":[4,0,35,0,0],"split_type":[0,0,0,0,0],"sum_hessian":[5.6566615E0,3.1759624E0,2.4806988E0,1.2422299E0,1.2384689E0],"tree_param":{"num_deleted":"0","num_feature":"53","num_nodes":"5","size_leaf_vector":"0"}},{"base_weights":[3.207375E-1,1.0048635E0,-4.9470815E-1,-1.0203924E0,2.499446E-1],"categories":[],"categories_nodes":[],"categories_segments":[],"categories_sizes":[],"default_left":[1,0,1,0,0],"id":40,"left_children":[1,-1,3,-1,-1],"loss_changes":[3.937849E0,0E0,1.6188112E0,0E0,0E0],"parents":[2147483647,0,0,2,2],"right_children":[2,-1,4,-1,-1],"split_conditions":[-1.823121E-1,1.0048634E-2,3.227713E-1,-1.0203924E-2,2.4994458E-3],"split_indices":[31,0,12,0,0],"split_type":[0,0,0,0,0],"sum_hessian":[5.167655E0,2.6837823E0,2.4838727E0,1.2389491E0,1.2449235E0],"tree_param":{"num_deleted":"0","num_feature":"53","num_nodes":"5","size_leaf_vector":"0"}},{"base_weights":[3.8684887E-1,9.317742E-1,-8.352749E-1,1.9076371E-1,1.2944257E0],"categories":[],"categories_nodes":[],"categories_segments":[],"categories_sizes":[],"default_left":[1,1,0,0,0],"id":41,"left_children":[1,3,-1,-1,-1],"loss_changes":[5.536022E0,1.2078838E0,0E0,0E0,0E0],"parents":[2147483647,0,0,1,1],"right_children":[2,4,-1,-1,-1],"split_conditions":[1.1937471E-1,-2.4784106E-1,-8.352748E-3,1.9076371E-3,1.2944257E-2],"split_indices":[4,7,0,0,0],"split_type":[0,0,0,0,0],"sum_hessian":[6.1441083E0,4.413692E0,1.7304165E0,1.9517273E0,2.4619648E0],"tree_param":{"num_deleted":"0","num_feature":"53","num_nodes":"5","size_leaf_vector":"0"}},{"base_weights":[-4.525116E-2,7.775509E-1,-8.484813E-1,1.0986115E-1,1.0623649E0,-1.0960929E0,-1.9524968E-1],"categories":[],"categories_nodes":[],"categories_segments":[],"categories_sizes":[],"default_left":[1,1,1,0,0,0,0],"id":42,"left_children":[1,3,5,-1,-1,-1,-1],"loss_changes":[4.9011817E0,5.8539104E-1,3.886044E-1,0E0,0E0,0E0,0E0],"parents":[2147483647,0,0,1,1,2,2],"right_children":[2,4,6,-1,-1,-1,-1],"split_conditions":[5.928108E-2,-2.5652617E-1,1.3293412E-1,1.0986115E-3,1.0623649E-2,-1.0960929E-2,-1.9524967E-3],"split_indices":[39,7,28,0,0,0,0],"split_type":[0,0,0,0,0,0,0],"sum_hessian":[5.4176846E0,2.6920297E0,2.725655E0,1.219316E0,1.4727137E0,1.4848564E0,1.2407987E0],"tree_param":{"num_deleted":"0","num_feature":"53","num_nodes":"7","size_leaf_vector":"0"}},{"base_weights":[3.56227E-1,7.179562E-1,-6.857682E-1,1.00685626E-1,1.2515169E0,1.0065448E0,-8.3129185E-1],"categories":[],"categories_nodes":[],"categories_segments":[],"categories_sizes":[],"default_left":[1,1,0,1,0,0,0],"id":43,"left_children":[1,3,-1,5,-1,-1,-1],"loss_changes":[3.3721466E0,1.9027984E0,0E0,4.1659613E0,0E0,0E0,0E0],"parents":[2147483647,0,0,1,1,3,3],"right_children":[2,4,-1,6,-1,-1,-1],"split_conditions":[1.751906E-1,1.2914222E-1,-6.8576816E-3,-4.7229075E-1,1.2515169E-2,1.00654485E-2,-8.312918E-3],"split_indices":[35,8,0,52,0,0,0],"split_type":[0,0,0,0,0,0,0],"sum_hessian":[6.6403337E0,5.1600122E0,1.4803214E0,2.9434605E0,2.2165518E0,1.4520723E0,1.4913882E0],"tree_param":{"num_deleted":"0","num_feature":"53","num_nodes":"7","size_leaf_vector":"0"}},{"base_weights":[5.064411E-1,1.1413198E0,-3.8154832E-1,6.114468E-1,-1.1199095E0],"categories":[],"categories_nodes":[],"categories_segments":[],"categories_sizes":[],"default_left":[1,0,1,0,0],"id":44,"left_children":[1,-1,3,-1,-1],"loss_changes":[4.4606957E0,0E0,3.4166665E0,0E0,0E0],"parents":[2147483647,0,0,2,2],"right_children":[2,-1,4,-1,-1],"split_conditions":[9.492395E-3,1.1413197E-2,-2.4918103E-1,6.114468E-3,-1.1199095E-2],"split_indices":[4,0,19,0,0],"split_type":[0,0,0,0,0],"sum_hessian":[6.1398964E0,3.4138432E0,2.726053E0,1.235867E0,1.490186E0],"tree_param":{"num_deleted":"0","num_feature":"53","num_nodes":"5","size_leaf_vector":"0"}},{"base_weights":[4.3874913E-1,1.0639718E0,-5.825038E-1,1.0524259E-1,1.3207448E0,-1.0974226E0,2.4904847E-1],"categories":[],"categories_nodes":[],"categories_segments":[],"categories_sizes":[],"default_left":[1,1,1,0,0,0,0],"id":45,"left_children":[1,3,5,-1,-1,-1,-1],"loss_changes":[5.795438E0,1.1858134E0,1.8679799E0,0E0,0E0,0E0,0E0],"parents":[2147483647,0,0,1,1,2,2],"right_children":[2,4,6,-1,-1,-1,-1],"split_conditions":[2.5583705E-1,-6.2818253E-1,2.37399E-1,1.0524258E-3,1.3207447E-2,-1.0974226E-2,2.4904846E-3],"split_indices":[31,33,30,0,0,0,0],"split_type":[0,0,0,0,0,0,0],"sum_hessian":[7.1058497E0,4.381572E0,2.724278E0,1.2234322E0,3.1581397E0,1.4849998E0,1.2392783E0],"tree_param":{"num_deleted":"0","num_feature":"53","num_nodes":"7","size_leaf_vector":"0"}},{"base_weights":[2.1308449E-1,6.6695434E-1,-7.729646E-1,1.1828429E0,-1.7996055E-1],"categories":[],"categories_nodes":[],"categories_segments":[],"categories_sizes":[],"default_left":[1,1,0,0,0],"id":46,"left_children":[1,3,-1,-1,-1],"loss_changes":[3.3719628E0,2.3570383E0,0E0,0E0,0E0],"parents":[2147483647,0,0,1,1],"right_children":[2,4,-1,-1,-1],"split_conditions":[3.9342058E-1,-2.236357E-2,-7.729646E-3,1.1828428E-2,-1.7996054E-3],"split_indices":[18,48,0,0,0],"split_type":[0,0,0,0,0],"sum_hessian":[5.3825436E0,3.9075441E0,1.4749995E0,2.1818478E0,1.7256964E0],"tree_param":{"num_deleted":"0","num_feature":"53","num_nodes":"5","size_leaf_vector":"0"}},{"base_weights":[1.0657535E-1,8.6264396E-1,-5.505477E-1,1.1474826E0,9.839617E-2,-1.0518411E0,3.7232074E-1],"categories":[],"categories_nodes":[],"categories_segments":[],"categories_sizes":[],"default_left":[1,1,1,0,0,0,0],"id":47,"left_children":[1,3,5,-1,-1,-1,-1],"loss_changes":[4.5158777E0,7.9519176E-1,2.6871314E0,0E0,0E0,0E0,0E0],"parents":[2147483647,0,0,1,1,2,2],"right_children":[2,4,6,-1,-1,-1,-1],"split_conditions":[-2.7011997E-1,2.2882521E-1,1.7612576E-1,1.1474826E-2,9.839616E-4,-1.0518411E-2,3.7232074E-3],"split_indices":[31,26,41,0,0,0,0],"split_type":[0,0,0,0,0,0,0],"sum_hessian":[7.1334667E0,3.1715758E0,3.961891E0,1.9451542E0,1.2264217E0,2.4767768E0,1.485114E0],"tree_param":{"num_deleted":"0","num_feature":"53","num_nodes":"7","size_leaf_vector":"0"}},{"base_weights":[2.5013876E-1,9.4685423E-1,-1.2609866E0,1.393221E0,-1.9884495E-1],"categories":[],"categories_nodes":[],"categories_segments":[],"categories_sizes":[],"default_left":[1,1,0,0,0],"id":48,"left_children":[1,3,-1,-1,-1],"loss_changes":[1.049358E1,3.6608644E0,0E0,0E0,0E0],"parents":[2147483647,0,0,1,1],"right_children":[2,4,-1,-1,-1],"split_conditions":[8.820863E-2,9.492395E-3,-1.26098655E-2,1.3932209E-2,-1.9884496E-3],"split_indices":[3,4,0,0,0],"split_type":[0,0,0,0,0],"sum_hessian":[7.83301E0,5.616769E0,2.2162416E0,3.8865259E0,1.730243E0],"tree_param":{"num_deleted":"0","num_feature":"53","num_nodes":"5","size_leaf_vector":"0"}},{"base_weights":[5.078123E-1,9.5473075E-1,-7.124109E-1,1.2918823E0,1.2068274E-2],"categories":[],"categories_nodes":[],"categories_segments":[],"categories_sizes":[],"default_left":[1,1,0,0,0],"id":49,"left_children":[1,3,-1,-1,-1],"loss_changes":[4.5595503E0,1.7750154E0,0E0,0E0,0E0],"parents":[2147483647,0,0,1,1],"right_children":[2,4,-1,-1,-1],"split_conditions":[1.1937471E-1,1.6293144E-1,-7.124109E-3,1.29188225E-2,1.20682744E-4],"split_indices":[4,42,0,0,0],"split_type":[0,0,0,0,0],"sum_hessian":[6.113704E0,4.634025E0,1.4796791E0,3.1403797E0,1.4936454E0],"tree_param":{"num_deleted":"0","num_feature":"53","num_nodes":"5","size_leaf_vector":"0"}},{"base_weights":[2.959512E-1,7.0073724E-1,-7.8589493E-1,9.7776043E-1,-1.9371359E-1,1.5720183E-1,1.2284447E0],"categories":[],"categories_nodes":[],"categories_segments":[],"categories_sizes":[],"default_left":[1,1,0,1,0,0,0],"id":50,"left_children":[1,3,-1,5,-1,-1,-1],"loss_changes":[3.7760284E0,1.6484511E0,0E0,7.657199E-1,0E0,0E0,0E0],"parents":[2147483647,0,0,1,1,3,3],"right_children":[2,4,-1,6,-1,-1,-1],"split_conditions":[2.2276157E-1,3.4880203E-1,-7.858949E-3,-2.0551965E-1,-1.9371358E-3,1.5720183E-3,1.22844465E-2],"split_indices":[2,16,0,20,0,0,0],"split_type":[0,0,0,0,0,0,0],"sum_hessian":[6.36516E0,4.8883867E0,1.4767736E0,3.6612947E0,1.2270918E0,1.2375486E0,2.423746E0],"tree_param":{"num_deleted":"0","num_feature":"53","num_nodes":"7","size_leaf_vector":"0"}},{"base_weights":[4.9215707E-1,8.039744E-1,-6.530426E-1,1.0783049E0,-2.1802425E-1,2.4139483E-1,1.3249252E0],"categories":[],"categories_nodes":[],"categories_segments":[],"categories_sizes":[],"default_left":[1,1,0,1,0,0,0],"id":51,"left_children":[1,3,-1,5,-1,-1,-1],"loss_changes":[3.3223398E0,2.0869942E0,0E0,7.8970146E-1,0E0,0E0,0E0],"parents":[2147483647,0,0,1,1,3,3],"right_children":[2,4,-1,6,-1,-1,-1],"split_conditions":[2.3439279E-1,3.0775112E-1,-6.530426E-3,-3.076589E-1,-2.1802424E-3,2.4139483E-3,1.3249252E-2],"split_indices":[2,16,0,16,0,0,0],"split_type":[0,0,0,0,0,0,0],"sum_hessian":[6.83356E0,5.6052995E0,1.2282609E0,4.3756647E0,1.2296345E0,1.4463302E0,2.9293346E0],"tree_param":{"num_deleted":"0","num_feature":"53","num_nodes":"7","size_leaf_vector":"0"}},{"base_weights":[2.465989E-1,7.892143E-1,-8.165562E-1,1.1238577E0,1.1509251E-1],"categories":[],"categories_nodes":[],"categories_segments":[],"categories_sizes":[],"default_left":[1,1,0,0,0],"id":52,"left_children":[1,3,-1,-1,-1],"loss_changes":[4.4414577E0,9.6844625E-1,0E0,0E0,0E0],"parents":[2147483647,0,0,1,1],"right_children":[2,4,-1,-1,-1],"split_conditions":[7.725548E-2,1.1894333E-1,-8.165562E-3,1.1238577E-2,1.1509251E-3],"split_indices":[3,28,0,0,0],"split_type":[0,0,0,0,0],"sum_hessian":[5.581943E0,3.8663132E0,1.7156296E0,2.137891E0,1.7284223E0],"tree_param":{"num_deleted":"0","num_feature":"53","num_nodes":"5","size_leaf_vector":"0"}},{"base_weights":[3.1059676E-1,1.1097966E0,-9.022463E-1,1.325204E0,1.9027594E-1,-1.1717551E0,-1.654056E-1],"categories":[],"categories_nodes":[],"categories_segments":[],"categories_sizes":[],"default_left":[1,1,1,0,0,0,0],"id":53,"left_children":[1,3,5,-1,-1,-1,-1],"loss_changes":[9.293727E0,8.5809946E-1,5.905366E-1,0E0,0E0,0E0,0E0],"parents":[2147483647,0,0,1,1,2,2],"right_children":[2,4,6,-1,-1,-1,-1],"split_conditions":[8.820863E-2,2.4563056E-1,9.594419E-2,1.3252039E-2,1.9027593E-3,-1.171755E-2,-1.654056E-3],"split_indices":[3,50,18,0,0,0,0],"split_type":[0,0,0,0,0,0,0],"sum_hessian":[7.5550213E0,4.60532E0,2.9497013E0,3.3737857E0,1.2315342E0,1.7275764E0,1.222125E0],"tree_param":{"num_deleted":"0","num_feature":"53","num_nodes":"7","size_leaf_vector":"0"}},{"base_weights":[2.8232142E-1,1.2224201E0,-6.5321046E-1,2.5249845E-1,-1.1553086E0],"categories":[],"categories_nodes":[],"categories_segments":[],"categories_sizes":[],"default_left":[1,0,1,0,0],"id":54,"left_children":[1,-1,3,-1,-1],"loss_changes":[6.611219E0,0E0,2.0945313E0,0E0,0E0],"parents":[2147483647,0,0,2,2],"right_children":[2,-1,4,-1,-1],"split_conditions":[-4.8187755E-2,1.2224201E-2,-2.7708006E-1,2.5249845E-3,-1.1553085E-2],"split_indices":[30,0,10,0,0],"split_type":[0,0,0,0,0],"sum_hessian":[5.609178E0,2.6448047E0,2.9643734E0,1.2345486E0,1.7298249E0],"tree_param":{"num_deleted":"0","num_feature":"53","num_nodes":"5","size_leaf_vector":"0"}},{"base_weights":[2.653232E-1,5.9443635E-1,-6.4308435E-1,-3.4413412E-1,1.0376575E0],"categories":[],"categories_nodes":[],"categories_segments":[],"categories_sizes":[],"default_left":[1,1,0,0,0],"id":55,"left_children":[1,3,-1,-1,-1],"loss_changes":[2.3636775E0,2.597046E0,0E0,0E0,0E0],"parents":[2147483647,0,0,1,1],"right_children":[2,4,-1,-1,-1],"split_conditions":[4.7971895E-1,-5.9690323E-2,-6.4308434E-3,-3.4413412E-3,1.03765745E-2],"split_indices":[11,26,0,0,0],"split_type":[0,0,0,0,0],"sum_hessian":[5.627463E0,4.384574E0,1.242889E0,1.4780977E0,2.9064763E0],"tree_param":{"num_deleted":"0","num_feature":"53","num_nodes":"5","size_leaf_vector":"0"}},{"base_weights":[5.302293E-1,9.233181E-1,-4.653166E-1,1.247685E0,-3.0207548E-1],"categories":[],"categories_nodes":[],"categories_segments":[],"categories_sizes":[],"default_left":[1,1,0,0,0],"id":56,"left_children":[1,3,-1,-1,-1],"loss_changes":[3.9595315E0,3.080452E0,0E0,0E0,0E0],"parents":[2147483647,0,0,1,1],"right_children":[2,4,-1,-1,-1],"split_conditions":[8.820863E-2,2.520623E-1,-4.653166E-3,1.2476849E-2,-3.0207548E-3],"split_indices":[3,2,0,0,0],"split_type":[0,0,0,0,0],"sum_hessian":[8.02007E0,5.8017955E0,2.2182739E0,4.5730886E0,1.228707E0],"tree_param":{"num_deleted":"0","num_feature":"53","num_nodes":"5","size_leaf_vector":"0"}},{"base_weights":[3.4122467E-1,9.1036004E-1,-6.0953057E-1,8.657931E-2,1.1167765E0,1.6395132E-1,-1.0625124E0],"categories":[],"categories_nodes":[],"categories_segments":[],"categories_sizes":[],"default_left":[1,1,1,0,0,0,0],"id":57,"left_children":[1,3,5,-1,-1,-1,-1],"loss_changes":[5.026748E0,8.505578E-1,1.4683319E0,0E0,0E0,0E0,0E0],"parents":[2147483647,0,0,1,1,2,2],"right_children":[2,4,6,-1,-1,-1,-1],"split_conditions":[7.725548E-2,-2.1037772E-1,9.952018E-2,8.657931E-4,1.1167765E-2,1.6395132E-3,-1.0625124E-2],"split_indices":[3,37,28,0,0,0,0],"split_type":[0,0,0,0,0,0,0],"sum_hessian":[7.264251E0,4.570671E0,2.69358E0,1.2002141E0,3.370457E0,1.230508E0,1.4630721E0],"tree_param":{"num_deleted":"0","num_feature":"53","num_nodes":"7","size_leaf_vector":"0"}},{"base_weights":[9.976512E-2,7.9496306E-1,-8.423365E-1,-2.6348522E-1,1.225984E0,-1.0988284E0,-1.7238799E-1],"categories":[],"categories_nodes":[],"categories_segments":[],"categories_sizes":[],"default_left":[1,1,1,0,0,0,0],"id":58,"left_children":[1,3,5,-1,-1,-1,-1],"loss_changes":[5.604774E0,2.5357594E0,4.4378805E-1,0E0,0E0,0E0,0E0],"parents":[2147483647,0,0,1,1,2,2],"right_children":[2,4,6,-1,-1,-1,-1],"split_conditions":[9.1388345E-2,-1.4192088E-1,1.4199436E-1,-2.6348522E-3,1.2259839E-2,-1.0988284E-2,-1.7238798E-3],"split_indices":[3,20,21,0,0,0,0],"split_type":[0,0,0,0,0,0,0],"sum_hessian":[6.5351853E0,3.85021E0,2.6849754E0,1.2266494E0,2.6235604E0,1.4786866E0,1.2062888E0],"tree_param":{"num_deleted":"0","num_feature":"53","num_nodes":"7","size_leaf_vector":"0"}},{"base_weights":[5.03082E-1,8.888833E-1,-4.739548E-1,1.2808073E0,-2.645209E-1],"categories":[],"categories_nodes":[],"categories_segments":[],"categories_sizes":[],"default_left":[1,1,0,0,0],"id":59,"left_children":[1,3,-1,-1,-1],"loss_changes":[3.1681397E0,2.8576303E0,0E0,0E0,0E0],"parents":[2147483647,0,0,1,1],"right_children":[2,4,-1,-1,-1],"split_conditions":[1.1137165E-1,1.7004573E-1,-4.739548E-3,1.2808072E-2,-2.645209E-3],"split_indices":[4,42,0,0,0],"split_type":[0,0,0,0,0],"sum_hessian":[6.2871914E0,4.572055E0,1.7151364E0,3.3300526E0,1.2420022E0],"tree_param":{"num_deleted":"0","num_feature":"53","num_nodes":"5","size_leaf_vector":"0"}},{"base_weights":[3.8810763E-1,9.877601E-1,-8.2461566E-1,1.2264084E0,1.473571E-1],"categories":[],"categories_nodes":[],"categories_segments":[],"categories_sizes":[],"default_left":[1,1,0,0,0],"id":60,"left_children":[1,3,-1,-1,-1],"loss_changes":[5.590147E0,7.9184246E-1,0E0,0E0,0E0],"parents":[2147483647,0,0,1,1],"right_children":[2,4,-1,-1,-1],"split_conditions":[1.7410211E-1,7.5967796E-2,-8.246156E-3,1.2264083E-2,1.473571E-3],"split_indices":[42,48,0,0,0],"split_type":[0,0,0,0,0],"sum_hessian":[5.5670276E0,3.849217E0,1.7178109E0,2.6401787E0,1.2090383E0],"tree_param":{"num_deleted":"0","num_feature":"53","num_nodes":"5","size_leaf_vector":"0"}},{"base_weights":[3.2580882E-1,9.219581E-1,-8.086756E-1,3.4204397E-2,1.2218888E0],"categories":[],"categories_nodes":[],"categories_segments":[],"categories_sizes":[],"default_left":[1,1,0,0,0],"id":61,"left_children":[1,3,-1,-1,-1],"loss_changes":[5.02812E0,1.1878631E0,0E0,0E0,0E0],"parents":[2147483647,0,0,1,1],"right_children":[2,4,-1,-1,-1],"split_conditions":[3.2562527E-1,-3.0499262E-1,-8.086756E-3,3.4204396E-4,1.2218888E-2],"split_indices":[0,25,0,0,0],"split_type":[0,0,0,0,0],"sum_hessian":[5.332124E0,3.6181765E0,1.7139478E0,1.1950457E0,2.4231308E0],"tree_param":{"num_deleted":"0","num_feature":"53","num_nodes":"5","size_leaf_vector":"0"}},{"base_weights":[3.9895892E-1,8.9034814E-1,-5.001698E-1,1.24561E0,-5.861415E-2,-1.0497406E0,2.7866668E-1],"categories":[],"categories_nodes":[],"categories_segments":[],"categories_sizes":[],"default_left":[1,1,1,0,0,0,0],"id":62,"left_children":[1,3,5,-1,-1,-1,-1],"loss_changes":[3.9786527E0,1.937604E0,1.7762301E0,0E0,0E0,0E0,0E0],"parents":[2147483647,0,0,1,1,2,2],"right_children":[2,4,6,-1,-1,-1,-1],"split_conditions":[1.7323303E-1,2.4563056E-1,4.7163206E-1,1.24560995E-2,-5.861415E-4,-1.0497405E-2,2.7866666E-3],"split_indices":[42,50,6,0,0,0,0],"split_type":[0,0,0,0,0,0,0],"sum_hessian":[6.997171E0,4.530785E0,2.4663858E0,3.0691783E0,1.4616069E0,1.2420943E0,1.2242914E0],"tree_param":{"num_deleted":"0","num_feature":"53","num_nodes":"7","size_leaf_vector":"0"}},{"base_weights":[4.2049807E-1,-4.1931358E-1,9.7459376E-1,4.256483E-1,-1.0504465E0,1.4780477E-1,1.2390321E0],"categories":[],"categories_nodes":[],"categories_segments":[],"categories_sizes":[],"default_left":[1,1,1,0,0,0,0],"id":63,"left_children":[1,3,5,-1,-1,-1,-1],"loss_changes":[3.5819438E0,2.2655919E0,7.8090954E-1,0E0,0E0,0E0,0E0],"parents":[2147483647,0,0,1,1,2,2],"right_children":[2,4,6,-1,-1,-1,-1],"split_conditions":[-1.3434163E-1,-3.4730962E-1,-4.6080343E-2,4.2564827E-3,-1.0504465E-2,1.4780477E-3,1.2390321E-2],"split_indices":[14,12,36,0,0,0,0],"split_type":[0,0,0,0,0,0,0],"sum_hessian":[5.819338E0,2.4099538E0,3.4093843E0,1.1696306E0,1.2403231E0,1.2039793E0,2.205405E0],"tree_param":{"num_deleted":"0","num_feature":"53","num_nodes":"7","size_leaf_vector":"0"}},{"base_weights":[6.248849E-2,6.807442E-1,-8.4533197E-1,7.009151E-2,1.1520982E0,-2.0194735E-1,-1.0813702E0,8.613862E-1,-7.3387057E-1],"categories":[],"categories_nodes":[],"categories_segments":[],"categories_sizes":[],"default_left":[1,1,1,1,0,0,0,0,0],"id":64,"left_children":[1,3,5,7,-1,-1,-1,-1,-1],"loss_changes":[5.0782485E0,1.4523461E0,3.429439E-1,2.7856405E0,0E0,0E0,0E0,0E0,0E0],"parents":[2147483647,0,0,1,1,2,2,3,3],"right_children":[2,4,6,8,-1,-1,-1,-1,-1],"split_conditions":[9.492395E-3,-3.4554857E-1,1.1072874E-1,-5.1796424E-1,1.1520982E-2,-2.0194734E-3,-1.0813702E-2,8.613861E-3,-7.3387055E-3],"split_indices":[4,14,28,52,0,0,0,0,0],"split_type":[0,0,0,0,0,0,0,0,0],"sum_hessian":[7.0225787E0,4.3263354E0,2.6962433E0,2.385088E0,1.9412473E0,1.2217128E0,1.4745306E0,1.1660168E0,1.2190711E0],"tree_param":{"num_deleted":"0","num_feature":"53","num_nodes":"9","size_leaf_vector":"0"}},{"base_weights":[1.920313E-1,8.012649E-1,-7.5736886E-1,4.371114E-2,1.0254309E0,-1.0156876E0,-1.5373513E-1],"categories":[],"categories_nodes":[],"categories_segments":[],"categories_sizes":[],"default_left":[1,1,1,0,0,0,0],"id":65,"left_children":[1,3,5,-1,-1,-1,-1],"loss_changes":[4.955867E0,8.1545544E-1,3.8228953E-1,0E0,0E0,0E0,0E0],"parents":[2147483647,0,0,1,1,2,2],"right_children":[2,4,6,-1,-1,-1,-1],"split_conditions":[1.1458213E-1,-2.5329673E-1,1.6566885E-1,4.371114E-4,1.0254309E-2,-1.01568755E-2,-1.5373513E-3],"split_indices":[31,34,51,0,0,0,0],"split_type":[0,0,0,0,0,0,0],"sum_hessian":[6.5189586E0,4.0658913E0,2.4530673E0,1.2012712E0,2.86462E0,1.2398598E0,1.2132074E0],"tree_param":{"num_deleted":"0","num_feature":"53","num_nodes":"7","size_leaf_vector":"0"}},{"base_weights":[2.7483356E-1,7.949243E-1,-8.7479174E-1,1.115219E0,-2.4898972E-1],"categories":[],"categories_nodes":[],"categories_segments":[],"categories_sizes":[],"default_left":[1,1,0,0,0],"id":66,"left_children":[1,3,-1,-1,-1],"loss_changes":[5.4527984E0,2.2845898E0,0E0,0E0,0E0],"parents":[2147483647,0,0,1,1],"right_children":[2,4,-1,-1,-1],"split_conditions":[8.820863E-2,2.4563056E-1,-8.747918E-3,1.115219E-2,-2.4898972E-3],"split_indices":[3,50,0,0,0],"split_type":[0,0,0,0,0],"sum_hessian":[6.9567294E0,5.0022473E0,1.954482E0,3.7755303E0,1.226717E0],"tree_param":{"num_deleted":"0","num_feature":"53","num_nodes":"5","size_leaf_vector":"0"}},{"base_weights":[2.4501877E-2,5.268264E-1,-1.1401235E0,8.3423746E-1,-1.7550161E-1,1.1073893E0,4.6066083E-2],"categories":[],"categories_nodes":[],"categories_segments":[],"categories_sizes":[],"default_left":[1,1,0,1,0,0,0],"id":67,"left_children":[1,3,-1,5,-1,-1,-1],"loss_changes":[5.2637744E0,1.496426E0,0E0,9.2274976E-1,0E0,0E0,0E0],"parents":[2147483647,0,0,1,1,3,3],"right_children":[2,4,-1,6,-1,-1,-1],"split_conditions":[7.5967796E-2,-2.6276693E-2,-1.1401234E-2,-2.3693938E-2,-1.7550162E-3,1.1073893E-2,4.606608E-4],"split_indices":[48,29,0,3,0,0,0],"split_type":[0,0,0,0,0,0,0],"sum_hessian":[6.9708877E0,5.2528706E0,1.7180171E0,3.5230174E0,1.7298529E0,2.3155277E0,1.2074898E0],"tree_param":{"num_deleted":"0","num_feature":"53","num_nodes":"7","size_leaf_vector":"0"}},{"base_weights":[2.4479623E-1,1.1156313E0,-3.9445305E-1,-8.605053E-1,4.1308793E-1,-1.0346019E0,-2.916157E-1],"categories":[],"categories_nodes":[],"categories_segments":[],"categories_sizes":[],"default_left":[1,0,1,1,0,0,0],"id":68,"left_children":[1,-1,3,5,-1,-1,-1],"loss_changes":[4.468334E0,0E0,2.204042E0,3.8872004E-2,0E0,0E0,0E0],"parents":[2147483647,0,0,2,2,3,3],"right_children":[2,-1,4,6,-1,-1,-1],"split_conditions":[-2.9929748E-1,1.1156313E-2,2.3204958E-1,1.0407255E-1,4.1308794E-3,-1.0346019E-2,-2.9161568E-3],"split_indices":[12,0,30,17,0,0,0],"split_type":[0,0,0,0,0,0,0],"sum_hessian":[6.2362294E0,2.3244548E0,3.9117746E0,2.438733E0,1.4730415E0,1.2404773E0,1.1982559E0],"tree_param":{"num_deleted":"0","num_feature":"53","num_nodes":"7","size_leaf_vector":"0"}},{"base_weights":[4.8551595E-1,1.0352821E0,-5.304249E-1,1.2596775E0,1.3164419E-1,-1.0199074E0,2.0200537E-1],"categories":[],"categories_nodes":[],"categories_segments":[],"categories_sizes":[],"default_left":[1,1,1,0,0,0,0],"id":69,"left_children":[1,3,5,-1,-1,-1,-1],"loss_changes":[4.985347E0,9.4790316E-1,1.442937E0,0E0,0E0,0E0,0E0],"parents":[2147483647,0,0,1,1,2,2],"right_children":[2,4,6,-1,-1,-1,-1],"split_conditions":[8.820863E-2,1.7730433E-1,1.3406703E-1,1.2596775E-2,1.3164419E-3,-1.0199074E-2,2.0200536E-3],"split_indices":[3,2,9,0,0,0,0],"split_type":[0,0,0,0,0,0,0],"sum_hessian":[6.9426513E0,4.4925275E0,2.4501238E0,3.2832172E0,1.2093102E0,1.2333676E0,1.2167562E0],"tree_param":{"num_deleted":"0","num_feature":"53","num_nodes":"7","size_leaf_vector":"0"}},{"base_weights":[-3.6171068E-2,7.262637E-1,-6.527293E-1,6.939328E-2,1.0024691E0,-1.2014701E0,1.8861227E-1],"categories":[],"categories_nodes":[],"categories_segments":[],"categories_sizes":[],"default_left":[1,1,1,0,0,0,0],"id":70,"left_children":[1,3,5,-1,-1,-1,-1],"loss_changes":[4.0103636E0,6.26549E-1,2.3899932E0,0E0,0E0,0E0,0E0],"parents":[2147483647,0,0,1,1,2,2],"right_children":[2,4,6,-1,-1,-1,-1],"split_conditions":[-2.5499767E-1,-2.0165434E-1,2.7794343E-1,6.9393276E-4,1.002469E-2,-1.2014701E-2,1.8861226E-3],"split_indices":[31,0,12,0,0,0,0],"split_type":[0,0,0,0,0,0,0],"sum_hessian":[6.522696E0,2.836792E0,3.685904E0,1.2101223E0,1.6266698E0,1.971808E0,1.7140961E0],"tree_param":{"num_deleted":"0","num_feature":"53","num_nodes":"7","size_leaf_vector":"0"}},{"base_weights":[2.995292E-1,7.408621E-1,-7.124368E-1,2.0012282E-1,1.0690843E0],"categories":[],"categories_nodes":[],"categories_segments":[],"categories_sizes":[],"default_left":[1,1,0,0,0],"id":71,"left_children":[1,3,-1,-1,-1],"loss_changes":[3.4245348E0,6.7462635E-1,0E0,0E0,0E0],"parents":[2147483647,0,0,1,1],"right_children":[2,4,-1,-1,-1],"split_conditions":[8.363527E-2,-1.4490977E-1,-7.1243676E-3,2.001228E-3,1.0690843E-2],"split_indices":[3,14,0,0,0],"split_type":[0,0,0,0,0],"sum_hessian":[5.4859548E0,4.006542E0,1.4794123E0,2.1213615E0,1.885181E0],"tree_param":{"num_deleted":"0","num_feature":"53","num_nodes":"5","size_leaf_vector":"0"}},{"base_weights":[1.08748026E-1,9.9130636E-1,-7.708646E-1,1.06362514E-1,-1.1640353E0],"categories":[],"categories_nodes":[],"categories_segments":[],"categories_sizes":[],"default_left":[1,0,1,0,0],"id":72,"left_children":[1,-1,3,-1,-1],"loss_changes":[6.3432107E0,0E0,1.5592384E0,0E0,0E0],"parents":[2147483647,0,0,2,2],"right_children":[2,-1,4,-1,-1],"split_conditions":[-1.2473732E-1,9.913064E-3,8.553648E-2,1.0636251E-3,-1.1640353E-2],"split_indices":[42,0,31,0,0],"split_type":[0,0,0,0,0],"sum_hessian":[6.186629E0,3.0247593E0,3.1618695E0,1.2043178E0,1.9575516E0],"tree_param":{"num_deleted":"0","num_feature":"53","num_nodes":"5","size_leaf_vector":"0"}},{"base_weights":[3.5802752E-1,7.762854E-1,-4.7656828E-1,-3.1471338E-2,1.2360016E0,2.1298294E-1,-9.529409E-1],"categories":[],"categories_nodes":[],"categories_segments":[],"categories_sizes":[],"default_left":[1,1,1,0,0,0,0],"id":73,"left_children":[1,3,5,-1,-1,-1,-1],"loss_changes":[3.3106158E0,2.2640228E0,1.330301E0,0E0,0E0,0E0,0E0],"parents":[2147483647,0,0,1,1,2,2],"right_children":[2,4,6,-1,-1,-1,-1],"split_conditions":[1.1937471E-1,-9.84679E-2,-5.3053893E-2,-3.1471337E-4,1.2360016E-2,2.1298293E-3,-9.529409E-3],"split_indices":[4,14,19,0,0,0,0],"split_type":[0,0,0,0,0,0,0],"sum_hessian":[7.4241247E0,4.992166E0,2.4319587E0,2.1485465E0,2.8436198E0,1.2195549E0,1.2124038E0],"tree_param":{"num_deleted":"0","num_feature":"53","num_nodes":"7","size_leaf_vector":"0"}},{"base_weights":[1.7779201E-1,7.1417755E-1,-1.0856099E0,-2.3315153E-1,1.1974428E0],"categories":[],"categories_nodes":[],"categories_segments":[],"categories_sizes":[],"default_left":[1,1,0,0,0],"id":74,"left_children":[1,3,-1,-1,-1],"loss_changes":[5.48072E0,2.78677E0,0E0,0E0,0E0],"parents":[2147483647,0,0,1,1],"right_children":[2,4,-1,-1,-1],"split_conditions":[3.9342058E-1,-1.7181888E-1,-1.08560985E-2,-2.3315153E-3,1.1974428E-2],"split_indices":[18,9,0,0,0],"split_type":[0,0,0,0,0],"sum_hessian":[5.9434953E0,4.4773326E0,1.4661623E0,1.6873077E0,2.790025E0],"tree_param":{"num_deleted":"0","num_feature":"53","num_nodes":"5","size_leaf_vector":"0"}},{"base_weights":[1.9691584E-1,9.1024905E-1,-1.0865718E0,1.1559557E0,1.24976166E-1],"categories":[],"categories_nodes":[],"categories_segments":[],"categories_sizes":[],"default_left":[1,1,0,0,0],"id":75,"left_children":[1,3,-1,-1,-1],"loss_changes":[6.734186E0,7.387514E-1,0E0,0E0,0E0],"parents":[2147483647,0,0,1,1],"right_children":[2,4,-1,-1,-1],"split_conditions":[4.150992E-1,2.1472363E-1,-1.0865718E-2,1.1559556E-2,1.2497617E-3],"split_indices":[4,20,0,0,0],"split_type":[0,0,0,0,0],"sum_hessian":[5.275034E0,3.5775266E0,1.6975075E0,2.3653736E0,1.212153E0],"tree_param":{"num_deleted":"0","num_feature":"53","num_nodes":"5","size_leaf_vector":"0"}},{"base_weights":[6.915167E-2,-8.751785E-1,8.6889493E-1,-1.9650199E-1,-1.1029015E0,1.1346314E0,7.515118E-2],"categories":[],"categories_nodes":[],"categories_segments":[],"categories_sizes":[],"default_left":[1,1,1,0,0,0,0],"id":76,"left_children":[1,3,5,-1,-1,-1,-1],"loss_changes":[6.368653E0,3.8654065E-1,8.686614E-1,0E0,0E0,0E0,0E0],"parents":[2147483647,0,0,1,1,2,2],"right_children":[2,4,6,-1,-1,-1,-1],"split_conditions":[1.1842657E-2,-2.5004768E-1,2.5711876E-1,-1.9650199E-3,-1.1029014E-2,1.1346314E-2,7.5151183E-4],"split_indices":[26,26,26,0,0,0,0],"split_type":[0,0,0,0,0,0,0],"sum_hessian":[6.425918E0,2.9033463E0,3.5225716E0,1.197467E0,1.7058794E0,2.3172984E0,1.2052733E0],"tree_param":{"num_deleted":"0","num_feature":"53","num_nodes":"7","size_leaf_vector":"0"}},{"base_weights":[1.7104478E-1,6.110366E-1,-1.0634443E0,-4.5641723E-1,1.0069267E0,1.2245696E0,1.8087223E-1],"categories":[],"categories_nodes":[],"categories_segments":[],"categories_sizes":[],"default_left":[1,1,0,0,1,0,0],"id":77,"left_children":[1,3,-1,-1,5,-1,-1],"loss_changes":[4.9768977E0,3.2099264E0,0E0,0E0,6.881161E-1,0E0,0E0],"parents":[2147483647,0,0,1,1,4,4],"right_children":[2,4,-1,-1,6,-1,-1],"split_conditions":[3.94808E-1,-3.0196762E-1,-1.0634443E-2,-4.564172E-3,5.1626134E-1,1.2245695E-2,1.8087223E-3],"split_indices":[18,18,0,0,15,0,0],"split_type":[0,0,0,0,0,0,0],"sum_hessian":[6.966444E0,5.5082455E0,1.4581988E0,1.4488273E0,4.059418E0,2.8310752E0,1.228343E0],"tree_param":{"num_deleted":"0","num_feature":"53","num_nodes":"7","size_leaf_vector":"0"}},{"base_weights":[1.0526727E-1,1.0941654E0,-5.249433E-1,1.9458036E-1,-9.795705E-1],"categories":[],"categories_nodes":[],"categories_segments":[],"categories_sizes":[],"default_left":[1,0,1,0,0],"id":78,"left_children":[1,-1,3,-1,-1],"loss_changes":[5.331433E0,0E0,1.9366897E0,0E0,0E0],"parents":[2147483647,0,0,2,2],"right_children":[2,-1,4,-1,-1],"split_conditions":[-4.8187755E-2,1.0941654E-2,9.492395E-3,1.9458035E-3,-9.795705E-3],"split_indices":[30,0,4,0,0],"split_type":[0,0,0,0,0],"sum_hessian":[6.6331043E0,2.2952738E0,4.3378305E0,1.9010698E0,2.436761E0],"tree_param":{"num_deleted":"0","num_feature":"53","num_nodes":"5","size_leaf_vector":"0"}},{"base_weights":[-2.61702E-3,7.67346E-1,-7.608143E-1,1.0469434E0,5.6064956E-2,9.573287E-2,-1.1418107E0],"categories":[],"categories_nodes":[],"categories_segments":[],"categories_sizes":[],"default_left":[1,1,1,0,0,0,0],"id":79,"left_children":[1,3,5,-1,-1,-1,-1],"loss_changes":[4.7672153E0,7.473893E-1,1.4514644E0,0E0,0E0,0E0,0E0],"parents":[2147483647,0,0,1,1,2,2],"right_children":[2,4,6,-1,-1,-1,-1],"split_conditions":[-2.5499767E-1,2.266722E-1,8.650267E-2,1.0469434E-2,5.6064955E-4,9.5732865E-4,-1.1418106E-2],"split_indices":[31,26,42,0,0,0,0],"split_type":[0,0,0,0,0,0,0],"sum_hessian":[6.1660204E0,3.0532866E0,3.112734E0,1.8529845E0,1.2003019E0,1.1888099E0,1.9239243E0],"tree_param":{"num_deleted":"0","num_feature":"53","num_nodes":"7","size_leaf_vector":"0"}},{"base_weights":[4.625652E-1,7.7708125E-1,-5.7052827E-1,-4.6901863E-2,1.2624074E0],"categories":[],"categories_nodes":[],"categories_segments":[],"categories_sizes":[],"default_left":[1,1,0,0,0],"id":80,"left_children":[1,3,-1,-1,-1],"loss_changes":[2.7063324E0,2.363655E0,0E0,0E0,0E0],"parents":[2147483647,0,0,1,1],"right_children":[2,4,-1,-1,-1],"split_conditions":[2.1789552E-1,-1.00160874E-1,-5.7052826E-3,-4.6901862E-4,1.2624074E-2],"split_indices":[2,51,0,0,0],"split_type":[0,0,0,0,0],"sum_hessian":[5.9646516E0,4.762548E0,1.2021036E0,2.1002016E0,2.6623464E0],"tree_param":{"num_deleted":"0","num_feature":"53","num_nodes":"5","size_leaf_vector":"0"}},{"base_weights":[3.2809278E-1,1.1354591E0,-3.5799074E-1,3.094699E-1,-1.0684445E0],"categories":[],"categories_nodes":[],"categories_segments":[],"categories_sizes":[],"default_left":[1,0,1,0,0],"id":81,"left_children":[1,-1,3,-1,-1],"loss_changes":[4.3626165E0,0E0,2.5220823E0,0E0,0E0],"parents":[2147483647,0,0,2,2],"right_children":[2,-1,4,-1,-1],"split_conditions":[-3.012385E-1,1.1354591E-2,1.9179977E-2,3.094699E-3,-1.0684445E-2],"split_indices":[31,0,0,0,0],"split_type":[0,0,0,0,0],"sum_hessian":[6.1420555E0,2.5207326E0,3.621323E0,2.1581647E0,1.4631584E0],"tree_param":{"num_deleted":"0","num_feature":"53","num_nodes":"5","size_leaf_vector":"0"}},{"base_weights":[5.019089E-1,1.2293261E0,-3.3304563E-1,-9.040478E-1,5.7729083E-1],"categories":[],"categories_nodes":[],"categories_segments":[],"categories_sizes":[],"default_left":[1,0,1,0,0],"id":82,"left_children":[1,-1,3,-1,-1],"loss_changes":[4.7586284E0,0E0,2.6639132E0,0E0,0E0],"parents":[2147483647,0,0,2,2],"right_children":[2,-1,4,-1,-1],"split_conditions":[-2.4474379E-2,1.22932615E-2,1.5116005E-1,-9.040478E-3,5.772908E-3],"split_indices":[48,0,28,0,0],"split_type":[0,0,0,0,0],"sum_hessian":[6.1608334E0,3.0400217E0,3.1208117E0,1.9220977E0,1.1987141E0],"tree_param":{"num_deleted":"0","num_feature":"53","num_nodes":"5","size_leaf_vector":"0"}},{"base_weights":[-5.8932183E-3,7.872531E-1,-6.2865865E-1,-1.1322982E0,2.707005E-1],"categories":[],"categories_nodes":[],"categories_segments":[],"categories_sizes":[],"default_left":[1,0,1,0,0],"id":83,"left_children":[1,-1,3,-1,-1],"loss_changes":[3.4557393E0,0E0,2.0792732E0,0E0,0E0],"parents":[2147483647,0,0,2,2],"right_children":[2,-1,4,-1,-1],"split_conditions":[-6.584792E-2,7.87253E-3,2.2070521E-1,-1.1322982E-2,2.707005E-3],"split_indices":[30,0,42,0,0],"split_type":[0,0,0,0,0],"sum_hessian":[4.994252E0,2.0804687E0,2.9137838E0,1.7017828E0,1.2120008E0],"tree_param":{"num_deleted":"0","num_feature":"53","num_nodes":"5","size_leaf_vector":"0"}},{"base_weights":[-3.2940008E-2,1.0017601E0,-5.9908557E-1,-1.0344195E0,-1.9181904E-1,6.880264E-1,-9.878897E-1],"categories":[],"categories_nodes":[],"categories_segments":[],"categories_sizes":[],"default_left":[1,0,1,0,1,0,0],"id":84,"left_children":[1,-1,3,-1,5,-1,-1],"loss_changes":[4.653694E0,0E0,7.055011E-1,0E0,3.3845322E0,0E0,0E0],"parents":[2147483647,0,0,2,2,4,4],"right_children":[2,-1,4,-1,6,-1,-1],"split_conditions":[-3.6360174E-1,1.0017601E-2,1.2158614E-1,-1.0344195E-2,2.8328896E-1,6.8802643E-3,-9.878897E-3],"split_indices":[6,0,16,0,16,0,0],"split_type":[0,0,0,0,0,0,0],"sum_hessian":[5.9197974E0,1.8214451E0,4.0983524E0,1.2366104E0,2.861742E0,1.423814E0,1.437928E0],"tree_param":{"num_deleted":"0","num_feature":"53","num_nodes":"7","size_leaf_vector":"0"}},{"base_weights":[8.807584E-2,5.869082E-1,-1.0436149E0,-3.4010726E-1,8.964573E-1,1.6406184E-1,1.1020933E0],"categories":[],"categories_nodes":[],"categories_segments":[],"categories_sizes":[],"default_left":[1,1,0,0,1,0,0],"id":85,"left_children":[1,3,-1,-1,5,-1,-1],"loss_changes":[4.8705845E0,1.9908304E0,0E0,0E0,5.239575E-1,0E0,0E0],"parents":[2147483647,0,0,1,1,4,4],"right_children":[2,4,-1,-1,6,-1,-1],"split_conditions":[2.2417575E-1,-3.1218356E-1,-1.0436148E-2,-3.4010725E-3,-1.9259922E-1,1.6406184E-3,1.1020933E-2],"split_indices":[47,18,0,0,41,0,0],"split_type":[0,0,0,0,0,0,0],"sum_hessian":[6.542777E0,4.8752346E0,1.6675426E0,1.1957049E0,3.6795297E0,1.2007501E0,2.4787796E0],"tree_param":{"num_deleted":"0","num_feature":"53","num_nodes":"7","size_leaf_vector":"0"}},{"base_weights":[2.4197645E-1,8.812341E-1,-6.115698E-1],"categories":[],"categories_nodes":[],"categories_segments":[],"categories_sizes":[],"default_left":[1,0,0],"id":86,"left_children":[1,-1,-1],"loss_changes":[3.5366411E0,0E0,0E0],"parents":[2147483647,0,0],"right_children":[2,-1,-1],"split_conditions":[-1.5738286E-1,8.812341E-3,-6.1156983E-3],"split_indices":[31,0,0],"split_type":[0,0,0],"sum_hessian":[4.493964E0,2.5509837E0,1.9429803E0],"tree_param":{"num_deleted":"0","num_feature":"53","num_nodes":"3","size_leaf_vector":"0"}},{"base_weights":[2.4847186E-1,1.1287379E0,-5.132145E-1,2.148171E-1,-9.069502E-1],"categories":[],"categories_nodes":[],"categories_segments":[],"categories_sizes":[],"default_left":[1,0,1,0,0],"id":87,"left_children":[1,-1,3,-1,-1],"loss_changes":[5.4680924E0,0E0,1.512407E0,0E0,0E0],"parents":[2147483647,0,0,2,2],"right_children":[2,-1,4,-1,-1],"split_conditions":[-2.7011997E-1,1.1287379E-2,-2.4474379E-2,2.148171E-3,-9.069501E-3],"split_indices":[31,0,48,0,0],"split_type":[0,0,0,0,0],"sum_hessian":[6.2914305E0,2.69499E0,3.5964406E0,1.4218326E0,2.174608E0],"tree_param":{"num_deleted":"0","num_feature":"53","num_nodes":"5","size_leaf_vector":"0"}},{"base_weights":[2.9615732E-2,5.272069E-1,-1.0793656E0,9.357753E-1,-3.506237E-1],"categories":[],"categories_nodes":[],"categories_segments":[],"categories_sizes":[],"default_left":[1,1,0,0,0],"id":88,"left_children":[1,3,-1,-1,-1],"loss_changes":[4.373875E0,2.2760792E0,0E0,0E0,0E0],"parents":[2147483647,0,0,1,1],"right_children":[2,4,-1,-1,-1],"split_conditions":[3.0533755E-1,2.6197267E-1,-1.0793656E-2,9.357752E-3,-3.506237E-3],"split_indices":[18,24,0,0,0],"split_type":[0,0,0,0,0],"sum_hessian":[5.8950577E0,4.431349E0,1.4637086E0,2.9788806E0,1.4524683E0],"tree_param":{"num_deleted":"0","num_feature":"53","num_nodes":"5","size_leaf_vector":"0"}},{"base_weights":[3.8249195E-2,-6.055346E-1,5.01204E-1,8.4140724E-1,-2.1644616E-1],"categories":[],"categories_nodes":[],"categories_segments":[],"categories_sizes":[],"default_left":[1,0,1,0,0],"id":89,"left_children":[1,-1,3,-1,-1],"loss_changes":[2.2111256E0,0E0,1.2246952E0,0E0,0E0],"parents":[2147483647,0,0,2,2],"right_children":[2,-1,4,-1,-1],"split_conditions":[-8.8646926E-2,-6.055346E-3,-6.2228693E-3,8.414072E-3,-2.1644616E-3],"split_indices":[37,0,48,0,0],"split_type":[0,0,0,0,0],"sum_hessian":[5.4005194E0,2.130238E0,3.2702816E0,2.1015778E0,1.1687038E0],"tree_param":{"num_deleted":"0","num_feature":"53","num_nodes":"5","size_leaf_vector":"0"}},{"base_weights":[2.3105094E-1,8.593363E-1,-5.862454E-1,-3.150885E-3,1.1451342E0,2.2043455E-1,-1.0414613E0],"categories":[],"categories_nodes":[],"categories_segments":[],"categories_sizes":[],"default_left":[1,1,1,0,0,0,0],"id":90,"left_children":[1,3,5,-1,-1,-1,-1],"loss_changes":[4.408062E0,1.1632001E0,1.6613607E0,0E0,0E0,0E0,0E0],"parents":[2147483647,0,0,1,1,2,2],"right_children":[2,4,6,-1,-1,-1,-1],"split_conditions":[1.1458213E-1,-4.569444E-1,8.820863E-2,-3.150885E-5,1.1451342E-2,2.2043453E-3,-1.0414613E-2],"split_indices":[31,49,3,0,0,0,0],"split_type":[0,0,0,0,0,0,0],"sum_hessian":[6.6033406E0,3.7042847E0,2.899056E0,1.1681106E0,2.536174E0,1.2318591E0,1.6671969E0],"tree_param":{"num_deleted":"0","num_feature":"53","num_nodes":"7","size_leaf_vector":"0"}},{"base_weights":[3.9018217E-1,7.796663E-1,-9.1043085E-1,1.0884637E0,-2.73147E-1],"categories":[],"categories_nodes":[],"categories_segments":[],"categories_sizes":[],"default_left":[1,1,0,0,0],"id":91,"left_children":[1,3,-1,-1,-1],"loss_changes":[4.5196223E0,2.3540285E0,0E0,0E0,0E0],"parents":[2147483647,0,0,1,1],"right_children":[2,4,-1,-1,-1],"split_conditions":[3.4649348E-1,1.7323303E-1,-9.104309E-3,1.0884636E-2,-2.7314697E-3],"split_indices":[16,42,0,0,0],"split_type":[0,0,0,0,0],"sum_hessian":[6.520785E0,5.3262997E0,1.194485E0,4.092175E0,1.234125E0],"tree_param":{"num_deleted":"0","num_feature":"53","num_nodes":"5","size_leaf_vector":"0"}},{"base_weights":[3.5577685E-1,1.168942E0,-5.642045E-1,-1.0425891E0,2.6753408E-1],"categories":[],"categories_nodes":[],"categories_segments":[],"categories_sizes":[],"default_left":[1,0,1,0,0],"id":92,"left_children":[1,-1,3,-1,-1],"loss_changes":[5.769182E0,0E0,1.8223829E0,0E0,0E0],"parents":[2147483647,0,0,2,2],"right_children":[2,-1,4,-1,-1],"split_conditions":[1.6788453E-1,1.168942E-2,1.3878539E-1,-1.0425891E-2,2.6753407E-3],"split_indices":[31,0,28,0,0],"split_type":[0,0,0,0,0],"sum_hessian":[5.830212E0,2.9511216E0,2.8790903E0,1.6668662E0,1.2122242E0],"tree_param":{"num_deleted":"0","num_feature":"53","num_nodes":"5","size_leaf_vector":"0"}},{"base_weights":[6.296635E-1,1.1323602E0,-5.5349916E-1,3.327093E-1,1.2552043E0],"categories":[],"categories_nodes":[],"categories_segments":[],"categories_sizes":[],"default_left":[1,1,0,0,0],"id":93,"left_children":[1,3,-1,-1,-1],"loss_changes":[5.0721545E0,1.2990665E-1,0E0,0E0,0E0],"parents":[2147483647,0,0,1,1],"right_children":[2,4,-1,-1,-1],"split_conditions":[1.104036E-1,-6.9766784E-1,-5.5349916E-3,3.327093E-3,1.25520425E-2],"split_indices":[4,15,0,0,0],"split_type":[0,0,0,0,0],"sum_hessian":[6.4741135E0,4.573769E0,1.9003441E0,1.1028935E0,3.4708757E0],"tree_param":{"num_deleted":"0","num_feature":"53","num_nodes":"5","size_leaf_vector":"0"}},{"base_weights":[4.6090193E-2,6.336554E-1,-9.358361E-1,1.136695E0,-2.6429072E-1],"categories":[],"categories_nodes":[],"categories_segments":[],"categories_sizes":[],"default_left":[1,1,0,0,0],"id":94,"left_children":[1,3,-1,-1,-1],"loss_changes":[4.8158E0,2.6381702E0,0E0,0E0,0E0],"parents":[2147483647,0,0,1,1],"right_children":[2,4,-1,-1,-1],"split_conditions":[8.820863E-2,8.523224E-3,-9.35836E-3,1.136695E-2,-2.6429072E-3],"split_indices":[3,4,0,0,0],"split_type":[0,0,0,0,0],"sum_hessian":[6.3192368E0,4.1754255E0,2.143811E0,2.5057776E0,1.669648E0],"tree_param":{"num_deleted":"0","num_feature":"53","num_nodes":"5","size_leaf_vector":"0"}},{"base_weights":[1.7795232E-1,7.3687834E-1,-6.876228E-1,-6.9989495E-2,1.1454546E0,-9.8213214E-1,-7.42073E-2],"categories":[],"categories_nodes":[],"categories_segments":[],"categories_sizes":[],"default_left":[1,1,1,0,0,0,0],"id":95,"left_children":[1,3,5,-1,-1,-1,-1],"loss_changes":[4.060353E0,1.7107153E0,5.412394E-1,0E0,0E0,0E0,0E0],"parents":[2147483647,0,0,1,1,2,2],"right_children":[2,4,6,-1,-1,-1,-1],"split_conditions":[9.1388345E-2,-2.1037772E-1,-7.6384075E-2,-6.998949E-4,1.1454546E-2,-9.821321E-3,-7.42073E-4],"split_indices":[3,37,0,0,0,0,0],"split_type":[0,0,0,0,0,0,0],"sum_hessian":[6.3454194E0,3.9460368E0,2.3993826E0,1.6050462E0,2.3409908E0,1.2149705E0,1.1844122E0],"tree_param":{"num_deleted":"0","num_feature":"53","num_nodes":"7","size_leaf_vector":"0"}},{"base_weights":[2.6454422E-1,1.0916494E0,-4.491883E-1,-9.8205423E-1,3.495053E-2,9.311551E-1,-8.86739E-1],"categories":[],"categories_nodes":[],"categories_segments":[],"categories_sizes":[],"default_left":[1,0,1,0,1,0,0],"id":96,"left_children":[1,-1,3,-1,5,-1,-1],"loss_changes":[4.7736597E0,0E0,1.2218852E0,0E0,3.6156287E0,0E0,0E0],"parents":[2147483647,0,0,2,2,4,4],"right_children":[2,-1,4,-1,6,-1,-1],"split_conditions":[-3.002771E-1,1.0916494E-2,1.09005705E-1,-9.820542E-3,4.5034683E-1,9.31155E-3,-8.8673895E-3],"split_indices":[12,0,52,0,6,0,0],"split_type":[0,0,0,0,0,0,0],"sum_hessian":[6.2557564E0,2.6524663E0,3.6032903E0,1.225734E0,2.3775566E0,1.2002368E0,1.1773196E0],"tree_param":{"num_deleted":"0","num_feature":"53","num_nodes":"7","size_leaf_vector":"0"}},{"base_weights":[2.5928876E-1,8.2139105E-1,-5.2859646E-1,-2.7119702E-2,1.1104256E0,1.8084608E-1,-9.6140885E-1],"categories":[],"categories_nodes":[],"categories_segments":[],"categories_sizes":[],"default_left":[1,1,1,0,0,0,0],"id":97,"left_children":[1,3,5,-1,-1,-1,-1],"loss_changes":[3.6496735E0,1.1653671E0,1.2889563E0,0E0,0E0,0E0,0E0],"parents":[2147483647,0,0,1,1,2,2],"right_children":[2,4,6,-1,-1,-1,-1],"split_conditions":[1.6788453E-1,-3.5826185E-1,5.426962E-3,-2.71197E-4,1.1104256E-2,1.8084608E-3,-9.614089E-3],"split_indices":[31,10,4,0,0,0,0],"split_type":[0,0,0,0,0,0,0],"sum_hessian":[6.2605367E0,3.6289806E0,2.631556E0,1.1523194E0,2.4766612E0,1.2177109E0,1.4138451E0],"tree_param":{"num_deleted":"0","num_feature":"53","num_nodes":"7","size_leaf_vector":"0"}},{"base_weights":[3.057104E-1,7.33082E-1,-5.4744107E-1,1.1221896E0,-2.779007E-1],"categories":[],"categories_nodes":[],"categories_segments":[],"categories_sizes":[],"default_left":[1,1,0,0,0],"id":98,"left_children":[1,3,-1,-1,-1],"loss_changes":[2.9360914E0,2.302079E0,0E0,0E0,0E0],"parents":[2147483647,0,0,1,1],"right_children":[2,4,-1,-1,-1],"split_conditions":[8.523224E-3,1.6293144E-1,-5.4744105E-3,1.1221896E-2,-2.779007E-3],"split_indices":[4,42,0,0,0],"split_type":[0,0,0,0,0],"sum_hessian":[5.9519587E0,4.0592723E0,1.8926864E0,2.851707E0,1.2075654E0],"tree_param":{"num_deleted":"0","num_feature":"53","num_nodes":"5","size_leaf_vector":"0"}},{"base_weights":[1.5403956E-1,9.668829E-1,-2.8590342E-1,4.2242038E-1,-7.606845E-1,-1.0684965E0,-6.1242126E-2],"categories":[],"categories_nodes":[],"categories_segments":[],"categories_sizes":[],"default_left":[1,0,1,0,1,0,0],"id":99,"left_children":[1,-1,3,-1,5,-1,-1],"loss_changes":[2.873307E0,0E0,2.165416E0,0E0,7.1824265E-1,0E0,0E0],"parents":[2147483647,0,0,2,2,4,4],"right_children":[2,-1,4,-1,6,-1,-1],"split_conditions":[-5.6178235E-2,9.668829E-3,-3.004513E-1,4.2242035E-3,3.6495924E-1,-1.0684964E-2,-6.1242125E-4],"split_indices":[30,0,11,0,49,0,0],"split_type":[0,0,0,0,0,0,0],"sum_hessian":[6.2618494E0,1.7783694E0,4.48348E0,1.8434817E0,2.6399984E0,1.4668319E0,1.1731665E0],"tree_param":{"num_deleted":"0","num_feature":"53","num_nodes":"7","size_leaf_vector":"0"}},{"base_weights":[5.5926377E-1,9.664174E-1,-6.2355953E-1,9.914668E-2,1.1895071E0],"categories":[],"categories_nodes":[],"categories_segments":[],"categories_sizes":[],"default_left":[1,1,0,0,0],"id":100,"left_children":[1,3,-1,-1,-1],"loss_changes":[3.6385026E0,8.652835E-1,0E0,0E0,0E0],"parents":[2147483647,0,0,1,1],"right_children":[2,4,-1,-1,-1],"split_conditions":[3.0672497E-1,-2.617489E-1,-6.2355953E-3,9.914668E-4,1.1895071E-2],"split_indices":[18,2,0,0,0],"split_type":[0,0,0,0,0],"sum_hessian":[5.3038664E0,4.0817842E0,1.222082E0,1.1306726E0,2.9511118E0],"tree_param":{"num_deleted":"0","num_feature":"53","num_nodes":"5","size_leaf_vector":"0"}},{"base_weights":[2.7285367E-1,7.6511896E-1,-2.1276428E-1,-7.71964E-1,5.0166255E-1],"categories":[],"categories_nodes":[],"categories_segments":[],"categories_sizes":[],"default_left":[1,0,1,0,0],"id":101,"left_children":[1,-1,3,-1,-1],"loss_changes":[1.5165658E0,0E0,1.8387603E0,0E0,0E0],"parents":[2147483647,0,0,2,2],"right_children":[2,-1,4,-1,-1],"split_conditions":[9.0401225E-2,7.6511893E-3,5.9569597E-2,-7.71964E-3,5.0166254E-3],"split_indices":[28,0,1,0,0],"split_type":[0,0,0,0,0],"sum_hessian":[4.663082E0,2.0298696E0,2.6332123E0,1.4318957E0,1.2013166E0],"tree_param":{"num_deleted":"0","num_feature":"53","num_nodes":"5","size_leaf_vector":"0"}},{"base_weights":[1.0719072E-1,6.542569E-1,-4.6562672E-1,-2.777454E-1,1.1047946E0,3.441091E-1,-9.1267806E-1],"categories":[],"categories_nodes":[],"categories_segments":[],"categories_sizes":[],"default_left":[1,1,1,0,0,0,0],"id":102,"left_children":[1,3,5,-1,-1,-1,-1],"loss_changes":[3.0198178E0,2.3423848E0,2.057725E0,0E0,0E0,0E0,0E0],"parents":[2147483647,0,0,1,1,2,2],"right_children":[2,4,6,-1,-1,-1,-1],"split_conditions":[8.751687E-2,-3.3690345E-1,1.9179977E-2,-2.777454E-3,1.1047946E-2,3.4410907E-3,-9.126781E-3],"split_indices":[31,49,0,0,0,0,0],"split_type":[0,0,0,0,0,0,0],"sum_hessian":[7.664475E0,3.8476367E0,3.8168383E0,1.3788375E0,2.4687994E0,1.4395953E0,2.3772428E0],"tree_param":{"num_deleted":"0","num_feature":"53","num_nodes":"7","size_leaf_vector":"0"}},{"base_weights":[1.6494608E-1,6.8649143E-1,-7.731488E-1,-2.0537874E-1,1.1077297E0],"categories":[],"categories_nodes":[],"categories_segments":[],"categories_sizes":[],"default_left":[1,1,0,0,0],"id":103,"left_children":[1,3,-1,-1,-1],"loss_changes":[3.841618E0,2.0604262E0,0E0,0E0,0E0],"parents":[2147483647,0,0,1,1],"right_children":[2,4,-1,-1,-1],"split_conditions":[2.559566E-1,-4.500686E-1,-7.7314875E-3,-2.0537875E-3,1.1077297E-2],"split_indices":[46,16,0,0,0],"split_type":[0,0,0,0,0],"sum_hessian":[5.767087E0,3.8788176E0,1.8882694E0,1.4086922E0,2.4701252E0],"tree_param":{"num_deleted":"0","num_feature":"53","num_nodes":"5","size_leaf_vector":"0"}},{"base_weights":[1.03736594E-1,6.7697686E-1,-4.7391096E-1,2.4718326E-2,9.4784755E-1,1.8009605E-1,-8.3166E-1],"categories":[],"categories_nodes":[],"categories_segments":[],"categories_sizes":[],"default_left":[1,1,1,0,0,0,0],"id":104,"left_children":[1,3,5,-1,-1,-1,-1],"loss_changes":[2.4811518E0,6.2785995E-1,1.0477035E0,0E0,0E0,0E0,0E0],"parents":[2147483647,0,0,1,1,2,2],"right_children":[2,4,6,-1,-1,-1,-1],"split_conditions":[-1.863176E-4,-2.1835007E-1,-1.8193534E-1,2.4718326E-4,9.478475E-3,1.8009604E-3,-8.3166E-3],"split_indices":[3,17,2,0,0,0,0],"split_type":[0,0,0,0,0,0,0],"sum_hessian":[5.5240836E0,2.6863122E0,2.8377712E0,1.1084388E0,1.5778735E0,1.1790025E0,1.6587687E0],"tree_param":{"num_deleted":"0","num_feature":"53","num_nodes":"7","size_leaf_vector":"0"}},{"base_weights":[4.9420545E-1,-2.3060499E-1,9.211858E-1,4.4042426E-1,-7.4181676E-1,2.8943574E-2,1.1849093E0],"categories":[],"categories_nodes":[],"categories_segments":[],"categories_sizes":[],"default_left":[1,1,1,0,0,0,0],"id":105,"left_children":[1,3,5,-1,-1,-1,-1],"loss_changes":[2.527648E0,1.5524117E0,1.1205664E0,0E0,0E0,0E0,0E0],"parents":[2147483647,0,0,1,1,2,2],"right_children":[2,4,6,-1,-1,-1,-1],"split_conditions":[-2.2128129E-1,1.9375506E-1,-2.2433582E-1,4.4042426E-3,-7.4181673E-3,2.8943573E-4,1.1849093E-2],"split_indices":[20,0,2,0,0,0,0],"split_type":[0,0,0,0,0,0,0],"sum_hessian":[6.480997E0,2.573066E0,3.9079309E0,1.172493E0,1.4005731E0,1.1447402E0,2.7631907E0],"tree_param":{"num_deleted":"0","num_feature":"53","num_nodes":"7","size_leaf_vector":"0"}},{"base_weights":[5.3795394E-2,4.532984E-1,-5.60543E-1,-3.427296E-1,8.927483E-1,-9.331582E-1,2.1142738E-2],"categories":[],"categories_nodes":[],"categories_segments":[],"categories_sizes":[],"default_left":[1,1,1,0,0,0,0],"id":106,"left_children":[1,3,5,-1,-1,-1,-1],"loss_changes":[2.1993167E0,2.1794107E0,7.935637E-1,0E0,0E0,0E0,0E0],"parents":[2147483647,0,0,1,1,2,2],"right_children":[2,4,6,-1,-1,-1,-1],"split_conditions":[2.559566E-1,-1.9097427E-1,4.6848245E-3,-3.427296E-3,8.927483E-3,-9.331582E-3,2.1142738E-4],"split_indices":[46,37,38,0,0,0,0],"split_type":[0,0,0,0,0,0,0],"sum_hessian":[6.925777E0,4.355524E0,2.570253E0,1.6275119E0,2.728012E0,1.1983714E0,1.3718815E0],"tree_param":{"num_deleted":"0","num_feature":"53","num_nodes":"7","size_leaf_vector":"0"}},{"base_weights":[8.660023E-2,5.840526E-1,-8.514189E-1,9.301079E-1,-3.33438E-1],"categories":[],"categories_nodes":[],"categories_segments":[],"categories_sizes":[],"default_left":[1,1,0,0,0],"id":107,"left_children":[1,3,-1,-1,-1],"loss_changes":[3.8381248E0,1.9839034E0,0E0,0E0,0E0],"parents":[2147483647,0,0,1,1],"right_children":[2,4,-1,-1,-1],"split_conditions":[8.820863E-2,2.1747841E-1,-8.514189E-3,9.3010785E-3,-3.33438E-3],"split_indices":[3,2,0,0,0],"split_type":[0,0,0,0,0],"sum_hessian":[6.1596847E0,4.2716756E0,1.8880092E0,3.0917795E0,1.1798962E0],"tree_param":{"num_deleted":"0","num_feature":"53","num_nodes":"5","size_leaf_vector":"0"}},{"base_weights":[4.5033857E-2,8.4516805E-1,-6.7557925E-1,1.5294203E-1,-1.073334E0],"categories":[],"categories_nodes":[],"categories_segments":[],"categories_sizes":[],"default_left":[1,0,1,0,0],"id":108,"left_children":[1,-1,3,-1,-1],"loss_changes":[4.4424195E0,0E0,1.5115203E0,0E0,0E0],"parents":[2147483647,0,0,2,2],"right_children":[2,-1,4,-1,-1],"split_conditions":[-1.5751608E-1,8.451681E-3,-1.19450256E-1,1.5294203E-3,-1.073334E-2],"split_indices":[31,0,48,0,0],"split_type":[0,0,0,0,0],"sum_hessian":[5.714407E0,2.6258945E0,3.0885127E0,1.2014288E0,1.887084E0],"tree_param":{"num_deleted":"0","num_feature":"53","num_nodes":"5","size_leaf_vector":"0"}},{"base_weights":[1.5206581E-1,9.213979E-1,-4.51902E-1,4.2869005E-1,-8.2787824E-1,-2.2522618E-1,-1.016379E0],"categories":[],"categories_nodes":[],"categories_segments":[],"categories_sizes":[],"default_left":[1,0,1,0,1,0,0],"id":109,"left_children":[1,-1,3,-1,5,-1,-1],"loss_changes":[3.9856138E0,0E0,2.001762E0,0E0,2.0583558E-1,0E0,0E0],"parents":[2147483647,0,0,2,2,4,4],"right_children":[2,-1,4,-1,6,-1,-1],"split_conditions":[-1.2792182E-1,9.213979E-3,-3.012385E-1,4.2869E-3,7.486731E-2,-2.2522619E-3,-1.016379E-2],"split_indices":[48,0,31,0,48,0,0],"split_type":[0,0,0,0,0,0,0],"sum_hessian":[6.681519E0,2.707342E0,3.9741774E0,1.1471581E0,2.8270192E0,1.1965097E0,1.6305095E0],"tree_param":{"num_deleted":"0","num_feature":"53","num_nodes":"7","size_leaf_vector":"0"}}]},"name":"gbtree"},"learner_model_param":{"base_score":"5E-1","boost_from_average":"1","num_class":"0","num_feature":"53","num_target":"1"},"objective":{"name":"binary:logistic","reg_loss_param":{"scale_pos_weight":"1"}}},"version":[1,7,7]}
